palabra,dim_0,dim_1,dim_2,dim_3,dim_4,dim_5,dim_6,dim_7,dim_8,dim_9,dim_10,dim_11,dim_12,dim_13,dim_14,dim_15,dim_16,dim_17,dim_18,dim_19,dim_20,dim_21,dim_22,dim_23,dim_24,dim_25,dim_26,dim_27,dim_28,dim_29,dim_30,dim_31,dim_32,dim_33,dim_34,dim_35,dim_36,dim_37,dim_38,dim_39,dim_40,dim_41,dim_42,dim_43,dim_44,dim_45,dim_46,dim_47,dim_48,dim_49
acceder,-0.40202644,0.23219581,0.2314586,0.10861762,-0.15887278,0.013933551,-0.5562483,-0.017347964,0.19406608,0.0072130226,0.23048046,0.37582052,0.7734321,0.13783576,-0.024043519,-0.33424357,0.4879181,-0.28823662,0.12252994,-0.23611425,0.24073593,-0.2460158,-0.13459803,-0.2303966,-0.15484239,0.11331429,-0.61666197,0.4652135,0.10148886,-0.36038262,0.061415378,-0.58081913,-0.7699587,0.438488,0.3830646,0.20659864,0.29838216,-0.2242347,0.24225175,-0.094171934,0.044600453,0.23523346,-0.23610584,0.3672982,-0.2764185,0.05150866,-0.45068204,0.14647977,0.40292308,0.10119973
privilegios,0.30303502,0.42855507,0.25017053,-0.17392352,0.28757712,0.77080137,-0.2101548,-0.46398684,-0.20128532,0.30803314,-0.30144647,0.3002836,0.17244634,-0.34659877,-0.58267325,0.13980892,-0.39018595,0.19654594,-0.21670197,0.19648717,0.23001191,-0.37647438,-0.5288081,0.74895674,0.16355316,0.21247396,0.032935504,-0.14236017,-0.22001037,-0.5744031,0.054144546,-0.18729106,0.09700912,-0.45941237,-0.20209466,-0.1614009,0.3476415,-0.011870092,0.6559092,-0.40576896,-0.28179938,0.38682383,0.21325509,-0.037216704,0.20649417,0.02006569,-0.11080289,-0.16429302,-0.33615753,-0.39781317
autenticacion,0.10869127,-0.05555423,-0.33751822,-0.20314643,-0.24828461,0.07664323,-0.51026195,0.05105671,-0.06445575,-0.6651375,0.31189376,0.24992874,0.32868454,-0.1805108,0.00062927976,0.26138112,0.096524075,-0.5842955,0.54530424,0.26492548,0.55986345,0.5076449,0.057812586,-0.028392702,-0.0046328274,0.15460879,0.42456824,0.19570461,-0.30632302,0.66965413,0.13618408,-0.21266015,-0.27192616,-0.05844198,0.32528982,0.024017036,-0.0029481016,0.12780428,-0.36296389,0.3291397,0.68471855,0.12318856,-0.16973853,-0.055440128,-0.05422849,-0.66245955,-0.29048145,-0.333406,-0.3456306,0.2883419
rutas,0.45434964,-0.016108677,-0.13524678,0.3598832,0.62201977,-0.45847517,0.087161765,0.7335849,-0.14330815,-0.81060374,-0.22728181,-0.25425413,0.073001295,0.49831402,-0.29211637,-0.0977455,-0.060474675,0.074705236,-0.614565,-0.02199953,0.28389776,-0.103953935,0.27028608,-0.14424114,-0.3615162,0.049538627,0.031212281,-0.5000876,0.6079698,-0.37751383,0.2502344,-0.3476546,0.6464531,0.36078155,-0.24529232,-0.0038429685,-0.16427784,-0.19679499,0.22972257,0.2664153,0.016868282,0.20911556,0.29156223,0.1439261,-0.7256567,0.25663197,0.60644436,0.46910223,0.3917419,0.30863366
archivos,0.04830018,-0.09129994,-0.44043863,-0.00029094238,0.29113284,-0.6235349,-1.0045766,0.5896804,0.053074047,-0.040842112,-0.43630785,0.09043843,0.44794613,0.319258,0.06455741,-0.5560675,0.69495857,0.3352826,-0.078394376,0.4279093,-0.028040005,-0.2546498,-0.26882908,-0.17760421,0.055264264,-0.317765,-0.2212974,-0.19747931,0.2553847,0.19867314,0.0771224,0.334712,-0.10845518,0.6451883,0.06833989,0.10284202,0.008531462,-0.32553235,0.19253656,-0.41434872,-0.22390048,0.2381561,0.8457218,0.0668967,-0.21544763,0.43849805,0.05552253,0.4550501,0.70828503,0.92204934
manipuladas,-0.22063534,0.0022233687,-0.053735882,-0.36215052,0.045864247,0.057788905,-0.02737692,0.17707242,-0.04929377,-0.9906006,-0.1347609,0.3921957,0.69132257,0.0013052765,0.5283394,0.5588763,0.31266236,0.033426803,0.25089222,-0.8412701,0.69735,-0.06533456,0.35809708,-0.012212843,-0.49806803,-0.1208483,0.28857118,0.2942152,0.25353593,0.18326186,0.71623653,-0.5580042,-0.32477856,0.1419713,0.017033242,-0.18604892,0.047235474,0.29683045,-0.38046262,-0.036695894,-0.27678844,0.10211492,0.4633447,0.23952225,-0.47322857,-0.040437527,-0.22680205,0.08243229,0.17346987,-0.5284103
sistema,-1.0013621,0.40505147,-0.40472072,0.4352742,0.6572868,0.46515563,-0.54252243,-0.06436767,0.30798098,0.16583818,0.38554016,-0.45786723,-0.35840917,0.34951422,0.34728572,0.013053367,0.5066873,0.29711938,-0.50432765,-0.23162246,0.010613761,0.13039358,0.1640011,0.44661438,0.118252054,0.13859159,-0.469676,-0.16277498,0.27370432,-0.95200074,-0.27862024,0.5443512,-0.056745708,-0.5406566,-0.14726117,-0.3464272,0.06443844,-0.41460893,0.018244516,-0.24169874,0.00083750207,0.11407929,0.14021678,-0.19229521,-0.10381673,0.5912263,0.0132974535,0.1514404,0.15250646,0.839021
control,-0.2521555,0.43021384,-0.34136578,0.107866466,-0.25488454,0.2017959,-0.3019808,0.002977061,0.56953263,0.6050429,0.092633426,-0.12314572,0.6108682,-0.29480192,0.21305619,0.051379625,0.3440324,0.1546585,-0.083674565,-0.6123402,-0.1773666,-0.26596946,-0.5193624,-0.100248866,-0.32173213,-0.28169492,0.51162404,-0.6210648,0.59180397,0.078048624,-0.6513654,0.020814756,0.25397214,0.36755526,0.21171384,-0.21040386,-0.36974466,-0.15370572,-0.3564253,0.051153567,0.6958963,-0.29411983,-0.2184499,-0.2224478,0.32873827,0.4040876,0.19341306,-0.15601525,0.03971318,0.8954029
acceso,-0.04533562,0.55854154,0.063474484,0.06680767,-0.011033126,0.46472406,-0.021152724,-0.59620506,0.4500933,0.30078372,0.29517645,0.70767224,0.96788454,0.012677072,-0.30311602,-0.19876155,-0.1572745,0.103373766,0.14411205,-0.09283328,0.42056572,0.32172093,-0.53068244,-0.077221386,-0.36812276,-0.2603152,-0.072228216,0.4954744,0.28048608,-0.45057297,-0.36440817,-0.15517817,0.050913468,0.04066226,-0.646575,0.18154651,-0.48268133,0.25924727,-0.052197427,-0.28189844,0.056684427,0.38421085,-0.38784555,-0.4349138,0.6940284,0.3701876,0.09168806,-0.23787321,-0.4429409,-0.15917449
recursos,-0.12308314,-0.18371084,0.5186686,0.12558074,-0.21931468,-0.22812878,-0.4252994,0.14959416,0.2734389,-0.13186845,-0.26330265,-0.6406294,0.29457358,0.68944633,0.2802773,-0.4363029,0.63424355,0.7123459,-0.033653382,0.33577132,-0.6701337,0.55425304,-0.18696362,-0.088499814,-0.119282626,0.28975227,-0.29098293,0.17895855,0.50079334,-0.0015251879,0.32496694,0.76505923,-0.142747,0.37081942,-0.3964672,-0.11861916,-0.40449613,-0.2777992,0.3956294,0.013313789,0.16207886,-0.23578939,-0.26591128,-0.12167481,0.6397247,0.0067453864,0.6789653,-0.03818824,0.8639243,0.46529087
usuarios,-0.012283826,-0.20628567,0.032605536,-0.024641022,0.43501523,-0.18814981,-0.022521967,0.21690595,0.5335252,0.6392447,-0.58536494,-0.023240292,1.104315,0.35395145,-0.12821513,-0.15696637,0.21744642,0.47683817,0.23780161,0.029768841,-0.15373361,0.12953274,-0.11452736,0.32598126,0.6896119,0.09493513,0.4547944,0.4305782,-0.434663,0.35604635,0.16027023,0.37078512,0.394068,0.43801484,-0.85150725,-0.017579295,-0.46010756,-0.3278435,0.18084304,-0.5588129,0.2038072,-0.58688915,-0.122233644,-0.4778145,0.42562178,-0.29442996,-0.030475728,0.09409365,0.57343125,0.17183179
permisos,-0.60982645,0.28043327,-0.28680643,0.2751926,0.6352791,-0.30178085,-0.05952336,-0.26134822,-0.15230256,0.36105907,0.010256071,-0.8075376,-0.44827518,-0.039599143,0.16391593,0.30686873,0.089408845,0.22148426,-0.16298242,0.158297,-0.67478836,0.256544,0.3902269,0.40464884,0.30426055,0.5479638,-0.24895486,0.2081952,-0.024985593,-0.39929557,0.10381226,0.60877216,0.118347436,-0.6997218,-0.09637222,0.20594855,-0.49265224,-0.62671095,-0.2694344,-0.33273694,-0.4457759,-0.39788142,-0.121221796,-0.044204302,0.042215522,-0.09562373,-0.55580384,-0.04337495,-0.031933963,-0.3813579
vertical,0.024411196,-0.25744852,-0.2883234,-0.35440952,-0.009638352,0.2986439,0.033025697,-0.048197202,0.027806247,0.19221534,-0.6957502,0.1584593,-0.037940226,-0.25812542,0.39067814,0.90612996,-0.7946422,-0.39233378,-0.26197663,0.44833177,-0.71788704,-0.84572506,0.43092993,-0.17973542,0.22815368,-0.21677803,0.27456507,-0.17873667,-0.45460683,0.2217528,0.08554648,0.0932509,-0.07008286,0.249951,-0.3324026,-0.062601045,0.37185484,0.40445545,0.07210302,-0.16592544,-0.27879307,-0.3727119,0.103916585,-0.11515668,-0.3753477,-0.17342731,0.33437163,-0.2944106,-0.07530969,0.364096
usuario,0.11250499,0.106594935,0.23245548,-0.052481007,0.43176106,-0.453561,-0.1439142,-0.21405958,-0.23673634,0.27677768,-0.702727,0.16517845,-0.21480744,-0.289009,-0.31308866,-0.099054575,-0.16183971,-0.28570524,-0.03946987,-0.29933804,-0.0027252957,0.19422993,-0.49407977,0.079943426,0.6042069,0.6046962,0.56892765,-0.2144157,-0.05254517,0.15537152,0.52491736,-0.49856198,-0.22703134,0.16779688,0.3082151,-0.2453591,-0.43904093,-0.635615,0.020771502,-0.73862106,-0.56483746,-0.61051714,-0.15825137,-0.6342646,0.44054928,-0.14728065,-0.08884938,-0.34758565,-0.28841963,-0.605763
solicitudes,-0.5379709,-0.5686217,0.3433876,-0.1687284,-0.7037605,0.3627731,0.24108586,0.15360636,-0.32292742,0.20881197,0.29246187,-0.0006687343,-0.5632353,0.15628369,-0.05916325,-0.042796217,-0.03632362,0.43712,-0.57170254,-0.06889209,0.6906365,-0.13193955,-0.28944257,0.3504985,0.44219533,0.43182734,-0.3855857,0.18654475,-0.47476894,-0.39437413,-0.4142524,0.06183454,0.2436588,0.38188967,0.426499,-0.18393536,-0.25616595,0.25934967,-0.3635042,0.40442422,-0.1477333,0.29226154,-0.2583166,0.3467516,0.030372791,0.29309434,-0.07709546,0.12266405,0.22864506,0.4392
servidor,0.13792825,0.31706664,0.16305827,-0.28887567,-0.4963418,0.069725715,0.40788427,0.3328423,0.38783962,0.41234294,-0.04611689,0.124945804,-0.6205905,0.15266058,-0.047535937,0.18667859,-0.2039181,0.19852035,0.058861356,0.41735473,-0.26429194,0.912465,-0.68287295,-0.32340023,0.63856715,-0.5747109,0.21678047,0.43827054,-0.12051542,0.09544536,-0.13884673,-0.10978958,-0.13690174,-0.05668099,0.08982229,0.34150818,-0.26494342,-0.030589115,0.027216244,0.33051047,-0.5332351,0.052450076,-0.07166874,0.45882702,-0.17627059,0.113687195,0.23122807,0.10568902,0.14027108,0.49773014
documentacian,0.33434278,-0.59168804,-0.04389183,0.017472945,-0.20499267,-0.048202872,0.32605466,-0.2673141,-0.43034115,0.41442367,0.2969185,-0.21021079,-0.9059914,0.08032908,-0.28380886,0.10868011,-0.35290226,-0.060813364,0.4134792,0.1872901,0.024082264,0.057398036,-0.038096856,-0.022074921,-0.41831207,-0.2049768,0.48517767,-0.6532917,0.11732591,-0.31856117,-0.14744875,-0.4617653,0.066922106,-1.1237788,-1.1694821,0.3411613,-0.43396845,0.42056912,-0.376513,0.26293916,0.5398276,-0.24674064,-0.7445903,-0.18762589,-0.089163914,-0.120320484,0.022333987,0.27960542,-0.51915526,-0.11828888
laboratoriopsw,-0.5403845,-0.45069873,0.03260523,0.2166974,-0.31654343,-0.04653261,0.07991487,0.08666148,-0.06909542,0.17841932,0.09773235,0.20778167,-0.5454753,-0.21045588,0.47617814,-0.09468068,-0.7299822,0.08958267,1.0112888,-0.2980806,0.12861077,-0.3689812,-0.0324316,-0.07599376,-0.13143915,-1.0180337,0.38870373,0.06979944,-0.27666214,-0.34522852,-0.32691365,-0.22326711,-0.11281985,-0.74984765,0.030678937,0.038327098,-0.11989664,0.15941547,-0.09376414,-0.3504902,0.44085824,0.23120473,-0.09284686,-0.048427127,0.5293609,0.0065576257,-0.60656637,0.25208333,-0.30922148,-0.57939196
dss,0.48308674,-0.72171295,-0.20448823,-0.05331888,0.27804133,-0.43960074,0.34682846,-0.11699558,-0.014988231,0.33459318,0.26093718,-0.09097829,-0.027565999,-0.10283142,-0.046745468,-0.21172242,-0.1295974,-0.3402227,0.4675991,-0.26713136,-0.22435698,-0.4027752,-0.31884146,-0.46528777,-0.1055511,-0.98691434,0.2551548,-0.06293863,-0.46613798,-0.39611092,-0.08092107,-0.22365128,0.8820632,0.03269749,0.046536572,0.19837084,-0.66795737,0.10649165,0.14815648,0.14916562,0.48450956,-0.1043813,0.20045337,0.3471714,-0.05813276,-0.49870178,-0.21071033,0.49983492,-0.29428354,-0.129284
path,0.23840898,-0.2357298,-0.037464056,0.28769654,0.2863456,-0.3932922,0.30045965,0.23180865,-0.45365152,-0.01646858,-0.040156275,-0.29974473,-0.56126803,0.40360323,-0.4899255,0.038946044,-0.39946958,-0.096718945,0.12583086,-0.015472246,0.20939253,-0.18356529,0.101701,-0.18483844,-0.38813835,-0.17741111,0.19361916,-0.7033689,0.30329296,-0.4833127,0.053652205,-0.7608279,0.35968578,-0.546801,-0.86560404,0.25715023,-0.3179358,0.058935847,-0.041841574,0.31975445,0.59141403,-0.18826523,-0.32505426,0.05706814,-0.42502055,0.068689525,0.3617154,0.38207898,0.07437428,0.034630075
traversal,-0.87482584,-0.08017029,0.13265468,0.52235484,0.28988397,-0.23694354,0.17412546,0.2620174,-0.33710808,-0.18310334,-0.1713096,0.005562359,-0.5400229,0.28898063,0.10338441,0.060785014,-0.7468423,0.2912168,0.7922825,-0.5928211,0.37473977,-0.48494622,0.3357404,-0.37070775,-0.04346437,-0.5667176,-0.14975692,-0.1673769,0.14840737,-0.22373056,0.075856104,-0.6203009,-0.33816394,-0.5118678,-0.008121401,-0.05801114,-0.03872053,0.050989583,-0.065122545,-0.22842607,0.5255818,0.11093164,0.16996564,0.2293185,0.21846522,0.3114236,-0.22160086,-0.021219993,0.44035983,-0.5794553
recorrido,-0.07773371,-0.28464785,-0.045915496,0.20877993,0.6021136,-0.7175644,-0.013582749,0.2963777,-0.25020742,-0.0008730069,-0.07224548,0.26991493,0.4599373,0.3250875,-0.11366823,-0.4021699,0.088336855,-0.30698186,0.5349541,-0.50906134,0.15978956,-0.64594835,-0.15753557,-0.92125845,-0.06950194,-0.71102685,-0.24297565,0.035885323,-0.24303706,-0.22717659,0.30400288,-0.9134506,0.24804677,0.4837293,0.2242364,0.38728127,-0.45446205,-0.14868453,0.24114443,-0.08468081,0.44356543,0.16740206,0.49576443,0.75038993,-0.34979668,-0.19577962,-0.28577393,0.44993505,0.43407503,-0.2743678
permite,-0.96843827,0.21121591,0.008026254,0.7520611,0.6303166,0.0024179118,-0.19794801,0.27484688,0.048480988,-0.3397902,-0.05921662,-0.57399964,-0.47051924,0.58289766,-0.05441596,0.05192174,-0.16774441,0.4778059,0.10902872,-0.62773436,0.18760243,-0.29015428,0.5052471,-0.48508388,-0.14733535,-0.15778328,-0.7075081,-0.39670837,0.74027866,-0.47214273,0.13846862,-0.43205345,-0.6581863,-0.19944958,0.1332619,-0.32124835,0.26254523,-0.23331317,0.2880194,0.072675325,0.6199576,-0.06590496,0.119433746,0.17934324,-0.033839956,0.6281524,0.16318397,-0.00017662614,0.9990954,-0.06342569
directorio,0.38414064,0.02218141,-0.34623033,0.0630329,0.80657107,0.33916062,-0.42390224,0.526845,0.4790883,-0.56525254,-0.11787896,-0.7433175,-0.3775105,0.19694355,-0.034866326,0.26788068,0.11441507,0.31627336,-1.124696,-0.02613429,0.0912091,0.08253989,0.16429502,0.25449014,0.42517367,0.06003333,-0.29986167,-0.3725415,0.8594579,-0.31744838,0.2671718,-0.16012754,0.0051641893,0.34552518,0.089072786,-0.25814727,0.55446726,-0.3790725,0.26788628,0.19082399,0.057246804,-0.3564113,0.4964666,0.026161516,-0.40398857,0.44949308,0.13436057,0.3203752,1.0605681,0.28918296
autorizado,0.0057315677,-0.11141203,-0.10285248,-0.28853774,0.4266231,0.5057043,-0.4078987,0.26701292,0.28999856,-0.08030831,-0.16741353,-0.19398288,-0.112330474,-0.06021852,0.56791645,0.29795814,0.08898132,0.046999257,-0.398848,-0.52744925,0.59965914,-0.31448886,0.06790565,0.24330416,0.4695295,-0.10083914,-0.07512353,0.2578065,0.6968906,-0.21961266,0.35678142,-1.0144955,-0.80724573,0.056094058,0.33442554,0.09747147,0.48121455,-0.10263578,-0.0041384855,-0.3023165,0.024108695,0.008870804,0.39008975,0.5160851,-0.048860267,0.39387366,-0.85777396,-0.14186993,1.1052278,-0.4659886
usando,0.2036792,-0.23256423,-0.48977104,0.44725353,0.98199606,0.0100490805,-0.11542508,0.45475024,-0.25081438,-0.031217007,-0.14963202,0.12898836,-0.41371444,0.28265035,-0.14000341,-0.5075527,0.11459208,0.40347162,-0.4507281,0.017949184,-0.0105680525,-0.124825746,0.2983747,-0.9963646,0.5865448,-0.19191587,-0.07358317,-0.17725623,0.5012684,0.6794222,0.23215559,-0.28585845,-0.2762096,0.18735182,0.21264662,0.5648065,0.23857053,0.08352254,-0.10064323,-0.6226116,-0.4202186,0.33537516,0.80886847,0.56820154,0.2970871,0.48626748,-0.36663482,-0.04496104,0.72459096,-0.5148147
etc,-0.7842706,0.05001495,-0.21473004,0.53157663,0.49295443,-0.34556416,-0.23125853,0.3484152,-0.118549444,-0.62650025,-0.2936997,0.032259077,0.10930653,0.46601367,0.20439067,-0.37119925,0.60931456,0.67902386,0.35090485,-0.48968646,0.018964916,-0.13045225,0.59478986,-1.1762614,-0.57525736,-0.3131723,-0.3958932,-0.27297732,0.54121304,0.5424116,0.43681985,0.4663204,-0.56544775,0.2733771,0.37545365,-0.20207752,0.0117895445,0.21610223,-0.016206779,-0.15224539,-0.2414767,0.49075845,0.79804075,0.146487,0.014429228,0.56110895,0.42887062,0.1454743,0.45803314,-0.06683558
passwd,-0.3574173,0.37829465,-0.09572993,0.7940291,0.66728306,0.52669734,0.07145219,0.27136454,0.24938942,-0.65729344,0.49308753,-0.27694586,0.2567861,0.47980216,0.08802338,-0.21635242,0.62413496,0.16630706,-1.0209621,-0.6029423,0.027675902,0.19409136,0.7416651,-0.46623155,-0.55492526,0.7632698,-0.2500694,-0.29426393,0.8835178,-0.32711944,0.102339,-0.07931028,-0.10108814,0.11320524,0.11011688,-0.10853024,0.4083136,-0.14190544,0.29301262,0.18777412,-0.19973548,0.25789508,-0.30183902,0.28425106,-0.6155724,0.41051742,0.4612615,0.16133894,0.43282497,0.32779917
criticos,-0.49267894,0.26152998,-0.19005394,0.36343303,0.17312515,0.27844307,-0.53988504,0.36141896,0.7132716,0.15506624,0.07571644,-0.6934686,0.28570727,0.09135507,0.3060141,0.04296247,0.6540021,0.3836851,-0.2438749,-0.6093452,-0.4349146,-0.26957008,0.17524628,0.001123732,-0.10473654,0.1275875,0.057993717,-0.52476305,0.68017304,0.061224647,-0.17652509,0.18815385,-0.20483232,0.22593398,0.28592098,-0.27919468,0.35606304,-0.50716895,0.33115268,0.21404202,0.7917922,-0.69437474,-0.12573063,0.09457506,-0.14967634,0.32583562,0.17049553,0.13415536,1.2223778,0.81140095
access,-0.42587158,0.47348353,-0.4787453,-0.17083484,0.07582675,-0.009097779,-1.0484155,-0.03143864,0.18536778,0.49528122,0.3787433,0.50329185,0.75806034,0.31636348,0.3965798,-0.6501282,0.6706718,0.12474772,0.3721781,0.045231212,0.19063684,0.18301174,-0.6518548,0.22733265,-0.19128023,-0.29593867,0.26052004,0.07697292,0.31638506,-0.3184828,-0.43694204,0.11413435,0.29667225,-0.11111578,-0.6424476,0.16725041,-0.052864145,-0.2536121,-0.23607829,-0.7372994,0.087419964,-0.1973509,0.12230753,-0.16489924,0.06295182,0.4609161,0.038283102,0.20197937,0.3234591,1.3137543
restricciones,-0.090616986,0.6021595,-0.1471473,0.28369576,0.07440534,-0.04791804,-0.5676642,-0.31476468,0.24637108,-0.11385155,-0.26449156,-0.19001329,0.2668033,0.21121149,-0.19946429,-0.3431916,-0.077025734,0.5356888,-0.25843778,0.3988025,-0.2734075,0.6073254,-0.4771958,-0.6413566,-0.6753937,0.018028535,-0.4052843,-0.337809,1.3639797,-0.33418423,-0.23180294,0.41679737,-0.103921026,0.14937243,-0.12923032,-0.27806827,-0.4633617,0.030860022,0.18261568,-0.047512837,0.12671168,0.065502875,-0.12814595,-0.6384797,0.351448,0.7523062,1.0174357,-0.3161445,-0.098012075,0.6923477
determinan,-0.38338464,0.1156906,-0.1429315,0.5731879,-0.38603678,0.016179208,-0.0397945,0.29590654,0.36334127,0.11996647,-0.08850625,-0.52609617,0.22600245,0.2151697,-0.24334036,-0.0069989883,0.17867513,0.25588596,-0.7953309,-0.29454002,0.16583166,-0.5103353,-0.18137635,-0.17967758,-0.31335908,-0.30352208,-0.93259835,-0.61297375,0.4385107,-0.48636717,-0.5820322,0.13866037,-0.1492491,1.0693551,0.6656907,-0.6475285,-0.31315482,-0.07108137,0.0068695433,0.5526401,0.4215883,1.0057026,0.0132291205,-0.42699417,0.16588283,0.5312161,0.36281067,-0.06415098,-0.48027122,0.8078278
permitir,-0.57458395,0.033190966,-0.12693764,-0.20009372,-0.69872344,-0.0192716,-0.53338265,0.19662105,-0.027692912,0.74033225,0.19287597,-0.5553349,0.83895755,0.26823327,0.32185304,-0.10725536,0.28867227,0.30648866,-0.3680621,-0.040665545,-0.17545006,-0.6693454,-0.221719,0.95257103,0.3913351,0.30981535,-0.5210463,0.00066967215,-0.33944222,-0.3832539,-0.48563802,-0.10565738,0.17489126,0.590375,-0.101482436,-0.2312371,0.17586215,-0.7353605,0.11576489,-0.22398892,0.30112168,0.03053052,-0.25045916,0.0032071304,-0.023177912,-0.6292321,-0.68537325,-0.08769873,0.53109556,0.71325177
modificar,-0.2037509,-0.0958052,-0.70855314,-0.6010851,-0.2905418,0.038595,-0.13167347,-0.14376917,-0.36234713,0.33543172,0.106838875,-0.5563437,0.17886463,0.02183557,0.37673,0.4465419,-0.47799686,0.17017946,-0.3420649,0.30307505,-0.5637853,-0.81206185,0.6908646,0.8038924,0.16315107,0.12623294,-0.4016726,-0.12028431,-0.46299016,-0.25423163,-0.53935426,0.28442556,0.35989776,0.13324083,-0.5123366,0.060519777,0.35333607,-0.26542664,-0.1027463,-0.0096011795,-0.10982794,0.009806793,-0.23478542,-0.11993516,-0.40554574,-0.69154936,-0.7158327,-0.19042155,0.7317443,0.35973263
eliminar,0.8837225,-0.35809788,-0.01365203,-0.6040723,0.079846196,-0.274471,0.5200551,-0.36494464,-0.20126937,0.14344868,-0.073826924,-0.011680361,0.5195492,-0.092712775,-0.6042886,-0.4403547,-0.18742044,0.4036255,0.2882778,-0.051201,-0.11145202,-0.38253754,0.37158865,0.9678166,0.4785635,-0.17642793,0.090224594,0.37829375,-0.42111653,0.35621628,0.32223397,0.31694433,0.2032323,0.12681411,-0.22102351,0.09904349,0.2647421,-0.6342247,0.06582008,0.08260709,-0.29400983,-0.26383075,-0.116961576,-0.1576795,-0.11997297,-0.63991743,-0.86711526,-0.3739495,1.0433836,-0.3846356
informacion,0.36292773,-0.27421847,-0.41174743,-0.34378535,0.79291004,-0.07994648,0.5043987,-0.62374765,-0.52418953,0.13766955,-0.6215893,-0.0711837,-0.64494985,-0.2276791,-0.2042427,0.2039521,0.17067014,-0.20051296,-0.15214333,-0.032394543,-0.20844962,0.007560744,0.24834621,0.7785485,0.19067065,-0.33988473,0.08674191,0.18038067,-0.3065543,0.14660811,0.535762,1.033373,-0.15612943,-0.2191528,0.00606656,0.5104621,-0.45995212,-0.291869,-0.19444408,0.022269787,-0.78899693,-0.4404619,-0.19196932,-0.026835512,-0.42841387,0.2198756,-0.6295938,-0.042763725,0.29873583,-0.1861176
privilege,0.9996638,-0.23633188,0.080182925,-0.6877894,-0.203839,0.47453523,0.23264818,-0.62290096,-0.18825622,-0.22407353,-0.3092891,0.57679427,0.06549403,-0.47363728,-0.5218403,0.020650344,-0.6535099,0.08589737,0.053226426,0.37960482,-0.023872683,-0.76513356,0.25929007,0.41505694,0.101533726,-0.25082514,-0.029395599,0.036605787,-0.23706818,-0.007227863,0.32039052,0.057941057,-0.0916163,-0.07045121,-0.006106672,-0.11421276,0.56516105,0.16371216,0.6273076,0.11091973,-0.3976827,0.43732026,0.15985608,-0.013687577,-0.11998534,-0.33734238,-0.17886022,-0.48258027,0.54330665,-0.21033135
escalation,0.4284621,-0.15748218,0.07175929,-0.05217945,0.4438808,0.17647055,0.0702475,-0.3293367,-0.045939505,0.024684936,-0.9779979,0.6860889,-0.31751516,-0.23441912,-0.16503221,0.16663054,-0.877738,-0.7274582,-0.34147513,-0.07694994,-0.10849146,-0.3308628,-0.24970552,0.16628073,0.42474797,-0.3535007,0.20967777,-0.46202293,-0.15606663,0.7343354,0.6009717,0.52822375,-0.14441207,0.54824847,0.21959265,-0.36099473,-0.48478228,-0.30891812,0.35433775,0.12833881,-0.60327005,-0.37178975,0.03216544,-0.20809731,-0.25822192,0.16242942,0.066971526,-0.28066438,-0.071896814,0.024363536
escalada,0.69385296,-0.5831273,-0.26747274,-0.45200247,0.31651366,-0.19893697,0.72015274,-0.48334733,-0.19560966,0.03582984,-1.1013893,0.3130108,-0.0792187,-0.5460554,-0.33865425,0.49836212,0.20504312,-0.27019075,-0.24239916,0.10195716,0.13154338,-0.4067237,-0.036036126,0.09514651,0.3538987,-0.07014085,0.6441572,-0.014048445,-0.24410951,-0.042857297,0.4526587,0.098348975,-0.5926788,0.2132658,0.28413558,0.18470454,-0.08903605,0.32966307,0.1589929,-0.52599454,-0.35185745,-0.44523466,0.12081832,-0.60797393,-0.111015014,0.28822792,0.20009989,-0.47861946,-0.2668263,0.336316
bajos,0.04060228,0.20480752,0.00598812,0.20818192,0.021084141,0.15515181,0.27091417,0.09328808,0.32596603,0.5010432,-0.6525437,-0.23248021,0.7160858,-0.38094762,-0.085916124,0.94255996,-0.9600016,-0.16104206,-0.33114076,0.026477484,-0.50240254,-0.49892905,-0.57098526,-0.3136486,0.0654062,0.23694336,0.38557053,-0.5664361,0.2354945,0.15811563,-0.43790674,-0.41711977,0.24524139,0.36555976,-0.1810355,-0.27269587,0.206754,0.29961985,-0.11076382,-0.06681184,0.29867762,-0.3872567,0.09751421,-0.2998524,0.0067475648,0.053603016,0.6700187,-0.43031147,-1.0666615,0.30951697
obtiene,0.0011717468,0.17017004,-0.2983097,0.060185768,-0.055808857,-0.2825229,-0.100941196,-0.32438442,-0.013336822,0.45704007,-0.75514615,0.20407875,0.08801466,-0.30771995,-0.24305141,-0.19364594,-0.3725949,0.071010545,-0.5697371,0.10805271,0.16624373,0.13259484,-0.2982478,-0.55952317,0.18905868,-0.20060293,0.3006276,-0.45643023,0.26255932,0.216763,-0.16252238,-0.30971023,-0.03310039,0.6393749,0.14649306,-0.28813607,-1.1814522,-0.1442374,-0.13395488,-0.4899218,-0.08429706,0.20053558,-0.23117012,-1.1513029,0.6159236,0.23977707,0.29112267,-0.44883355,-0.6406078,-0.06848711
funciones,0.30926228,0.37799513,-0.22652763,0.21262428,0.13601594,0.3661229,0.21325861,-0.3393763,0.2170851,0.5853911,-0.46951205,-0.7147933,0.8146794,-0.28056666,-0.6906756,0.4607491,-0.4999848,0.7749361,-0.42730874,0.17502624,-0.26177582,-0.24529603,-0.5436048,0.5542414,-0.051465936,0.34804642,-0.46649492,-0.41676265,0.5752623,-0.4425476,-0.7118883,0.3888315,0.6302314,0.016309308,-0.31760842,-0.05676093,-0.27399018,-0.045068424,0.4380872,0.2324712,0.42147753,0.61749315,0.00016704742,-0.20431985,0.18629807,0.11937661,0.042903177,-0.12177134,-0.3180308,0.17651321
datos,-0.3968327,-0.021026427,-0.75873333,0.035805605,-0.08406664,-0.18306284,-0.072253525,-0.2663909,0.027741905,0.72084916,-0.6958873,-0.30250037,0.43129128,-0.08549737,0.12544739,0.3050086,-0.4589708,0.1761514,-0.8349963,0.2569797,-0.1584723,-0.386163,0.17019744,0.014105834,0.4226954,-0.05711661,-0.1783907,-0.40483937,0.019802578,-0.17866626,-0.57752246,0.08188199,0.083285876,0.6743214,-0.23273185,-0.20186949,-0.9800484,-0.3202637,-0.03660882,-0.40996492,0.085263774,0.28264344,-0.23607267,-1.0644532,0.15284176,0.011823801,-0.16170153,-0.45298812,-0.2189839,0.60220575
altos,-0.8603535,0.18305828,-0.11817138,0.4127697,0.112519585,-0.15323327,-0.19578876,-0.08212229,-0.0147825945,0.6048995,-0.5615081,-0.51337874,0.23806782,-0.21390414,0.0708602,0.8279995,-0.59211344,-0.12302157,-0.7461139,0.1849851,-0.55776155,-0.6463434,-0.16888009,0.2667471,0.68739384,0.51968634,0.1063887,-0.42557818,-0.23117915,-0.39963153,-0.0019325763,-0.5094651,-0.28529733,-0.02043812,-0.05680357,-0.14861132,0.058067694,-0.43971574,0.3405861,-0.5500348,-0.3459473,-0.23484564,0.09748435,-0.5021796,-0.26090464,-0.23919284,-0.15750581,-0.3874192,-0.63702565,0.23195173
regular,0.067827314,0.34964445,0.46812597,-0.48358554,0.267734,0.3866334,-0.4575433,0.51821095,-0.22094913,0.555492,-0.015064944,-0.043968312,0.17968106,0.08408444,0.20743702,0.11442464,-0.30521837,-0.031442367,0.31887203,-0.14694102,-0.13109188,-0.33967623,-0.2567614,0.5232207,0.442772,0.7326283,0.45896262,0.01152593,-0.6674702,-0.19596644,-0.09200193,-0.6998046,0.5452706,-0.1349344,-0.43410403,-0.43412182,0.8635146,-0.22528177,-0.20015074,-0.7864426,0.011230342,-0.7714976,0.07715258,0.25504786,0.45987603,-0.5532842,0.021606136,0.08313206,-0.045147125,-0.67800575
obteniendo,-0.70093113,0.17179188,0.38760453,0.4762749,-0.27987057,-0.52022195,0.24930598,0.36406088,0.08685308,0.31337237,0.33878154,-0.5767106,0.6716201,0.03817335,-0.093749605,0.42369086,-0.5316657,0.14739382,-0.14677599,0.27738583,-0.59560865,-0.5474854,-0.057720795,0.37922886,0.5711442,0.36772823,0.22598982,0.08395084,-0.54923934,0.052453704,0.2136799,-0.76593256,0.09019747,-0.30796278,-0.19982122,0.0114339795,0.87131476,-0.25144467,0.16736759,-0.18011427,-0.088689454,-0.70155084,0.19558416,0.11337379,-0.31675857,-0.8724186,-0.3884938,-0.19210492,-0.5390304,-0.2807414
administrador,0.22502998,0.21274191,-0.11631896,-0.46150732,-0.06603357,-0.27430898,-0.20301704,0.392886,-0.3266583,0.13282382,0.7016592,-0.08456038,-0.14987841,0.09913984,0.3329733,-0.3026835,-0.3911148,-0.2173001,0.26166287,-0.06318448,-0.07668482,0.13726169,0.45018342,0.46274483,0.23926094,0.8799991,-0.055855513,0.13467146,-0.45592955,0.08190966,-0.6114017,0.045262504,0.73285,0.12901925,-0.19225581,-0.29109934,-0.028825976,-0.44104835,-0.6768897,-0.5381754,0.19053979,-0.87176985,-0.164562,-0.033734772,0.41344726,-0.64324486,-0.24626446,0.03180659,0.28539562,-0.68191034
authentication,-0.19929858,0.05577136,-0.05091674,0.08121587,-0.4700375,-0.5831501,0.28975764,0.10989263,0.15170886,-0.09527493,0.73204213,-0.34330598,0.7289262,0.09665554,-0.00071686413,0.010978578,-0.19838972,0.15293261,0.37959844,0.51773834,0.1377973,0.07230703,0.2033851,0.51015,0.4242635,0.23304115,0.04728379,0.33084098,-0.5967372,0.5192674,0.0030448101,-0.08825526,0.56387705,-0.47463748,-0.09027851,0.017709464,0.43083492,-0.16753244,-0.29178855,0.28500795,0.61192197,-0.5574505,-0.005007796,0.16397375,0.10254973,-1.1363868,-0.6587458,-0.345399,-0.37114444,-0.0006942268
vulnerabilities,0.0032497707,0.13602902,-0.015441448,0.60072154,-0.05762937,-0.38258213,0.3932655,-0.15609919,0.44452557,-0.00040360354,0.57510316,-0.39502022,-0.38977793,-0.17081016,-0.008472623,0.23252736,-0.43933323,0.22592755,0.070694,0.38791233,-0.4272708,0.33768463,0.72483677,-0.089636594,-0.054760374,0.6813488,-0.4516179,0.15295799,-0.14440201,0.32662338,-0.17663816,0.9114137,0.31167397,-1.0565472,0.30551913,-0.037868574,-0.21626118,-0.15152805,0.047947045,0.09911573,0.3281978,-0.26598942,0.40829217,0.36247995,0.029591026,-0.13837267,-0.4234547,-0.2817597,-0.54593545,-0.67312366
vulnerabilidades,0.33605137,0.17855147,-0.27450937,0.11039677,-0.16059664,-0.20515403,-0.14883119,0.2897094,-0.33256572,-0.4391823,1.0761867,0.3966368,-0.4738529,-0.110701114,-0.12869042,-0.44657806,-0.5917123,-0.30266616,0.03548941,0.43825376,-0.16951275,0.73222214,0.48487052,0.154848,-0.11095309,0.54994005,-0.1290992,0.25939912,-0.2275604,0.32408154,-0.7418446,0.5939309,0.48990732,0.0415406,-0.02988169,-0.0002663629,-0.71294224,0.21795356,-0.5135799,-0.22639579,0.29969504,-0.4983967,-0.026285067,-0.3743488,0.027641252,-0.23552224,0.06976623,0.14574987,-0.06744116,-0.52585506
fallos,0.31667247,-0.37034068,-0.12511687,0.6454292,-0.22196229,-0.27974463,-0.038252637,-0.13070093,0.57270175,-0.31815797,0.11097433,-0.28346264,-0.27905345,-0.083357945,-0.235309,0.16470431,-0.56064016,0.12563959,0.09534544,0.3943482,0.049857028,0.4132647,0.50242734,-0.37922308,-0.13200888,0.3502722,-0.2228204,-0.18707809,-0.18246748,0.8763424,0.087631166,0.9239908,0.057022706,-0.80044544,0.49883422,-0.009319492,-0.25210726,0.3327632,0.29621604,0.64374465,0.8474189,0.10927908,0.6826316,-0.0779718,-0.36218283,-0.12954089,0.26147324,-0.45197847,-0.5621735,0.14545824
mecanismos,0.07935035,0.09887517,0.019458398,0.6408638,-0.36468992,0.12985684,-0.42214683,0.37099308,0.0104702255,-0.49180746,0.9757578,0.9448415,-0.3085736,-0.19590391,-0.35926625,-0.28052393,-0.45642507,-0.33682778,-0.018317888,0.5634012,-0.38430488,0.6582614,0.25390407,-0.3698379,-0.41710755,0.23085001,-0.26471552,0.37377432,0.079162374,0.31748196,-0.58908033,0.5236062,-0.45370078,0.08858576,0.4109112,-0.080612145,-0.7678688,0.4137367,-0.10558707,-0.089667045,0.4715398,0.4314485,-0.072075605,-0.20498274,-0.5303425,0.15109773,-0.3443385,0.12648435,-0.1778431,-0.23838983
permiten,-0.04376544,-0.11127744,-0.3917385,0.6921718,-0.005200714,-0.2654366,-0.93400556,0.008295495,0.45184726,-0.61374396,0.21620288,-0.62625736,-0.14751379,0.20506373,-0.3098565,-0.29098985,-0.18279496,0.14003177,-0.07958469,0.043225765,0.24130727,0.57914734,0.4156042,-0.30432102,-0.19108033,0.390903,-0.62136054,-0.20833296,0.12912498,0.4411753,0.09182898,0.57147413,-0.2986393,-0.19511639,0.601203,0.108293325,-0.3134943,0.19831981,0.3417074,0.6397753,0.8518784,-0.111006945,0.6667238,-0.42208302,-0.4923877,0.172478,0.8057779,-0.14315231,-0.03315453,0.5081553
atacantes,-0.13105358,0.24238257,0.15912402,0.8157891,0.065512024,-0.20450798,-0.4135133,0.6651405,0.3114155,-0.43272257,0.5543357,0.2213627,-0.23437889,0.138944,-0.42143998,0.0075264885,0.07641886,-0.09660223,-0.07730417,0.8486288,-0.56939995,0.18792284,0.45263407,-0.64393115,-0.51168555,0.3451783,-0.6607625,-0.25231948,0.52051175,-0.0027641635,-0.54720104,0.9182692,-0.6316054,0.17905326,0.5436988,-0.5974646,-0.13017994,-0.39584914,0.28338847,0.048300494,0.5752261,0.5782709,0.0048615895,0.07531657,-0.4172401,0.30866912,-0.36261168,0.08563692,0.28808403,0.29587397
credenciales,-0.024684574,0.2571851,-0.57251877,-0.09084749,-0.1277507,-0.36770886,-0.74372137,-0.36467975,0.005028299,-0.5782933,0.059593417,-0.6616104,-0.17353708,0.21240787,-0.4693131,-0.40937242,0.3568586,0.08000874,0.08603572,-0.16789769,0.39610976,0.41964173,0.115899146,-0.076233104,-0.24819672,0.1389003,-0.6948985,-0.5702691,-0.19476649,-0.21431951,-0.3197283,0.11444899,-0.78480285,0.47276685,0.5450397,0.38749248,0.29965445,-0.03416642,1.0412911,0.65596294,0.023734666,-0.5217886,0.18088867,-0.60903645,-0.046843275,0.5833349,0.771482,-0.05204635,0.36790478,0.44236836
validas,-0.056888238,0.4128986,-0.26123887,-0.25609502,0.35247937,-0.34458652,0.07187268,0.4684167,0.060841627,-0.64782935,-0.09650894,-0.41056457,-0.4545726,0.10736284,-0.5155028,0.35965866,0.34707788,-0.14294603,0.1890659,0.7393137,-0.21861595,0.029259134,-0.0055901324,-0.30880168,-0.6617003,0.0874539,-0.21280345,-0.6645275,0.13650018,-0.32966152,-0.41307324,0.7835927,-0.40267408,0.37201554,0.27339104,-0.9126551,0.5785024,-0.51128143,0.5976127,0.40407133,-0.102041595,0.0013936525,-0.25196677,-0.15653579,0.35006487,0.33829626,0.087703675,0.19393127,0.55482966,0.65617514
ataques,0.2779751,0.25145856,0.1969919,-0.43459588,0.08436245,-0.06493015,-0.024088088,-0.18861651,-0.39931917,-0.12831524,0.23892885,0.07030813,-0.02161221,-0.26387528,-0.26295674,0.42067236,0.93288076,-0.998999,0.5076556,0.4626038,0.43861377,-0.101021364,0.15664487,-0.3924026,-0.254729,0.4111983,0.21612293,-0.5631052,-0.27840105,-0.23636234,-0.68164283,-0.06605616,-0.70869017,0.2798763,0.36529496,0.31431532,0.76834166,-0.6167626,0.25527653,0.13841577,-0.010236478,0.15352568,-0.52065897,0.29023018,0.32977533,-0.1095287,-0.38409445,-0.037676364,-0.023035472,0.09307133
fuerza,0.5604232,0.19427197,-0.2403908,0.08938162,-0.1652542,-0.15084623,0.115749456,-0.47443533,-0.3086314,-0.27558815,0.5008137,-0.007288566,-0.5903131,-0.043843336,-0.40259764,-0.092480324,0.17760147,-0.086956084,-0.009480929,0.087949745,0.12565006,0.46891057,0.7228583,-0.23463856,-0.19566868,0.39504996,-0.09359194,-0.70575374,-0.27077058,0.15135486,-0.90094405,0.43790877,-0.58231896,-0.026237387,0.34902102,0.83017814,0.20075247,0.07812417,0.90000385,0.27580413,-0.33455977,-0.26079902,0.10050934,-0.38595927,-0.06595692,0.6184606,0.26243913,-0.23687446,-0.28883094,-0.49775285
bruta,0.23452407,0.25033537,-0.73453265,-0.23570883,0.105916604,-0.36597207,0.29707685,0.26663277,0.16672333,-1.2862037,0.3545559,-0.108102046,-0.63303375,-0.14897867,-0.40269646,0.6088931,-0.09591706,-0.20197119,0.21461818,0.32361594,-0.0473866,0.4996718,0.34112412,-0.17987439,-0.8733297,0.19297671,0.2719388,-0.16743393,-0.25437567,0.32587785,-0.2770537,0.8229593,-0.2575641,-0.215383,0.21139203,-0.5504387,0.27766648,0.30827656,0.49611342,0.45320553,-0.21895595,-0.4001116,0.2059112,-0.25916055,0.2627815,0.31673026,-0.036269195,0.104241565,0.16099554,-0.005788576
rota,0.50311464,-0.0922545,-0.22808988,0.41364905,0.47493142,0.14437343,0.03961411,0.10336704,-0.57978296,-0.4987226,0.3770138,0.16541204,-0.3022431,0.22503644,-0.066268645,-0.20120806,0.21044947,0.0022644326,-0.055801738,0.08793297,0.3435744,0.5528814,1.3254948,-0.68145853,-0.019741042,0.5487595,0.3494497,-0.6946576,0.2262615,0.7264104,-0.27069294,0.22849046,-0.24259624,-0.12122155,0.2899847,0.67771435,-0.031181006,-0.036916763,-0.045071542,0.04015015,-0.117594406,0.43779445,0.23894379,0.060736224,-0.50169194,0.09947184,0.25748086,-0.30460164,-0.46770158,-0.56048995
cookies,0.19585794,0.08934008,-0.525777,0.61469233,0.31097302,-0.1760317,0.50954586,0.31922355,0.28311718,-1.2082534,0.5311347,0.21677862,-0.32705086,-0.0929288,-0.08990331,0.4128894,0.067126565,-0.031534873,-0.43901357,-0.21393624,-0.31966424,0.21018347,0.58458817,-0.57749844,-0.79515064,0.12306989,0.3064403,0.13041732,0.30195278,0.71650535,0.16725582,0.55460495,0.14200333,-0.37841785,-0.013444295,-0.15119231,0.08246276,0.7190478,0.05818388,-0.0966001,-0.31670433,0.063944854,0.64583296,0.1327104,-0.042565703,0.3947057,-0.16701122,0.058358822,0.029589454,-0.5104908
ssrf,-0.0601912,-0.3662556,-0.22638442,-0.03357968,0.7211621,0.56175447,0.28652516,0.12251714,-0.5210334,-0.14976189,-0.24828306,0.2407498,-0.012200824,0.22135808,0.28633633,-0.70759237,0.017243337,0.35417834,-0.08658177,-0.12892057,0.6175452,0.5221614,0.67376155,-0.7971282,-0.1879374,0.41955462,0.5574439,-0.5136422,0.08323334,0.60177237,0.38427198,-0.09251988,0.21003899,-0.06410652,0.007746242,0.07659298,-0.15938067,0.4233556,-0.53108585,0.03350128,-0.6462835,0.4787677,0.07926521,0.13408254,-0.48732665,-0.30752206,0.47679913,-0.048223987,-0.21299425,-0.28119406
server,-0.003801499,0.23074606,0.16371125,0.4808579,0.44052854,-0.089601524,0.7461003,0.058895685,0.17714588,-0.22096077,0.16384529,0.009765672,-0.25157788,-0.24905169,0.29175428,-0.18125643,0.45073164,-0.018609472,-0.5309718,-0.08151133,-0.6304064,0.055373713,0.12609799,-0.87010884,-0.59272784,0.09953881,0.64201397,-0.34934226,0.41260108,0.5249322,0.22432154,0.3688078,0.59330356,-0.23119095,-0.3551395,0.012634307,0.08831633,0.7050226,-0.021355718,-0.39481422,-0.9124174,0.42390543,0.19695011,0.25501144,0.02688278,0.041277457,0.2616675,0.13912903,-0.07121138,-0.34984154
side,-0.23071648,-0.28519824,0.79016435,-0.2929275,-0.20650479,0.34264597,0.70077294,-0.34498855,-0.12619291,-0.24898835,0.15206248,0.21623187,0.24406105,-0.5108369,0.49594903,0.34343398,0.58489394,-0.15727918,-0.22262388,-0.67195886,0.37947953,-0.5385222,-0.35813016,-0.077864,-0.6986748,0.045202266,0.3648109,0.20570658,-0.062308624,0.21471536,0.24537662,-0.023688596,0.13538252,-0.3171137,-0.056008425,-0.05291362,0.19878037,0.849918,-0.51257366,0.032663677,-0.427143,0.17418768,0.4180258,0.18706858,0.018614534,-0.13237113,0.11256525,0.22292726,-0.22273077,-0.7465041
request,-0.48108646,-0.5524195,0.20467672,-0.41402477,0.077074215,0.58161247,0.5013597,-0.09932549,-0.26591808,0.41807035,-0.26305792,0.36114535,-0.22711053,-0.1363289,0.3009017,-0.6803675,-0.1496955,0.32848445,-0.12987784,0.0055337874,0.7772813,0.17382811,-0.21087722,-0.4227975,-0.35426947,0.49188617,0.21688959,-0.27118957,-0.5148159,-0.030537426,0.049044073,-0.10998965,0.3169337,0.0011792844,0.15117368,-0.29530022,-0.2601571,0.80304354,-0.50311667,0.3136792,-0.8120724,0.27297345,-0.17168145,0.17814651,-0.34191036,-0.30418456,0.19654927,0.29309103,0.044520613,0.12707588
forgery,-0.076122396,0.20562014,0.6241999,-0.1407636,-0.07712959,-0.12177073,0.57872385,0.040332735,0.25522888,0.4909098,-0.11041353,-0.062215514,-0.40425128,-0.20626044,0.455759,-0.4270199,0.5057601,0.051042646,-0.10077298,0.45598033,-0.6122407,0.46280926,-0.67727435,-0.79051054,-0.18183637,-0.108928956,0.60094917,-0.21769379,0.004595721,0.2480223,0.036328197,0.29401535,0.40407053,-0.067668684,-0.21834394,0.11074918,-0.2351825,0.5521649,0.052376207,-0.030063052,-1.0102746,0.38075343,-0.23781411,0.32500052,0.08432024,-0.30027646,0.50812423,0.2570396,0.05382136,0.415184
falsificacion,-0.3884281,-0.15067844,1.2677348,-0.35355443,-0.46653628,-0.019177577,0.48698407,-0.25824574,-0.13724853,-0.07824996,0.50844115,-0.59777814,0.11156335,-0.28976107,0.36330357,0.19721542,0.4964106,-0.012134645,-0.34905455,-0.27908373,-0.029585648,-0.4287245,-0.7958261,-0.010831025,-0.10077791,0.33416778,0.46134037,0.10029876,-0.1619382,0.08598652,-0.21138743,0.34703058,-0.059124656,-0.26425448,-0.1008744,0.07611405,0.21528341,0.28692433,-0.19274282,0.36140865,-0.12338113,0.3401772,-0.009293508,0.44208726,0.7880283,-0.0924305,0.72396713,0.1063913,0.028806832,-0.17819247
atacante,-0.040103182,0.21550119,0.8737664,-0.28856736,-0.52464473,-0.3586674,0.18193457,0.026801305,-0.053602725,-0.3596927,0.5238218,-0.6092183,0.06064,0.03801831,0.059564073,0.52640545,-0.28270605,0.31620547,-0.10020732,-0.04741225,-0.40387177,0.27932778,-0.37655562,0.23517983,0.756715,0.40043172,0.6793323,0.114103146,-0.1373929,0.25745374,-0.2806344,0.03459721,-0.41223675,-0.21319646,-0.12503599,0.4459885,0.27642164,-0.22917049,-0.2739377,0.41899312,-0.036066946,0.2452822,0.13940693,0.6024859,0.7414486,0.5701342,0.73777187,-0.048492394,0.031239746,-0.0743257
engana,-0.21131364,-0.16706118,0.16403662,-0.12577672,-0.56307876,0.32010567,0.37806904,0.31766814,-0.26028162,-0.06787097,0.7075017,-0.25115126,-0.71890426,0.017556475,-0.56282985,0.57492006,-0.4498989,0.1676302,-0.6977436,-0.37137485,0.7879739,-0.14020951,-0.3285185,0.25395203,1.0563233,-0.14776243,0.085882425,0.5515275,-0.111443885,0.023169514,-0.525448,-0.016681563,0.23610453,0.12226363,0.33857736,0.07903906,-0.151023,-0.28107807,-0.1664975,0.3977501,0.24651216,0.24910362,-0.21415833,0.5980996,0.22615592,0.37033376,0.07928468,-0.21854027,0.11141872,-0.23898639
haga,0.07612301,-0.18574281,0.85792714,-0.2411215,-0.76901287,-0.33212492,-0.014665463,0.06697352,-0.1991879,-0.4383501,0.11766747,-0.3922291,0.04885083,0.38754776,0.2514359,0.23868823,-0.036713637,0.65281576,0.028894594,0.2037735,-0.561895,0.4590322,-0.12407513,0.4818944,0.5558107,0.6964366,0.23583093,0.07195278,-0.15197992,0.086655974,-0.06305401,0.20863217,-0.36797523,0.12691505,-0.07582486,0.38236573,0.052223627,0.005032249,-0.33194715,0.36494052,-0.05152224,0.068288386,0.11117056,0.38004455,0.67703897,0.7102739,0.5690513,0.055939723,0.31485578,0.31507906
http,-0.51538694,-0.0015317407,0.37482178,-0.07267125,-0.6273148,0.33144784,0.23093498,0.2558266,0.39028344,0.36106035,0.34121588,-0.8001765,-0.35769776,0.5730499,0.5358336,0.046400078,0.62750614,-0.096557826,-0.6017197,-0.12419793,-0.26913372,0.2133574,-0.7248852,0.013347898,0.36838165,-0.84958637,-0.41287068,0.55368763,0.14961655,-0.38489154,0.049076825,0.23362924,-0.40890852,0.11793914,-0.13123952,-0.19361706,-0.09150841,-0.57618463,0.35722637,0.17105675,-0.15742522,0.6624791,-0.30110803,0.47173038,0.288928,-0.58214825,0.2115332,-0.19262356,-0.069312036,0.5633998
internos,-0.16498797,-0.7146137,0.26489845,0.039672192,-0.8983957,0.23141153,-0.103475355,0.08354812,-0.49630576,0.06823296,-0.1406451,0.06766021,-0.23636912,0.6047819,0.84264034,-0.31487536,0.39617258,0.33476382,-0.09773623,-0.084000796,-0.13367432,0.06713868,0.35859662,0.87346494,0.19535686,0.4040457,-1.0426705,0.0014706946,-0.21988213,-0.5064775,0.004337402,0.1685332,0.14448822,0.55871904,0.055111006,-0.23660934,-0.22208744,0.321831,-0.3760893,-0.009966737,0.30367056,0.34445095,-0.25393286,-0.23004419,0.24025865,0.27970853,-0.33760312,0.026885195,-0.019800263,0.5849846
externos,-0.31639612,-0.4386585,-0.03590052,0.30415276,-0.61832756,0.24547793,0.25364414,-0.14497557,0.2176729,0.4239534,0.12917905,-0.63165075,-0.37749276,0.5335707,0.6384775,-0.26520184,0.7683097,-0.23278989,-0.39465097,-0.39283925,-0.056371786,0.056619793,0.009217681,0.7190451,-0.11280749,-0.6049328,-0.6434398,0.11253566,-0.06822157,-0.16627258,0.32940388,-0.20536992,-0.124448806,0.34604877,-0.33069193,-0.669636,0.25892314,-0.52912694,-0.3182469,0.037437495,-0.022507848,0.383758,-0.3724218,0.05150804,0.0836475,-0.5763175,-0.06991504,-0.1671081,-0.8049565,0.11442035
autorizados,0.4946257,-0.5017791,0.07471819,-0.11547366,-0.3145778,0.1877816,-0.14051414,-0.08811796,-0.13453619,0.0792392,-0.26131362,-0.42063516,-0.7472674,0.31420362,0.35871378,-0.55673116,0.46991783,0.27425137,0.056562774,0.1239369,-0.5184439,0.30233362,0.13640444,0.05000797,-0.27483505,-0.7626398,-0.5429801,0.2873461,0.5264541,0.26694188,0.664053,0.53719395,0.45162418,-0.0118203,-0.43901962,-0.30452865,0.3061668,-0.11633482,0.26994392,0.12285343,0.41095126,-0.32239822,-0.11858666,-0.20584446,0.3474946,-0.50961214,0.7492638,-0.28643686,-0.018777061,-0.21006525
usarse,0.5754157,-0.2789161,0.11866836,0.11076316,-0.3593067,-0.029280648,0.15866096,0.12690662,-0.54957294,0.1706954,-0.49985093,0.48348644,-0.25172248,0.1552677,0.7853137,-0.5601631,0.076032504,-0.30233037,0.5041704,-0.21554352,-0.58992517,0.11384522,0.5596245,0.46618375,-0.121521704,0.0020338222,-1.0822608,0.10973951,0.20309556,-0.00995127,0.34465715,0.2383907,0.39687043,0.11756232,0.11509769,-0.034139246,0.28046262,0.62719506,0.1022654,-0.19360672,0.4503309,0.14155073,-0.01712929,-0.5480757,0.25934672,0.265175,-0.17630365,0.19910255,-0.20519552,0.109873764
escanear,0.21696115,0.08047031,0.014831437,0.41992366,-0.51045233,-0.11343646,0.13649511,-0.27567852,0.19395664,0.49888235,-0.22964889,0.36869827,-0.09799875,0.07138036,0.17481628,-0.665761,0.52436405,-0.5214388,0.40665334,-0.34607518,-0.13133751,0.09798736,0.3637112,0.5629102,-0.25252122,-0.36551857,-0.7418068,0.32377234,0.041923698,0.137321,0.40087545,-0.74632406,-0.12855715,0.37467405,0.11628689,-0.3849781,0.7669866,-0.21570404,-0.3375088,0.0242259,-0.13885811,0.036266826,-0.5059069,-0.09340317,-0.52370167,-0.02535528,-0.3371807,0.21812254,-0.815824,-0.47100845
redes,0.21654126,0.27506745,-0.23551,0.3441681,0.19942182,-0.14467335,-0.42399696,-0.013563191,0.28230503,0.033780277,-0.28662345,-0.28672594,-0.5947137,0.11151699,-0.37284893,-0.64238167,0.48938513,0.38867182,0.18224494,0.23792812,-0.42526582,0.007339611,0.55522805,-0.10644188,-0.3582125,-0.7154027,-0.7162607,-0.1641557,0.7286727,0.10337846,0.29071608,0.24248758,0.31719422,0.20633875,0.04880978,-0.7734206,0.9597561,-0.43596134,0.13862534,0.43118578,0.30807427,-0.24604,-0.017559689,-0.51287687,-0.677611,0.2149051,0.8926164,0.16562073,-0.26554486,-0.18954109
internas,0.26987025,0.40768716,-0.026372889,0.57861435,0.27807853,-0.29888093,-0.04704845,0.3936875,-0.09388675,0.028601713,-0.4469555,-0.036100365,-0.022320345,0.045438383,-0.09690733,-0.5074152,-0.06561366,-0.47515061,0.15349717,-0.3035522,-0.5677593,-0.31346747,0.35764155,0.008421415,-0.5413862,-0.11534478,-1.3601605,0.11917128,0.75263673,-0.19617444,0.39538312,0.55742085,0.05715873,-0.08302604,0.613924,-0.05236515,0.67734355,0.21533182,0.7686547,0.092692435,0.4619651,0.057561968,0.35051242,-0.535896,0.14926715,0.44975656,0.25091738,0.4376369,0.055485494,0.49686804
servicios,-0.4522392,0.68281645,0.26553842,0.3033554,0.09280282,-0.4222585,-0.48559076,0.14379527,0.79330426,-0.0704525,-0.41393706,-0.32640928,0.08255119,0.27433613,-0.72647274,-0.5560385,0.3526833,0.70445925,0.1266773,0.6046518,-0.3098848,-0.29395893,0.29301625,-0.2803724,0.10681016,-0.21670744,-0.22719048,-0.07616582,0.42773187,-0.19085807,-0.021263065,-0.0031147283,-0.38772884,0.25839132,0.48033637,-0.6087897,0.59335446,-0.46361127,0.118117474,0.67079085,-0.18552428,0.25071016,-0.29043406,-0.47474414,-1.0684277,0.42548096,0.7500036,0.49886686,-0.0071501806,-0.04631789
protegidos,-0.21281978,0.56236064,0.3995989,0.4228018,0.26969653,-0.3167484,-0.13949288,0.5206633,0.012526458,-0.2799402,-0.26497394,-0.46538103,0.25613427,0.17918056,-0.77622235,-0.17182311,-0.058136582,-0.27028358,-0.26544148,-0.052214168,-0.24038711,-0.70137215,-0.21207042,-0.16002142,-0.52650523,0.05673185,-1.1788173,0.3736778,0.67558056,-0.5268365,0.4767836,0.7691703,-0.27002642,-0.15496081,0.7100918,0.19091892,0.50396514,-0.036374908,0.94678664,0.3902701,0.21369071,-0.05404982,0.48165166,-0.21461166,0.33988735,0.30458462,0.5397188,0.4869785,0.3936493,0.8082906
