palabra,dim_0,dim_1,dim_2,dim_3,dim_4,dim_5,dim_6,dim_7,dim_8,dim_9,dim_10,dim_11,dim_12,dim_13,dim_14,dim_15,dim_16,dim_17,dim_18,dim_19,dim_20,dim_21,dim_22,dim_23,dim_24,dim_25,dim_26,dim_27,dim_28,dim_29,dim_30,dim_31,dim_32,dim_33,dim_34,dim_35,dim_36,dim_37,dim_38,dim_39,dim_40,dim_41,dim_42,dim_43,dim_44,dim_45,dim_46,dim_47,dim_48,dim_49
acceder,4.5133266,-3.2512813,0.67046356,-1.6664894,2.548243,-1.9172927,0.22559115,-0.46660903,1.8451489,-1.4716382,0.66904205,-2.676869,-0.19260174,3.2323735,0.03411051,-0.827772,-1.4258196,0.99469554,0.59572285,0.31661698,0.37017515,-1.5865209,1.0547019,0.8030574,-2.213682,-0.41926482,-0.22647814,-1.1553092,0.547102,-0.5233618,-0.9819137,1.3704813,-0.18096365,1.7260648,-0.15233043,-0.89269257,0.6263769,-0.47040066,-0.1327555,-0.07890476,-0.5328629,1.3817226,0.27125862,-0.35033566,-1.5751135,-0.045545995,0.51452297,0.30617347,0.0679676,0.27348733
privilegios,3.570695,4.4931216,-0.030265177,-0.73574394,-1.0017842,-1.1396387,-0.8375591,-1.9003141,-1.2275838,1.1585451,-2.0498972,-0.62737966,-0.35623658,1.5122172,-1.478121,-1.0029215,2.8720322,0.2012082,-0.09169752,-0.8388207,0.30454534,-0.45027274,0.35300288,-0.33265764,0.44380495,-2.930411,-0.3206326,1.2192231,0.1150243,-0.33451152,-0.2024681,0.7118592,-1.129286,-0.66600966,-0.006173531,0.7509834,0.13412859,-0.11138862,-0.35937548,0.6106807,-0.09824832,0.27269667,0.09234084,0.36979142,0.5996089,-0.322488,-0.1278439,-0.18216187,-0.3750513,-0.32028908
autenticacion,2.9868643,-1.9454225,3.0898662,4.973358,1.6627365,1.8731666,0.38998574,-1.3981091,-0.815384,2.929745,0.8632514,-0.20565626,-0.51168627,1.9867718,0.19041844,-1.0281912,0.38539326,-1.0604984,0.06795973,1.5088615,1.5126108,0.4326585,1.2238858,-0.073430404,0.75272685,2.3158119,-2.300117,-0.20482083,0.6230769,0.4870542,-0.6245169,1.4707769,0.47238815,-1.8076713,2.330045,-0.4515682,-0.60880494,0.7516248,-0.8536226,0.59139746,0.6287351,0.0827998,0.2197152,0.6739616,-0.04533617,0.063412346,0.24122274,-0.46114865,-0.8574119,0.22489418
rutas,3.0313985,-3.306988,1.9714329,-2.6882708,-2.1081574,-0.6184088,-0.6656027,1.2744341,1.6456698,1.198254,-1.8605697,0.52778465,0.27422965,-0.7997216,-0.15072283,1.6245197,0.63814175,0.1660605,-1.2530631,-0.4077205,0.3402225,1.1109004,-2.555337,3.4478505,-0.3615169,0.091393024,-1.5202333,1.179996,-0.3886516,1.9237406,-0.54923475,0.1741308,-0.24710703,0.16739681,0.18165964,-0.084275484,-1.236381,0.15640795,1.5500191,0.9103135,0.07169499,0.9182051,-0.10407879,0.027793918,-0.52927643,0.49390244,-0.039344802,0.06490049,-0.12034539,-0.6153986
archivos,3.0086837,-2.2745743,0.8402616,-2.0292504,0.31416324,-2.2497742,0.51394796,1.3004197,2.7803428,-0.07237851,0.53197,-0.17256673,0.74900144,2.063569,-1.3514271,-0.30576473,-0.7547428,2.387342,-0.22521389,-0.5092721,0.47005308,1.0484018,-1.1170158,1.3279485,1.5176674,-0.108152315,-0.23816437,-2.2173004,1.3336996,-1.0905159,1.7163216,-0.9345961,-0.20022804,-1.4028594,-0.44602454,0.94863725,-0.2776679,-0.4495592,0.70738953,0.97090083,0.60164595,-0.14606667,0.9970437,0.34567013,0.744747,-0.93589395,-0.20611452,0.177895,-0.16770712,0.9322385
manipuladas,3.1218135,-3.4646378,1.2117286,1.0680995,-2.484577,-2.3263042,-2.1644576,1.8694714,-1.0031109,1.413989,-1.1724805,1.9591132,-0.72284144,1.4069773,2.038756,-1.0705565,-0.5937966,-1.5851487,3.6312053,0.5796164,-1.5935632,0.86805606,1.2138001,-0.027595375,-0.7701265,0.17019986,-2.5250099,-0.05466227,0.6614177,-0.3221642,-0.19209939,0.17441079,-0.23069078,1.2112044,-1.3903395,0.3538925,0.47697017,-0.72951466,0.8033033,0.5683573,0.26013684,-0.72129065,0.42368025,0.12797111,1.1757783,0.4997285,0.47555467,0.66570103,0.14670669,-0.41097432
sistema,3.030748,-0.16685218,-0.7236701,-1.4403012,1.193387,-1.5216099,2.4266024,0.8419465,0.9564303,-1.004099,3.1576679,1.3799524,-1.0627979,-1.3395554,-0.6507659,-1.9034932,-0.44071,-0.35464653,0.105644934,0.22515228,-0.06468506,-0.608349,0.029167026,-0.47561982,1.9271477,-0.70717084,-0.18958838,1.0587082,0.17405255,0.27765775,-0.48055023,0.73019487,-1.4961449,0.17881736,1.2353245,1.0121325,0.052740593,-0.046238046,-0.12765843,-0.24663588,-0.67332554,-0.55257547,-0.15032631,-0.16319974,0.043913838,-0.038762305,1.4743898,-2.0995045,-0.45974317,0.063552156
control,2.12714,0.3377233,-0.49783558,-1.3690763,1.0136447,-2.2979004,3.2542715,-0.43842167,-1.2071406,0.29603362,3.3113778,0.09465557,-0.6738496,-0.4345851,-0.11826799,-0.24409683,-0.19675112,-0.15660578,0.011967931,0.18637797,-2.796241,-0.06266949,-0.38027593,-0.20882198,1.3140278,1.0293528,0.3537392,0.12586908,-0.25074264,1.8496639,-0.16583748,0.16800839,1.9215939,-0.2389866,-1.1565757,-0.36127606,1.1464797,0.21519059,-0.65879875,1.1657414,0.96883446,1.2145095,-0.4760487,0.49576485,-0.20937811,0.25824815,-0.6779467,0.7326864,-0.41041937,-0.9317557
acceso,2.8899732,1.7763106,-0.59734833,-1.4838256,0.68694705,-2.72094,3.612922,-1.4827952,-3.396187,1.5888603,0.024180578,-0.65763706,1.958381,1.8399329,0.88610154,2.1122034,0.89822227,-0.392057,-0.067373246,-0.56882656,-0.945605,0.07322262,1.1848893,0.37919006,-0.75540805,-2.515742,-0.16584569,0.26461694,-0.2570802,0.10963353,-0.4398569,0.509631,1.3522278,0.90549576,1.4803717,0.5255579,-1.3537544,0.09379723,-0.32209963,-1.2329652,-1.2967936,0.6904517,0.060668655,0.8142496,0.8418994,0.06623363,-1.0710447,0.33001018,0.93421036,0.2653823
recursos,2.7254345,-0.7927695,-3.6172225,-0.8306218,1.691757,0.8636763,1.2298691,0.038928144,0.51714665,0.4286196,1.3781163,3.004327,3.6883354,-0.7007595,-1.2010251,-0.558725,1.1032711,0.7964922,0.13495818,0.08559589,0.60454655,0.24107231,1.1594329,-0.34531277,-2.346756,-0.124809384,-1.7407631,0.08034005,0.11263417,-0.5952979,0.5196647,-1.7488576,-0.65682405,0.270297,0.4965458,-1.547025,0.30685094,1.015678,0.2118802,-0.28782237,0.95922166,-0.49521536,-0.21019357,-0.39414012,-0.6967465,0.4918525,-0.7444181,0.9774183,-0.8219652,0.0085956715
usuarios,3.5544994,3.1792452,-0.2810714,-0.5310084,0.02258156,-0.47597057,1.8802036,0.9742952,-0.8061659,-1.2656991,-0.24576196,1.3331552,3.2784185,1.6671243,1.811807,-0.21796145,0.0253913,-1.7843865,-0.39444706,-0.44212872,2.5390239,1.4190564,0.6546926,0.55954915,1.2543471,0.040021464,1.1591573,-0.27423245,-1.3987317,-0.4758687,-0.17911527,-0.22000249,-2.152523,-0.09884845,-1.0393054,-0.8431824,-0.3303919,-0.11212324,-0.24910215,-0.43511975,2.1878722,0.45859164,-0.5979301,0.50548345,0.017108096,1.1040571,0.53217226,-0.499504,0.9561428,-0.65520155
permisos,3.5945482,3.4780402,0.57877207,1.2887863,-0.04698318,2.3939376,1.0950583,3.9350557,1.0777825,-2.5991669,-0.059121314,0.7736274,1.3750894,-2.6371179,1.3739862,0.36002618,-3.2364948,0.6815185,0.336935,0.4895564,0.17775394,-0.8456284,0.52866423,-0.07887116,-0.34505066,-2.2984653,-1.2942652,0.9102626,1.1241442,0.12284168,-0.08019101,0.601715,0.45693484,-0.28735462,1.2262787,1.1982346,0.8051596,-0.04282216,-0.10702948,0.8320368,1.0848714,0.38196436,-0.31227615,0.29345855,-0.113945864,0.58904606,0.3624411,-0.1248767,-0.32824787,0.5868746
vertical,3.1320927,4.4956927,0.21105501,-0.30670726,-1.5224494,-0.122467324,-3.942373,-2.27704,1.5522809,0.8182951,1.2070538,-0.256882,-1.2643112,-0.8129143,-0.5272715,-0.018197754,0.08075114,1.1304555,0.22417481,0.28556797,-0.5800403,-0.5201598,-0.15963428,-0.20382398,-0.15948054,0.58682126,-0.8047099,-0.32732078,0.59541893,0.09818357,0.3541434,-0.92159116,0.24959624,0.7552182,0.75784653,-0.7007726,0.31926644,0.059956346,1.014974,-2.336357,1.5490243,1.5994047,0.108387105,1.1715264,0.75846136,-0.20790556,0.15922612,-0.34842113,0.5192092,-0.060989812
usuario,2.8478928,3.5737514,0.18840952,-0.06986438,-0.7037648,0.043421242,-0.13202183,0.21271464,-0.7190413,-0.50112635,-3.1912246,-0.54663026,2.1357653,0.29733047,-2.010243,-2.5662858,-1.7443364,-1.6889303,-0.23888844,0.049228508,-0.21504836,0.42572096,-0.29334462,0.17256425,-0.090698354,0.47535935,0.8948317,0.0901342,-0.076820575,0.6838138,-0.13339117,0.21396638,1.2232006,0.6501885,1.004391,1.6581643,0.50011116,0.30579126,-0.21115175,1.2540584,-1.4104872,-0.38792714,0.4757872,-0.3853532,-0.08355565,-0.79605746,-0.44714898,0.6255919,-1.312907,-0.46194503
solicitudes,1.6620725,-1.3207163,-5.472833,1.612196,-2.084103,1.3067591,1.7759479,-1.4411638,2.11162,0.43413717,-0.507324,-0.33680752,-2.2366364,0.8763559,0.038598932,0.0028679052,-1.2146034,-1.3195425,0.8124271,1.6427573,0.14705595,0.7458496,-0.9750315,0.9095754,-0.18898487,-1.8428516,1.6729974,0.3826368,-0.4073732,-0.06530659,-0.04872195,-1.7322146,-0.07250403,-1.0678871,1.0020003,-0.63806343,-0.19417918,0.6473524,-0.44147274,-0.13882495,-0.37292042,0.04915777,0.6957538,0.94905925,-0.5300884,0.48530298,0.90415925,0.6142693,0.02968385,0.25547907
servidor,1.0783904,-1.00304,-4.5644636,1.5578941,-2.1215124,1.2909791,1.9127138,-1.7574401,2.7889678,0.8570263,-1.4535459,-1.275914,-0.31329104,0.082717165,1.5982155,-0.31172124,-0.24991727,-0.3163789,-1.4610115,0.43722078,-0.8194678,0.8902484,0.0021766755,-0.7694935,1.0916888,-0.6757438,-0.6012716,-0.4430148,-0.15875365,0.2722642,1.5149676,1.4237225,0.18040057,1.6006986,-0.2752419,-1.0930843,0.7073294,-0.693168,1.0167444,0.6059237,0.22205977,-1.3206804,-0.23779745,1.0520993,0.08204055,0.013350206,-1.5803468,-1.3537071,-0.25123134,-0.0060851746
documentacian,0.55356115,-0.8568125,1.1340011,-2.3778298,-2.082927,3.3646293,0.72080606,-1.2879945,-1.5466055,-0.6023308,0.9879461,-0.13505234,-0.103906795,-1.0584567,0.29407212,-1.1735501,0.99549335,-1.8539956,-0.44343784,0.22880681,-0.44568062,-1.3895794,0.71659297,2.0831203,0.37279132,-0.47900078,-0.113693975,-2.4050982,1.0911659,-2.874113,0.6058365,0.022206195,0.85879844,-0.08968653,-0.29726654,0.15609765,0.67696464,-0.3685495,-0.4873317,0.031230096,0.10636696,0.05410439,0.5146645,0.07414224,0.013760936,0.21802036,0.14754635,0.5190323,-0.1747714,-0.15207624
laboratoriopsw,0.7812392,-1.1809285,1.5060909,-3.1244867,-2.7112386,4.2355475,0.8911134,-1.5659572,-1.8329142,-0.6733515,1.0843596,-0.15265797,0.0054830485,0.90713435,0.28632548,-1.1505004,-0.883762,1.2347897,0.7266152,-0.014583111,-0.42013264,0.5483528,0.6255273,-3.2606728,0.34579307,0.33321968,0.9463846,1.3028069,-0.73329705,-2.5281618,-0.077708565,-0.3392167,0.72833437,-0.2596482,0.24759021,0.04219373,-1.8653842,-0.29326814,2.2657998,1.1972301,0.11537866,0.9392532,0.38128445,0.0393958,-0.44652104,0.1292678,-0.014997558,0.094022326,-0.102140166,-0.061978925
dss,1.0477139,-1.532012,1.846218,-3.7565553,-3.2328978,4.782505,0.96808666,-1.671631,-1.9028912,-0.6204652,0.9786984,-0.12480252,0.19023053,1.0026959,0.23977704,-0.88590086,-0.8323956,1.9682407,0.002866503,-0.38219157,-0.32272038,1.7536256,-1.8741704,0.031716958,0.24923244,0.4272974,-0.8306827,2.4316633,-0.9074453,-1.6860095,-0.8372469,0.3315845,0.4785387,0.40774193,0.14418192,-0.25632873,1.1416894,-0.1526903,-1.8230749,-1.3231249,-0.249082,-1.0702107,0.16114812,-0.1244742,0.4646822,0.089913346,-0.1375103,-0.6214249,0.28042787,-0.06837114
path,1.2598184,-1.7474701,1.9274668,-3.8209627,-3.1949048,4.291771,0.82356596,-1.3339332,-1.3628668,-0.33366898,0.46217006,-0.07753595,-0.07730216,-1.6249118,0.0024016486,-0.028486682,1.4042602,-2.1950965,-0.9032077,0.13638467,0.042728193,-1.120342,-0.15559141,3.5316157,-0.05362286,-0.46284205,-0.7549567,-1.8655983,0.8710753,0.8101912,0.24324892,0.19763055,-0.31453964,0.11632731,-0.16909996,0.0056839883,0.69470376,0.17906582,-0.7553909,-0.3286168,-0.029883426,-0.19164923,-0.30609584,-0.0130665535,0.051682334,-0.19979039,-0.021821361,-0.10555452,0.040296633,0.1892003
traversal,1.5566232,-2.0103354,1.9073803,-3.5414534,-2.9113195,3.125053,0.47198185,-0.6842472,-0.5495824,0.117230035,-0.26392895,0.08370865,-0.23883992,-0.35302615,-0.12947068,0.7620791,0.15904075,-1.1474925,0.644474,0.4092295,0.2756653,-1.3813674,2.426499,-2.575677,-0.2720163,-0.16924997,1.5086902,-1.3379602,0.31472096,2.3002205,0.6516749,-0.44698992,-0.66914934,-0.43723065,0.01897528,0.17984964,-1.250643,0.35300472,1.6513417,0.93003637,0.13130733,0.5885841,-0.51782286,0.04773128,-0.18607932,-0.09143096,0.032833286,0.12969844,-0.04964623,-0.010535196
recorrido,1.7637793,-2.1129885,1.7614714,-3.1892312,-2.3579345,1.9452964,0.26258814,-0.15939604,0.3028962,0.33216497,-0.6775179,0.0059206374,0.22000578,2.050906,-0.41682905,1.3147143,-1.418321,2.5750332,0.4997669,-0.29944074,0.594979,1.3261209,-0.9164201,-1.0531714,-0.46246323,0.3010789,-0.21259628,1.0988619,-0.25303006,3.6481993,-0.1791502,0.1321762,-1.164154,0.10901294,-0.14937833,0.021167036,1.0671316,0.39536726,-1.1482518,-0.42854306,0.03483152,-0.2755881,-0.47122788,0.0514269,0.14069253,-0.394098,0.1486353,0.5179656,-0.16736373,0.35048184
permite,2.1130948,-2.0424633,1.1586025,-2.1238027,-0.6952204,-0.3742054,0.07893961,0.5141796,1.5432781,0.17723484,-0.52546453,-0.40474162,-0.40374783,-2.0508306,-0.69759357,0.8810131,1.0213189,-2.3493676,0.16877784,0.40713224,0.6705518,-1.0870988,1.6029351,-1.5280553,-0.32656696,-0.039464016,0.86004263,0.15054801,-0.40321666,2.170857,-0.13317658,-0.12317692,-0.89970607,-0.00096899184,0.25810847,-0.15422153,-0.12438139,-0.044994555,-0.3656616,-0.68583596,-0.2075003,-0.73444015,0.27053356,-0.12575816,0.36660016,-0.59872085,-0.16827333,-0.70648015,0.3025375,0.68199533
directorio,2.1833086,-2.0203052,0.916564,-1.4980831,-0.14889559,-1.8376557,-0.22300553,1.2760086,2.446579,0.59750414,-0.9460918,-0.05741738,-0.2100884,-1.6781276,-1.1857992,1.0892414,0.8321356,-1.3671124,0.06853534,0.0364891,0.7763495,0.74225664,-0.6829007,0.5010275,1.5039145,0.27061048,-0.9351011,1.8641357,-0.82673025,-2.3875668,-0.6451174,-0.062920526,1.5312961,0.2738556,-0.006190868,0.04291951,-1.0452747,0.85754544,1.301265,0.52374613,0.1946936,-0.46626422,-0.8291439,0.1626944,1.1520481,-0.13606942,-0.07616816,0.16259715,0.013851933,0.254995
autorizado,2.207509,-2.2155056,1.1736467,-1.7734609,-0.7868777,-1.7296444,-0.3724698,1.5719562,2.5380082,1.0486851,-1.4391806,0.4289474,-0.45051694,0.0860592,-1.2272595,1.6170051,-0.19944172,-1.0512755,1.185126,0.46550968,0.8027255,-0.8430605,1.7501793,-1.7472757,1.7756498,-0.0125244465,0.16370372,0.2593383,-0.17596616,-1.768911,-0.7152256,0.63447666,1.4941338,1.250028,-0.32911623,-0.54693204,1.3024403,0.99817276,-1.1613601,-1.082303,-0.55297035,-0.5444742,-0.92160064,-0.40345252,-0.084659636,0.044184763,1.0069009,0.62796324,0.69706523,-0.042916723
usando,2.2247622,-2.4032145,1.2354702,-1.2493986,-1.265563,-1.7433769,-0.86719376,1.6791259,1.8039477,1.3628011,-1.8067632,0.893535,0.44125542,0.49148604,-0.4121196,1.4293922,-0.30685687,1.6350205,-1.452995,-0.30126703,0.28240046,-0.7082449,-0.0073900023,-0.7094899,1.182156,-0.23251186,1.989757,-1.5526567,0.41774926,-1.5582882,1.0510738,-0.47329497,1.4855525,-1.4901756,0.7653715,0.17800464,0.21889168,0.9118015,-1.3058674,-0.4092363,0.068491966,0.61668354,-1.1131613,0.08801045,-1.2109766,0.5390801,-1.0056978,-1.1185552,-0.6159126,-0.54978555
etc,2.2513695,-2.2779584,0.97436106,-0.75550145,-0.7408965,-1.5012667,-0.8410288,1.0338026,0.805501,0.6110089,-0.9340621,0.28869778,0.22330122,-0.09844946,0.958112,-0.37776166,-0.07955143,0.67045397,-0.46384358,-0.11702542,-0.68923146,-0.2646074,0.52966315,-1.556125,-1.4707664,-0.051320877,1.4450814,-1.0736493,0.35802102,0.19577871,1.1127479,-0.74143106,-0.57615787,-1.3059309,0.11078582,0.56486547,0.65174264,-1.6068333,-1.2096558,-0.41272974,0.3990658,-1.2528911,2.1692166,0.3281639,1.5687549,0.958164,-0.48170295,-0.14479855,-0.1153601,-1.0763428
passwd,2.2479053,-2.1151156,0.7860997,-0.6439972,-0.32659242,-1.7939968,-0.62315595,1.0386964,1.0256486,0.34248438,-0.41808587,0.13606013,-0.06435747,-1.8664502,0.66941315,-0.85128456,0.85005707,-0.83163124,-1.1669804,-0.045514517,-0.65649563,-0.21788727,-0.5549137,0.06684294,-0.983273,0.10638388,0.42134538,1.7728204,-1.163047,-0.6304974,-0.9840907,0.36606094,-0.5629523,0.3400969,0.83828956,-0.69415593,-0.72482765,-1.793785,0.059881456,-0.51403385,-0.5653142,0.89546764,2.5371015,-0.3894525,-1.7603632,0.46527702,0.010677363,-0.54935896,0.08242035,-0.49233335
criticos,2.070287,-0.9368557,0.040420942,-1.2618607,0.9066837,-1.610373,1.3639791,0.5327122,1.3640314,-0.75143236,2.4020588,0.028701445,-0.16931579,-1.549815,-1.0062231,-1.685617,0.8161376,-1.3508191,-0.09486639,0.14414003,-0.5169197,0.11750659,0.09775341,-0.88650745,1.957347,0.7293055,0.37353548,1.3943126,-1.1160885,0.16011134,-0.59169555,-0.08892175,-0.8183644,0.035609074,-0.60626906,-0.80099547,0.7025222,-0.56798637,-1.0284946,0.16891502,0.8607244,0.6294701,0.5925015,0.5034379,0.06254387,-1.2392302,-1.8369871,1.5160837,-0.55182976,0.6599752
access,1.5869414,-0.18375918,-0.27608657,-1.0343891,0.7965822,-1.5134141,2.0089064,0.23846422,0.29812172,-0.45841995,3.1060023,0.4639509,0.7307653,1.336895,-0.7227605,-1.5577062,-0.12583962,0.8267126,1.7894621e-05,-0.23990369,-1.5937744,0.20608266,0.12726872,0.72530836,2.3637745,-0.6042948,-0.29187897,-1.2140647,0.65161115,1.1968211,0.6140627,-0.3651116,-0.03936295,0.036108963,0.47351536,0.2241783,-1.2225546,-0.25227058,1.1754849,-0.7768194,-0.9094662,-1.0158688,-0.0010775019,-0.64656687,0.08644471,-0.79310554,1.073385,-0.49388278,1.1136688,-0.20578508
restricciones,1.9979837,-0.048216097,-0.3846571,-1.1300917,1.0526733,-1.8246552,2.2814538,-0.7622096,-1.1528991,0.45094016,1.547624,-0.7154127,0.52561945,-0.8807574,0.28440037,0.81418264,0.32415238,0.18300387,-0.05396582,0.022780366,-1.7040025,0.3314973,0.0011255031,-0.21128345,-1.5796648,0.15471153,-0.5723117,0.07913152,0.15445532,0.7027636,0.56180567,-1.1239381,2.2326405,-0.30950496,0.64934176,-0.4269067,-0.53243595,0.4693102,0.85195285,-0.94702786,0.20804124,-2.3592498,-0.29217342,-1.2190263,-0.4274949,1.1346964,0.40547487,-0.04962523,-0.9888158,-0.39853275
determinan,2.0892277,-0.22652873,-0.9038183,-1.0389868,1.168655,-1.2573458,1.9075297,-0.6723101,-0.81835526,0.47895974,1.1306959,-0.08126618,-2.1173773,-0.71640223,0.024060877,0.7370004,-0.54348004,-0.46150443,-0.13810168,0.09374939,-0.84651995,0.104438394,-1.1599036,-0.10678795,-2.5293365,1.0668695,1.1001549,0.117278606,-0.16645533,0.032544106,-0.07264659,0.7907928,1.5063125,-0.84336364,-1.2666728,1.0184072,0.67314684,0.7162748,-0.45984462,1.4833804,0.22553425,1.0920324,-0.20335127,0.78996426,0.84603506,1.2152257,0.6017288,-0.925852,0.7297811,-0.043685928
permitir,2.4432,1.1249162,-0.8541595,-0.3264402,0.62574464,0.29317063,1.6022707,1.435057,0.4498891,-1.2844782,1.2584709,1.9590652,-2.4881802,1.040014,0.46254644,-0.8281965,0.9189445,0.2400419,-0.06690003,-0.13290061,1.2101818,-0.07890345,-0.9118916,0.13182193,0.18981566,1.2165633,0.81725156,-0.71909404,-0.005026035,-0.28262162,0.09348213,0.2798433,-1.6917065,-0.02822466,-0.89759034,0.08582668,-0.42322522,0.41422194,0.14025296,0.07343148,-1.9504683,0.11705743,-0.7395954,-0.14063466,0.45224315,1.3200191,-1.006757,1.1236484,0.43171775,0.002778746
modificar,2.5036094,2.9239569,0.19612493,0.24026683,-0.5207755,0.8530101,-0.7621745,1.1212243,1.2947096,-1.8182346,1.4877003,1.1945266,-2.4920716,0.03628851,3.2812245,1.2684169,1.6433277,1.0980107,0.14228095,0.03962734,1.7559857,-0.74083525,-0.6990632,-0.46370485,0.12827915,0.9784114,-0.48602477,-0.2456947,0.68273383,0.20850955,0.39958522,-1.0053135,0.9945145,1.3190964,1.2512494,0.32197756,0.37733474,0.015428033,0.7806299,-1.1972167,-1.0843577,0.61178726,0.4413481,0.28786823,0.6397039,-0.70482725,-0.6773444,0.4868232,-0.94569194,-0.3344112
eliminar,2.4391897,3.1316001,0.27802977,0.2782179,-0.78503144,0.9164423,-1.8376532,0.5088994,1.7522923,-1.3778213,1.8010153,0.8479869,0.26031515,1.567642,2.7188137,1.3174214,1.6063807,-0.8730773,-0.2809094,-0.47280428,0.9695375,0.70880485,-0.08501388,0.12072319,-0.23849252,0.5462643,1.0821294,-0.20121394,-1.0783697,0.36587033,-0.09396129,-0.30450633,1.6711801,0.42381734,-0.8317005,0.14839363,-0.55547863,0.06851764,-1.1238745,1.981717,0.078187786,-1.6910793,0.6773286,-1.2157465,-1.2975075,-1.1570939,0.4237629,-0.054106914,0.87892306,-0.11018209
informacion,2.325802,3.2625847,0.21661559,0.00094617583,-1.0631925,0.45473924,-2.970163,-0.81117094,1.9738628,-0.5207456,2.3609622,0.60387707,1.807891,-0.88923407,2.2047043,1.3581847,-2.6623948,-0.6334641,0.020607037,0.35184085,0.60588914,0.35956803,0.5830637,0.44102862,-0.21513063,-0.7243101,-0.012740624,0.17804919,0.004655377,0.29910043,-0.44086578,1.7998055,1.4332322,-2.4269803,-1.4129297,-0.95602995,-0.4003456,0.07680375,0.21618733,-0.5342166,-1.0933619,0.1823148,0.63132113,0.20123458,0.5417461,-1.0696605,-0.268149,-0.049643695,-0.24808586,-0.19688296
privilege,2.236157,3.3792477,0.1645234,-0.27448642,-1.3124226,-0.14047427,-3.9500859,-2.4112377,1.7410382,1.1423193,1.990075,-0.2717126,-0.9248275,1.0524178,-0.59938556,0.4127081,2.478196,0.25661492,-0.08143131,-0.53452605,-0.99176466,-0.29682532,-0.28024954,-0.3900063,-0.1999996,-0.5418085,0.06030523,0.35891327,-0.080156356,-0.09469553,0.23108312,-1.1803658,-0.30413413,1.9076469,1.3551254,1.6504676,0.546767,-0.012521246,-0.78155583,1.8327743,1.3558383,-0.42831492,-0.35293233,-0.26212886,-0.64143074,0.66093415,0.46807963,-0.09892175,-0.045779012,0.28009495
escalation,2.2408824,3.3178365,0.11433169,-0.3791523,-1.2243553,-0.4161115,-3.3804333,-2.516781,1.0529008,1.4880849,0.96992654,-0.55425453,0.65288144,-0.43119884,-1.5734888,-0.21854407,-1.395755,-0.40371677,-0.010819131,0.27703354,-1.1221068,0.32833213,0.05694501,0.2541974,-0.032233015,0.6717792,0.26217782,-0.30810794,-0.16015667,-0.27617887,-0.13190454,0.5151059,-1.0858327,-0.7501726,-0.7268105,-0.6034135,-0.3477493,-0.071569905,0.088080406,-0.16290954,-1.0308957,-0.42101714,-0.59596807,-0.3834469,-0.15133394,1.0377814,-0.22458103,0.22175565,-0.05238306,0.27339774
escalada,2.2408824,3.3178365,0.11433169,-0.3791523,-1.2243553,-0.4161115,-3.3804333,-2.516781,1.0529008,1.4880849,0.96992654,-0.55425453,0.65288144,-0.43119884,-1.5734888,-0.21854407,-1.395755,-0.40371677,-0.010819131,0.27703354,-1.1221068,0.32833213,0.05694501,0.2541974,-0.032233015,0.6717792,0.26217782,-0.30810794,-0.16015667,-0.27617887,-0.13190454,0.5151059,-1.0858327,-0.7501726,-0.7268105,-0.6034135,-0.3477493,-0.071569905,0.088080406,-0.16290954,-1.0308957,-0.42101714,-0.59596807,-0.3834469,-0.15133394,1.0377814,-0.22458103,0.22175565,-0.05238306,0.27339774
bajos,2.1848786,2.359162,-0.16315454,-0.7158464,-0.20134035,-1.369871,1.2419966,-1.1460695,-2.2386463,1.1489708,-2.105034,-0.7825103,-1.7254772,-0.95021987,-0.70061934,0.16186556,0.37347275,1.1523948,0.19375242,0.24809363,-0.19515537,-0.45010072,-0.29199046,-0.29778242,-0.18769224,0.46614182,-0.72128546,-0.019166883,0.48313266,-0.10612105,0.26796156,-0.004006025,0.566984,-1.532783,-1.6780275,-1.7992164,0.42269707,-0.06409435,0.5663393,-0.32304966,1.4208802,-0.5062888,0.8341998,-0.64949024,-1.0867461,-1.7420464,0.9442545,-0.29700258,0.56858534,0.45517606
obtiene,2.2012467,2.2185645,-0.26507208,-0.89967597,-0.049423654,-1.7677114,1.8529767,-1.3800089,-2.7755136,1.4996177,-1.7175047,-0.67608625,0.98243475,-0.51438886,0.26972026,1.3718953,-2.0390182,-0.98926735,-0.1153347,0.43519354,0.29798535,0.8273702,-0.3358939,0.38904208,-0.008252123,2.6002696,1.0690311,-1.0435809,-0.7260283,-0.59967244,0.087829016,-1.028905,-0.2650456,1.8978242,0.86876494,0.74993443,-0.072337136,-0.33894432,-0.20639338,0.05611506,0.15476468,0.2862482,0.6426186,0.2953619,0.42350784,-1.4368227,0.079803385,-0.2675458,-0.13150975,0.8558702
funciones,2.3178544,2.1038525,-0.33252537,-0.90695226,0.14466883,-1.704902,2.4908519,-0.8074333,-2.734264,0.9083287,-1.0935719,-0.045743715,-1.8302715,-0.32039794,1.5885882,1.8559655,1.4670298,1.1593565,0.1670118,-0.16978249,1.3653187,-1.0064317,-0.18441202,-0.5682895,0.47138414,-1.7451038,-1.0566902,1.029651,1.0136225,-0.8758271,0.048028495,0.9725705,-1.3572376,-2.0568926,-0.93566966,-0.33975625,0.66265965,-0.4588943,0.23665768,0.80573,-0.5605773,-0.6121983,-0.076579906,-0.6305086,-0.51884425,0.070082605,-0.1210674,0.4842149,-0.89825535,0.47051916
datos,2.3467991,2.252397,-0.28050506,-0.81733334,0.011666107,-1.4720851,1.9246571,-0.7763887,-2.247548,0.70972085,-0.9922934,0.027383812,-0.8902238,-1.5089123,1.2076696,1.2204251,-1.876478,0.19226076,0.11905618,0.71661276,1.3339603,0.064587004,-0.73071116,0.02516976,0.5707252,2.818473,0.246508,-0.9423875,0.11088754,-0.7431884,0.30891734,-0.9344912,-1.5289898,1.0654044,0.35414195,0.05756526,0.36862296,-0.35440677,0.29454467,0.0685214,-0.051470853,-0.3374072,-0.32442805,-0.48089892,-0.422672,0.60830414,0.49607742,-0.1898047,-0.28417787,-0.042679597
altos,2.3458238,2.7621033,0.06273281,-0.1259859,-0.42405924,-0.0044009443,0.44573048,0.56733924,-0.67231923,-0.9319376,-2.5765662,0.07453252,-1.9155425,-2.0424397,-1.0051483,-2.4423609,-1.1775014,1.8736326,0.44892168,0.69306576,0.9133598,-0.6377979,0.21954045,0.020403186,0.47834003,0.46237522,-1.193897,-0.56092167,0.5588525,0.46223128,0.092656925,-0.17913051,0.07707839,0.37537658,0.6684387,-0.3850571,-1.0317128,0.2905926,-0.5962474,0.29558375,-0.58786076,-0.6212654,-0.04477016,-0.20728122,-0.46629515,0.28445682,-0.80927837,0.5869783,1.0312808,-1.2880113
regular,2.3468187,2.7189252,0.32550043,0.4974891,-0.32695544,1.0744938,0.6270793,2.1151354,-0.041338824,-1.903561,-2.7491436,-0.010281814,0.38320082,2.1007304,-1.1451869,-2.522637,2.0192437,-1.4549997,-0.40653113,-0.60476536,-0.09541506,0.1564291,-0.9636419,-0.39657778,-0.23689795,0.6032229,0.96662885,0.4279454,0.026430616,0.9173819,0.20718656,-0.14400236,1.6096792,-0.6503275,-1.0893301,-0.50065297,1.3738859,0.36957645,1.5041592,-1.4784807,0.29617307,0.6277522,-0.025306953,-0.05830874,0.26373088,0.3334232,1.0417212,-0.6945655,-0.69831055,-0.30208406
obteniendo,2.3238113,2.5081542,0.54401016,0.9786144,-0.15948527,1.7148305,0.83461803,2.8730772,0.2651746,-1.7976539,-2.1231954,-0.279292,-1.7173682,-0.89152867,-1.0862626,-1.3700808,0.6918385,2.059102,0.34680986,0.16271013,-1.0854963,0.6465859,1.5618571,0.7089735,-0.6159127,-0.23433656,-0.4089125,-1.0522615,-1.4301996,0.61253905,-0.3079026,-0.20355639,1.4773091,0.4769596,-0.59151995,-1.0324831,-2.1164079,0.07312912,-1.4413898,0.24025154,0.41942388,-0.24572055,-0.11757887,0.3579233,0.2783098,0.30309552,-0.44273943,-0.13298257,1.0853863,0.8642344
administrador,2.227498,1.714026,1.0924888,2.104308,0.3439146,2.7945075,1.3270007,3.7238858,0.56677014,-0.5388782,-0.30008432,-0.8935661,0.803656,1.7583928,-0.8129356,1.2426509,0.3824642,-2.2022333,-0.41480765,-0.16175587,-2.1664333,-1.1520755,-2.4073334,-1.1122091,-0.6675773,1.2935817,0.1572219,0.82470375,1.8525088,-0.4099915,0.5291615,-0.13236867,-0.29148096,-0.46808323,0.33156568,-0.04284135,0.8748398,-0.46304736,0.93714756,-0.5106475,-0.6409827,-0.2818812,-0.2613858,-0.35189104,-0.4706711,0.21545473,-0.41492856,0.46395585,0.6962676,1.1361576
authentication,2.1255572,1.1895635,1.3614244,2.5864346,0.5914214,2.9876628,1.378076,3.3936589,0.4778848,0.6531581,0.6046569,-1.2217066,-1.1492251,0.8128684,-0.7691646,2.0590477,1.69528,0.5501197,0.043920428,0.17105386,-1.9508611,1.6405259,1.6552926,0.8088686,-0.35880557,1.4060445,0.3023204,-1.0825375,-1.7401339,-0.7751675,-0.508804,0.29984936,-1.1693673,-0.36107254,-0.04066148,-0.87966466,-0.8787246,-0.48073655,-0.40882218,-0.3520349,-0.6835802,-0.14662164,-0.07783171,0.25015932,0.31067196,-0.15281597,0.105585575,-0.6365286,-1.6444008,0.025516806
vulnerabilities,1.95961,0.38347864,1.6966288,3.0744987,0.83810043,2.8401506,1.2362564,2.4316163,0.13602218,1.7219987,0.77363026,-1.4279263,-0.05591823,-1.8449215,-1.0611078,1.7590723,-0.680588,1.612761,0.23540065,-0.37581465,-1.6756355,0.7369811,1.2795037,0.79566044,-0.105432704,-1.9463141,0.8100654,-0.17585447,-1.2091129,-0.6968046,-0.09798898,-0.33192903,-1.1864188,0.92780554,-0.88556,1.0427499,1.0109092,-0.27293572,0.50914985,0.20937984,0.3305142,0.48416266,0.08809881,-0.36410266,0.112333976,-0.33753142,0.578037,0.30186343,-0.010572511,-0.12472933
vulnerabilidades,1.799541,-0.09978006,1.8114046,3.2135491,0.9755154,2.559111,1.0514983,1.4978054,-0.09414672,2.6264174,1.1672167,-1.4601856,0.81064755,0.30949676,-0.9434805,1.2401448,-0.8509817,-1.1332418,-0.17913643,-0.20797658,-0.41492695,-2.28344,-2.6638448,-1.2591269,0.31763104,-0.34594613,-0.5514348,0.7331118,1.7604831,-0.4323106,0.5717057,-0.5429341,-0.9669955,0.39689192,-0.33963022,-0.4940139,-1.1585337,0.02815901,-0.7407045,0.16584878,0.43778375,-0.29827508,0.31332886,0.1487554,0.043786258,-0.53480136,-0.58101505,0.1080937,1.5250095,-1.4442099
fallos,1.4042816,-0.6890186,1.6333853,2.748888,0.97406316,1.5660853,0.5424644,-0.16509058,-0.36369425,2.8177407,1.131332,-1.0096594,-0.31811827,-0.978196,-0.42923245,-0.4164906,0.5827108,0.98274523,0.060472228,-0.3486955,1.7551852,2.0169816,1.694303,0.99287397,0.6115182,-0.29464734,1.4945489,-0.026181858,-0.7848363,0.34678438,-0.038361195,0.03331266,0.31946075,-0.07084256,-0.037870347,0.94601715,2.0598853,0.30240732,1.587797,-0.4902277,-0.6872166,0.022131711,0.26735958,-0.5300712,-0.4500962,-0.23337784,-0.10702411,0.5064038,0.40785533,-1.6063555
mecanismos,1.4082032,-0.9374191,1.5527097,2.4343357,1.0642531,1.0833089,0.36871508,-0.79853415,-0.2998894,2.4533556,1.0615993,-0.9839495,0.3664079,0.17510708,-0.19384973,-1.2568063,-0.7533019,-0.062645696,-0.010054967,-0.37344897,2.7977252,-2.2278528,-1.8622502,-0.68675756,0.2619598,-1.0906398,-0.40119615,-0.5034407,-0.82309,0.6521465,0.044891145,-0.8017573,1.1242203,1.3065696,-1.6329557,-0.66613734,-1.4945544,-0.21857345,-0.9277402,0.037551384,-0.0037853052,0.19519052,-0.14503631,-0.023457408,0.58102477,0.18178107,0.5056805,-0.32246268,-1.2602284,-0.48473302
permiten,1.8197095,-1.3349726,1.4312099,1.755417,1.3891022,0.4488984,0.31370816,-1.1402524,0.16378625,1.274055,0.9136084,-1.3676627,-0.0754755,-1.1554538,-0.17565584,-1.4465559,0.7190996,0.07926517,-0.09827476,-0.18040597,2.8280468,2.1702838,1.0354705,0.4616175,-0.7392278,0.44400886,1.3106515,1.179875,1.7944568,0.4413981,0.5011547,0.11276309,1.2737017,-0.63371676,0.7397796,0.5433561,0.78305817,-1.2962986,0.56883484,-0.08172438,0.14322032,-0.36551636,-0.6548031,-0.027255375,-0.26570922,0.40977657,-0.7437812,0.2896683,1.8383082,0.88705975
atacantes,1.9116575,-1.4623587,1.3924968,1.5062766,1.5502102,0.15422456,0.28037888,-1.6568153,0.41373506,-0.19252194,0.44529238,-1.0985521,0.2396955,-0.47325966,-0.3458438,-0.83168143,-0.3527372,0.092854425,-0.12112068,-0.39634794,1.9909369,-1.7122523,-1.5823017,-0.6003498,-1.1480249,-1.1088897,-0.56991845,-1.0693588,-3.2482636,0.11010421,-0.06951594,-1.0517325,0.92788523,0.12936617,-1.0649469,0.5160052,0.3717492,-2.040488,0.6908795,-0.26733732,-0.3489592,-0.431934,-1.0173892,-0.20850104,0.5806054,0.321776,0.020063065,0.12000228,-0.39296266,1.1568611
credenciales,1.8810813,-1.5708575,1.3702691,1.2794262,1.8030518,-0.20470895,0.22718935,-2.9498274,0.71053594,-2.9896333,-0.6415978,-0.015490074,-0.04158276,-0.6914307,-0.7490074,0.70910186,0.50631994,-0.07840732,0.016138606,-0.13293068,0.19377205,1.8457437,0.86060065,0.4012038,-0.97400177,0.45047998,1.4459846,1.6020728,3.6554296,-0.2957588,0.52849746,0.11260509,0.16136143,0.73561496,-0.4116796,-0.64853793,-1.2698793,-2.1104805,-0.9912743,0.124619596,0.20834734,0.22099681,-0.9962358,0.039512035,0.3269997,-0.018439643,0.30276382,-0.28529498,-0.8411522,0.07604341
validas,1.856997,-1.5814517,1.4994735,1.5671592,1.8272411,-0.11306398,0.19743504,-3.405109,0.5903911,-3.5566719,-1.0604479,0.74023354,0.020256246,-0.76619047,-0.74961144,1.302856,0.36587694,-0.7018049,0.9092715,-0.46332082,-0.70479906,0.29654318,-0.9999828,-0.6266041,-0.2556127,0.074786864,-1.1470928,-0.47848365,-2.4197125,-0.29530427,2.0559685,0.18826444,-0.2575164,-1.5235102,0.92873174,0.9839442,0.021610621,-0.9258682,-0.24421123,-0.43619448,0.17448694,0.3432405,-0.3871221,-0.9778155,0.4153295,-0.20146285,-0.2976092,0.12881356,0.53581685,-0.70669895
ataques,1.7713116,-1.5734487,1.8606255,2.4099634,1.8156797,0.22591777,0.14708956,-4.040246,0.23656422,-3.6220949,-1.4106438,1.6544107,-0.06838921,1.195485,-0.6158482,1.5001413,-0.4026886,0.28172722,-1.1201897,0.98259735,-1.0619524,-1.5745846,0.3000098,0.013823432,0.5379464,0.34586528,-1.0362223,-0.9771811,-1.5070226,-0.10399995,-2.4726262,-0.021726428,-0.29210994,-0.75355977,0.90252864,0.0115521345,1.2574837,-0.05367568,1.1269181,0.5598459,0.14234173,-0.9079545,-0.07341301,1.3079716,-0.6347565,-0.12109027,-0.36250776,-0.053871028,0.822352,-0.50468117
fuerza,1.787794,-1.5150385,2.00139,2.8400848,1.6611358,0.55480415,0.15403336,-3.5528936,-0.071953766,-2.297003,-1.078005,1.6211032,0.15964456,-0.37829813,-0.3478142,1.0666999,-0.18768872,0.8159082,-1.1451259,-0.028356202,-0.80420053,-0.086815104,0.3529665,0.45261607,1.0239604,-0.73604625,1.9771193,0.87825525,2.1471658,0.111404754,-1.3639483,-1.1111404,-0.238399,1.8196911,-1.9720163,-0.534445,-0.33371964,0.9710799,0.3019732,-0.004267947,-0.33436516,-0.47943127,0.41255337,0.14494492,0.5540928,-0.094642095,0.17955333,0.029286098,-0.6515843,-0.47005302
bruta,1.8124738,-1.5833098,2.0366855,3.0749395,1.2191169,0.52453643,-0.10116202,-2.878051,-0.5092199,-0.9774802,-0.939612,1.9535426,0.018601375,-0.87809676,0.45336798,0.21752992,0.19141981,-0.6441874,2.6242383,-1.4524161,-0.9261788,1.1711835,-0.82564646,-0.25520098,1.2941407,-0.47832775,-0.22196446,-0.10992167,-0.5374499,0.28609136,3.3474984,0.8490568,-0.1866596,0.2855932,-0.05831453,0.18005319,-0.36238846,1.9824883,-0.78005725,-0.50661826,-0.25216112,1.1759304,0.87187463,-0.96903634,-0.47114047,0.16012785,0.2741007,0.19286753,-0.0198861,0.55642027
rota,1.9839216,-1.9209366,1.6658081,2.6558466,-0.19974,-0.24536423,-0.8861992,-0.59463984,-1.1772697,1.340547,-0.557133,1.9365977,0.20283744,-0.13133547,1.8638662,-1.4121541,-0.07965116,0.9917014,-3.412424,1.122811,-1.0842304,-1.0233618,0.22594035,0.098538436,0.5612534,-0.18097685,1.0129466,0.44655126,-0.03546281,0.20451286,-1.9366764,-1.350883,-0.11345816,-0.37566608,-0.36628896,0.5241874,0.037270803,1.6453735,0.3190725,-0.20054957,0.13905644,-0.29994336,0.69117093,-0.5907895,0.7230578,0.37819484,-0.3227259,0.0929788,0.4171716,1.4268047
cookies,1.9923247,-2.04996,1.1638167,2.4695716,-1.0809679,-0.7599295,-1.3347347,0.45014766,-1.7492342,1.5748978,-0.17802158,1.6779505,0.41970387,-1.2348939,2.0383716,-1.8040038,0.19391514,0.4435067,1.807861,-2.36868,-1.1079229,-0.03969917,-1.3928365,0.12568523,-0.04988249,-0.8187686,1.7083418,-0.57696855,-0.32444635,0.026672347,0.79208875,0.45773193,-0.1457569,0.6109205,0.22940084,-1.0218992,0.33135256,0.63255507,0.22665447,-0.033771496,-0.5646728,-0.24821436,-0.41737926,1.2211328,-1.3613008,-0.11153188,-0.39739612,-0.52482945,-0.026386138,1.1566797
ssrf,1.8556896,-2.2248888,-0.3290154,2.2114475,-2.8219607,-1.7246256,-2.0057752,1.4731016,-2.8214028,-0.10772105,0.43916118,1.0227377,-0.26213342,0.5236672,1.0226091,-1.0353118,-0.13007511,-0.008358229,-3.3609836,2.4364405,-0.99987775,0.13911448,0.8581089,-0.28301227,-0.55357426,0.15462637,-0.9050132,0.84819776,-0.28079906,-0.22274983,1.0350474,-0.5710684,-0.27658924,-0.45259157,-0.46142364,1.1749107,-0.52302885,-0.5923381,-0.7319462,-0.5848513,0.05115091,1.1558312,-1.7305347,-1.5985451,0.15448894,-0.9541083,0.29393697,0.32820696,0.063422695,-0.0050288583
server,1.7359366,-2.1585705,-1.1901109,2.2120328,-3.3946671,-1.7814261,-1.9179394,1.538794,-2.9715657,-1.1047218,0.86204785,0.15298831,0.9552071,-1.1766888,-0.1511224,-0.12579837,0.7362947,1.3440588,-0.97996986,-1.9932634,-0.27964157,-0.9587111,-0.96316516,-0.17097072,-0.41058558,0.5239492,1.8112568,-0.58488196,-0.2824727,-0.17468083,-0.21950538,1.7896607,-0.15629189,-0.14773016,1.7243869,-1.4063543,-0.03531413,-0.744635,-0.03930567,0.43061307,-0.054379433,-0.25570035,-1.3330141,0.70148194,0.32102102,-0.82066596,1.1640406,0.8346149,0.05971757,-0.5789238
side,1.5111341,-1.9126229,-2.145609,2.520547,-3.694449,-1.4477683,-1.5610193,1.2066041,-3.076633,-1.871274,1.3935846,-0.709689,-0.20650113,0.1192136,-1.1731288,0.49462643,-0.18154058,-0.52623963,3.5385184,-1.2428362,0.52704835,0.03249663,-0.34667572,0.6398812,-0.055609956,-0.14675264,0.2547896,-0.4374743,0.6183333,-0.013896636,-2.3340979,-1.3647159,-0.010534385,-0.6219392,-0.08963499,0.21975829,0.13859193,-0.22926967,0.2955827,0.016577404,0.34182292,-0.5352832,-0.9139422,0.13093534,-0.08277287,-0.67645025,-1.511656,-1.232017,-0.223732,-0.26084164
request,1.3764486,-1.7201871,-2.89421,2.472286,-3.7072477,-1.0082037,-0.96175843,0.72373265,-2.3562725,-2.1253269,1.3599559,-1.4520544,-1.1561503,0.9249351,-1.7903721,1.1039399,-0.8242422,-1.1251075,-0.9220467,2.5651672,1.1324775,1.1121507,0.5015445,0.010901202,0.38243097,-1.1852901,-0.9597011,0.7645411,-0.32296,0.1642084,1.8552406,-1.3959134,0.18918772,0.38281676,-1.2497585,0.63906246,0.06494123,0.24537979,-0.13392058,-0.51011044,-0.5191886,0.30023038,0.51583153,0.4220437,-1.4112862,0.19207886,-0.6285408,-0.6357651,-0.025690243,-0.036149245
forgery,1.292385,-1.4944093,-3.5525203,2.2678785,-3.3234377,-0.36616442,-0.18205212,0.0828266,-1.2115028,-1.7359202,1.013515,-1.5679712,0.9368948,-0.5425548,-1.7347636,1.1439892,0.61290944,0.92601097,-2.332542,-0.38122502,1.2594547,-0.3591465,0.3107791,-0.85234314,0.46920708,0.7991067,-0.451598,-0.1808617,-0.281253,0.20735753,1.641311,2.6136124,0.22489683,1.304792,0.13708718,-0.7687846,0.2791048,0.73800474,0.4557152,0.63999516,0.033266194,-0.4570961,1.3161077,0.29859373,1.0433937,0.7200724,1.0837939,0.9748507,0.16830319,0.33878958
falsificacion,1.163017,-1.2679852,-3.8568974,1.9877301,-2.8806534,0.19670896,0.5388614,-0.5378792,0.09067539,-1.0506014,0.31685862,-1.6488448,0.9671929,-0.49977767,-0.9908547,0.9128164,0.62522733,0.6862445,1.7531956,-1.804951,0.88339853,-0.9936697,-0.0241593,0.36136344,0.77080345,1.1852866,0.28791445,-0.27701184,0.55517834,0.2868482,-2.5151446,-0.54657215,0.2794983,-1.2043711,0.3236433,0.90510184,-0.4827976,0.6143343,-0.50835526,-0.33779007,0.4222526,0.831196,1.6259723,-1.6996837,0.5532481,1.0219866,0.059335668,0.19758974,0.026226591,0.4619897
atacante,0.7418295,-0.67202187,-3.2468767,1.0502561,-1.4184887,1.0099878,1.5021198,-1.3745497,2.2815073,0.83096933,-1.2646356,-0.91702205,1.5226262,-0.51281834,1.5611532,-0.4017075,0.94715804,1.0904424,0.3214796,-0.9894379,-0.86769813,-1.2516835,0.8601187,-0.0068070786,0.92648536,1.889328,-0.92153597,0.41120467,0.25746188,0.22742343,-0.25136754,0.3615751,0.13285255,-0.05085599,-1.2836512,1.7233137,-0.23142211,-0.8312585,-0.26104617,-0.26576898,-0.44441596,0.65329534,-0.5672241,-0.36196867,-0.22330819,-0.13254446,-0.0068109063,-0.53322154,0.31185004,-0.09763435
engana,0.69131976,-0.6307516,-3.1975112,0.99590725,-1.3301961,1.0887598,1.5706848,-1.4621584,2.4963853,1.0555222,-1.483207,-0.8430244,-1.4261316,0.39414555,1.9028804,-0.5731806,-0.85769534,-1.0038728,0.13373789,0.3658056,-1.1272763,1.0897249,-0.99219733,0.0698708,0.93119746,-1.6431856,1.115807,-0.6532315,-0.007850866,0.20224284,-1.0123684,-0.71058583,0.1135159,-0.6742197,1.6416577,-1.238677,-0.19719455,-1.0965663,-0.2735442,-0.10660252,0.70639354,0.37499416,-1.0722795,-1.3087451,0.6240566,-0.5630092,0.8798115,1.5219508,-0.14247203,-0.29959032
haga,1.0438404,-0.8306522,-4.0598416,1.012548,-1.2297295,1.3692367,1.6840693,-1.4951998,2.524849,1.1739006,-1.1928201,0.0021318558,2.0629323,-0.46469665,1.144998,-0.5459934,1.1684177,1.394161,0.8524593,-0.22102633,-0.69211626,-1.8716407,1.1619266,0.6348488,-0.13397902,2.0603235,-0.6889953,1.2965333,-0.08388489,-0.123268865,0.6066849,-0.5167595,-0.11070598,-0.37115762,-1.1936904,1.4054968,-0.17099634,-0.16674088,-0.33975226,-0.18354657,-0.7884977,0.14668848,-0.6399599,1.0733063,-0.67010224,-0.59876645,0.47362253,0.031573497,0.108612366,-0.21938248
http,1.4837786,-0.8465021,-4.0026774,0.1989065,0.21928504,1.4894574,1.0031847,-0.7608472,1.3418823,1.1146474,-0.124125324,2.1134636,-1.3073038,-0.09140698,-0.5966605,-0.38426256,-0.5351845,-0.72422415,-1.4548674,-1.5299785,0.19385323,1.4624264,-0.615261,-1.4649775,-1.9103061,-0.48643446,-0.5906314,-1.8096339,0.61026317,-0.59399575,-1.2584568,1.8750635,-0.3956753,0.90518737,-0.21020067,0.28657153,0.0591197,0.8753465,0.3389644,0.009890406,0.54027575,0.41861022,-0.14930402,-1.7070161,0.5985953,-0.5916564,-0.94890153,-0.98048085,0.18722557,-0.13261528
internos,1.6620532,-0.87448764,-3.6710622,-0.90241677,2.3237545,1.949388,-0.78497815,0.1872101,-0.5039431,1.1716228,0.1825348,3.398013,-0.20192118,0.53448594,-1.5829391,0.13764492,0.08303621,0.5803036,1.5274006,2.0995178,0.5117707,-1.8992468,-0.051338438,1.8883994,-1.742508,0.4521431,1.912922,1.8439786,-0.83719116,-0.46415988,1.3488597,-0.10030971,-0.023269128,-0.5857394,0.3707876,-0.16264687,-0.008788542,0.21237649,0.004404981,0.50364727,-0.44449174,-0.37809345,0.057923503,0.791534,0.8540742,-0.92213386,0.6020673,-0.08470656,0.29040423,-0.13076103
externos,1.6837348,-0.9388433,-3.4403212,-1.3034012,3.1213932,2.0862718,-1.7661151,0.57109,-1.3548235,0.94620806,0.02214403,2.7765315,-2.2134736,0.4289242,-1.33931,0.44981533,-1.267467,-0.9737581,-1.1178666,-2.2298079,0.3640243,0.2552966,0.027027605,-0.16208929,-0.52176934,0.06829783,0.16614911,-0.25818944,0.09864014,-0.06917664,-0.5965691,1.3662103,0.31281567,-0.029743688,-0.6248602,2.0649762,-1.0290875,-0.4868298,0.0260725,-1.2232507,0.83023214,-0.50741947,0.17967597,0.5001503,-0.67405677,-0.5290463,0.042612825,0.3143453,-0.10707605,-0.014070981
autorizados,1.5805587,-1.0668408,-3.3492231,-1.5248337,3.6648004,2.3182445,-2.7499564,0.7516754,-1.9259316,0.7796532,-0.49759316,1.5841979,1.0912299,-1.001295,-0.7026849,0.6751102,0.7567073,-0.18010157,-0.81173116,-0.74532974,0.048128273,1.9851539,-0.21640213,-1.9251169,0.74688697,-0.38482887,-2.0020728,-1.5653211,0.7834687,0.26617542,-1.0444909,-1.6905268,0.5565044,-0.06344266,-0.17609593,-0.87087107,0.7428859,-0.85760397,-0.53791815,0.69920623,-1.4867796,1.0022196,0.21254481,0.4494666,-0.48849067,-0.44099364,0.7281473,0.0027837986,0.21959126,-0.0010786288
usarse,1.5952842,-1.1665165,-2.9152813,-1.6598884,3.8770437,2.0877752,-3.1630101,0.83787036,-2.097826,0.2780536,-0.70744324,-0.123089604,1.2966622,0.042679746,0.19806379,0.6138248,1.051926,1.0782697,1.5780154,3.2920666,-0.26573372,-0.7981427,-0.69677275,0.6357014,1.7804886,-0.105500646,1.1251278,0.158211,-0.2208634,0.5361389,0.39016765,0.72355133,0.54008776,0.4891797,0.46356395,-1.146833,0.61645204,-0.90220284,0.32768473,0.819952,-0.009138689,0.46885931,0.1365195,-1.6057819,1.0572705,0.30270442,-0.8002813,-1.0678986,0.26188013,0.10992259
escanear,1.6070055,-1.2582674,-2.4077687,-1.6779454,3.81881,1.6913556,-3.2130604,0.7826036,-1.9031096,-0.2819672,-0.8093164,-1.9345311,-1.3851008,1.2670717,1.1346934,0.282102,-1.5134842,-0.29582098,-0.24514289,-1.5862912,-0.50847954,-1.6259048,1.1625743,1.535344,1.995048,0.3517985,0.7644,1.286622,-0.51986516,0.4926091,0.78717107,1.0284771,0.16334008,0.23721518,0.08577046,0.6757525,-0.7272589,-0.14597398,0.45978552,-1.1275419,1.7509897,-0.97497416,-0.08769804,-0.29152542,-0.60217476,0.58611184,-0.7659799,0.8348663,-0.70604306,0.033746146
redes,1.737785,-1.3701336,-1.6260544,-1.5284735,3.297047,0.9420077,-2.538925,0.5461802,-1.1988308,-0.68999183,-0.5806594,-2.7460768,-0.46785447,-0.7915934,1.3553271,-0.05829997,-0.26390472,-0.8792308,-1.2125195,-2.3973734,-0.4645431,1.0210166,0.44831452,-0.735101,1.3824943,0.1749336,-1.1587557,0.23057583,0.054772,0.30826545,0.13307972,-1.9958447,-0.06897816,-0.999223,-0.06207652,0.014925733,0.06027522,0.098995306,-0.44621086,0.44700724,-1.0813648,-0.17085855,-0.1205519,1.5055807,0.39010718,0.76994294,1.0080973,0.14984117,0.28246155,0.09995272
internas,1.7440158,-1.3950824,-1.0486006,-1.3871058,2.8543475,0.35352376,-1.9786423,0.34092447,-0.5676769,-1.1322284,-0.34835407,-3.7423813,1.2580839,-1.1263249,1.7160007,-0.610786,1.7474015,0.6199946,0.97244215,3.2037544,-0.3910721,1.123793,-1.9069546,-1.0837528,0.12693195,-0.3855327,0.5204722,-1.3144978,0.3641883,-0.19372487,-0.9330037,1.1267827,-0.73616534,0.15878144,-0.3692037,0.89220047,-0.29509324,1.4356848,-0.042696603,-0.30971083,0.07160504,0.053575963,-0.34669244,0.043543585,-0.17596693,0.115767896,0.033500582,-0.10248152,0.07471882,-0.17240214
servicios,1.4936291,-1.1845444,-0.17801905,-0.92203385,1.6951998,-0.4446807,-0.7194842,-0.015551433,0.41636187,-1.2512414,0.12612747,-3.4038465,-0.860545,0.42942405,1.2616557,-1.0579152,-1.2039875,-0.60634595,-0.85094213,-2.704442,-0.034135778,-0.83154315,1.609011,0.91131306,-1.8499942,0.4136845,-0.48121104,1.4727302,-0.45493814,-0.8262104,1.1873235,-1.5863391,-1.2093164,-0.34626812,0.61623865,-1.5707308,0.74397475,2.290915,0.10795938,1.0783875,-0.46449783,0.3502999,-0.36196303,-1.007636,1.1263568,-1.0882733,-0.49689898,-0.92942816,0.2761769,-0.4186839
protegidos,1.249374,-0.9742711,0.06651951,-0.6587096,1.1250908,-0.5787766,-0.23959255,-0.11182152,0.6121607,-0.990342,0.24381863,-2.445926,0.5495135,-1.2647594,0.7387543,-0.89773357,1.1910353,0.037174933,0.31900752,1.5627966,0.10427255,1.0831069,-1.398953,-0.8711063,-1.9754449,-0.12055999,0.39852703,-0.5662222,0.10733409,-0.7804053,-0.45886025,0.610979,-0.95709676,-0.44731718,-0.41474468,1.6357348,-0.91759074,1.7207357,-0.03025228,-0.91968054,0.689862,-1.0406516,-0.20667297,1.1619238,-0.26463515,-1.1393802,0.22179596,0.81554043,-0.34437227,-0.3254083
