palabra,dim_0,dim_1,dim_2,dim_3,dim_4,dim_5,dim_6,dim_7,dim_8,dim_9,dim_10,dim_11,dim_12,dim_13,dim_14,dim_15,dim_16,dim_17,dim_18,dim_19,dim_20,dim_21,dim_22,dim_23,dim_24,dim_25,dim_26,dim_27,dim_28,dim_29,dim_30,dim_31,dim_32,dim_33,dim_34,dim_35,dim_36,dim_37,dim_38,dim_39,dim_40,dim_41,dim_42,dim_43,dim_44,dim_45,dim_46,dim_47,dim_48,dim_49
palabras,8.250697,-3.9308646,1.9503293,1.3190807,-5.943437,1.9752767,-0.31558236,1.0883983,-1.1142285,1.647873,-0.63127655,2.9350812,-2.8815398,1.1664512,-2.4048574,2.6298728,-0.8745323,0.69509524,-2.106107,1.1644534,-1.6144805,1.4399709,-0.8231224,1.4855616,0.08417008,0.65067744,-0.7879961,-2.5557837,0.7323395,-0.9964388,-1.4554671,2.1390045,-1.2820119,-2.0421097,-0.40991473,-1.2847418,1.7328879,-1.6140418,1.989221,-0.036328528,1.3929816,-0.2211907,2.4430423,-0.22646059,2.2444015,-0.4230694,0.23092355,-1.0716268,-2.6620157,-1.0343117
texto,9.063914,4.407506,-0.8323064,-2.184875,2.4708736,3.6109443,1.3642453,-0.8245527,-3.7239418,-3.9806228,1.2718378,1.565921,3.1488295,1.7771684,2.1419036,-2.9440558,4.8216586,-0.18596138,-2.5309632,2.283086,6.043291,2.9266372,0.6258103,2.5000305,-1.6635469,-1.2553544,1.0044969,-3.9602227,-2.1672673,1.2559824,2.1143703,-0.92715,1.2835293,-1.5740097,0.7341157,1.5874548,0.8744695,1.2025249,0.8165269,1.1822333,-0.47949675,0.49140382,-0.20320463,0.17745501,0.8888533,0.33630258,-0.1391569,0.67416507,-7.9569674,0.06306521
sistema,8.220099,1.7962188,-0.4835318,-0.048545044,1.101046,-0.8669918,-2.431184,2.647437,0.9936496,-1.9235468,-0.2017579,-3.0844767,-3.4244845,0.5359898,1.6748097,-1.0150553,0.9222076,-1.5599473,-3.8142452,5.0328126,-4.5501337,4.811052,-0.5889442,1.5013404,-4.9765177,0.23249303,1.5552678,2.072339,2.9448082,-1.6219795,-0.18615331,0.933989,2.006599,0.2301487,2.1617937,-1.3617656,-0.010713495,-1.2980964,-2.8324738,-0.7223246,-1.1753032,-1.8005737,-0.3733013,-0.15055156,-2.2729914,-1.3598694,0.53461456,-0.8142949,-6.34485,1.1624371
informacion,7.618889,3.300623,-9.054352,-1.0370673,-0.45411995,-2.0904214,1.977059,-3.3997211,1.748219,-1.0646594,1.0184537,2.012406,-3.2011113,-0.051220097,1.630002,-2.3775961,0.27677524,5.705368,4.3753223,3.223811,-2.6991484,-2.1978688,0.5970036,-3.0854824,-2.7611103,2.9907875,0.37857026,0.60655415,2.8985124,1.4475795,0.34313053,-2.278894,0.37309116,0.3585979,3.525847,0.6841692,-0.90059185,-0.19299918,2.7513063,-1.2887397,0.9229258,0.87559855,-0.7897738,-1.2885306,1.9066923,0.6897683,-1.2301292,-0.53461385,-6.9279294,-0.16813813
documento,7.7731333,-0.25899622,3.1423962,1.8442444,3.5594287,5.0685463,0.097337686,0.8968384,-0.9163877,1.3947289,1.663008,-1.4151206,-1.5470544,2.768078,0.18634033,1.6132888,-1.4385037,-2.3426511,4.041186,5.1579456,1.0481974,-1.5547282,-4.194484,-3.4821332,2.8673122,4.9347906,-2.010383,-0.057822954,-0.33251795,-2.4768665,0.7259936,1.1304697,0.79700834,-0.05302403,-0.9967891,-2.214423,-1.0628684,1.0133241,-1.5621846,0.98851216,2.5783048,1.936406,0.6212137,1.1590369,-1.4736124,0.7798875,-1.2268889,2.015677,-3.990528,0.78555405
relaciones,6.739453,-1.93426,-1.9204246,2.6501808,-0.10189159,-5.921775,-5.158728,-2.7047098,-3.5841715,0.775093,3.1784172,1.1552031,0.13671899,4.698187,-1.5235944,-1.304679,0.3734758,-2.3316655,3.2130153,-2.5780663,4.084612,-2.0810423,-0.87162364,3.7666304,-0.084721774,-0.5963963,-2.212333,-0.15244451,3.7539937,1.3094155,-3.8255596,1.1797558,1.2614405,0.84456027,1.2882713,1.3184595,1.0618035,-0.9183536,-1.583438,0.80561185,0.6505132,0.00027630842,1.4639232,0.1402858,0.32694072,-0.12856804,0.292235,0.053396117,-4.0486217,0.7588513
busqueda,5.8920126,-2.6876056,1.7538296,-3.8413396,0.76476204,-3.10676,0.9882581,3.273822,0.30366597,-1.7749288,1.120181,-1.3292572,-1.9771692,0.4175297,3.166073,-0.607109,-4.5107946,1.5567081,0.6167768,0.17810829,0.4660268,1.7375578,1.5351671,2.0251102,1.5459388,-0.05564353,0.25313824,0.44798446,-1.2234643,-3.8724878,-1.1179883,1.0522268,0.0062815067,0.62427336,-1.2421237,2.1843781,-1.3471959,1.6084485,-0.77483964,1.8633068,-2.0256324,-1.9338604,0.47920015,-0.6788096,-0.52380025,-0.65478945,-1.2168638,-1.2271839,-0.002879436,-1.1495174
vocabulario,6.4958587,-3.7592795,0.30512232,2.4980066,6.9764433,3.8085678,2.085378,1.5729221,1.195269,0.99489415,-4.190273,-2.1808348,0.79277414,0.063214466,-0.56454843,-0.9208718,-2.8834445,1.1182361,-0.62604773,-1.7671751,2.8245974,-0.34109795,0.8961218,-0.84913,-1.8161901,-2.1284657,-0.7234312,2.8477476,0.16076452,0.23531803,-0.804055,-0.76651984,0.3523993,-1.0964323,1.8234212,1.5268557,0.42925125,-1.4963309,1.2678491,-2.5630465,-0.7571526,0.5254967,2.1229682,-0.88122046,0.8349579,-0.39059496,1.2262349,-0.3359503,-0.709046,-0.28508738
embeddings,6.316044,-5.8063855,-1.9921359,0.7238167,0.85470164,-5.081338,0.87704897,8.158438,-0.085040025,-3.335903,-1.548621,0.8104598,3.504098,-0.70700544,2.9558,3.051982,1.6589178,1.3513258,-0.40073112,-2.2087467,-3.1230242,-0.76248366,1.148262,2.7814503,1.2124912,1.06161,-0.87855834,-0.64145243,-2.271967,-0.45537433,0.54658073,1.888364,1.0822484,-0.40847483,2.0053802,0.058455702,0.6603172,-1.2779682,0.23985219,-0.15147372,-0.13811585,-1.1306973,-0.7596547,-1.1718475,-1.3974057,0.7252339,-1.4514003,1.4451975,-0.55582976,-1.5758922
terminos,6.9383197,0.33604005,3.1817265,1.967814,0.44519392,0.45493332,-1.0567453,-0.19973479,0.059287384,2.808597,6.347922,-3.6861362,1.1748134,-0.8742014,-1.6321542,-2.08775,0.6777712,1.6980383,0.29303527,-0.5702457,-3.34462,-0.1726842,-3.1858702,0.34717155,0.4305781,-4.765621,-0.59739286,0.44528812,-1.7591672,-0.88137376,-0.09817236,-0.25121152,1.0692325,0.665595,1.0655714,0.6988327,1.3461893,-1.3122737,-0.81182,0.71095043,-0.1480682,-1.6269608,-1.2356577,0.26413405,1.7030623,-1.0482692,-0.07912564,-2.7652957,-1.831343,-1.9820697
datos,6.5186462,1.882113,-1.7150167,-3.412554,-1.5738065,0.14516295,-3.158665,2.3139868,0.49963585,2.9280503,5.224099,-0.5502825,2.3251524,-4.1022863,-4.371862,2.093794,3.3795836,2.6001046,-2.8628855,-3.4010775,2.0920079,-4.9832234,2.4152088,-1.218512,1.9169273,1.9800546,-1.072753,0.6517631,2.0817885,0.683062,0.6462362,0.27366543,-0.6998763,-0.055464238,-1.5891111,0.621918,0.70411664,-0.21779843,0.17086366,-2.1808555,-0.6486064,-0.34847838,-0.5090458,0.76710427,-2.212323,-2.943601,0.15018895,0.43143913,-2.985134,1.9216624
resultados,7.351145,0.7671438,5.2113853,-5.886119,2.9013357,-0.9179769,1.4595301,-3.5655057,2.724659,1.8438227,-2.5200527,0.5860715,2.3555992,1.1086881,3.0067184,1.6339085,-0.9245134,0.67222536,5.7392645,-0.46128598,0.107038096,3.4964433,4.1784873,-3.4696898,0.93356097,1.6136518,-1.0976067,0.99566776,-0.8943822,2.2003632,-0.9927357,-0.46956223,2.130439,1.271082,-0.06056756,2.3667676,1.1638937,0.01886429,0.37194827,-0.51590663,-1.336274,0.79947805,2.5506663,2.4057326,-0.49385333,-0.8888897,-0.6107909,-1.688141,-1.4678906,0.3801668
permite,6.3965926,-0.040835675,0.9624464,-1.3170273,-1.564216,1.0247717,2.3521652,1.8270558,-2.3955345,-3.7179346,2.944179,2.908528,-2.540067,2.12992,1.1284878,6.3466215,-1.0509508,-1.6249881,0.9914652,-0.31571367,0.6570001,0.35776535,-1.3023181,-3.8301127,-0.5976199,-0.936719,2.6051385,-0.3754682,-0.20692804,0.56377816,0.56115204,-2.3555734,-1.4154338,-3.0141952,-0.75634503,0.7344658,-1.5095816,-0.9924698,-0.7899117,0.24180278,0.87240636,-1.7122902,1.1528428,-0.9515171,1.8569037,-0.18126406,1.5957451,0.95777434,-1.0391026,-0.9984593
tokens,6.195475,-1.6647611,0.46938384,4.749187,6.0895734,5.6339903,1.4327399,2.3816824,0.60311556,2.4972417,-4.2485642,-1.0063226,-0.9051669,-0.15054213,-0.6442745,0.061800413,-0.8084943,1.493531,-1.53949,1.497397,5.0991,-3.017744,0.03764705,-0.20493221,-1.905048,2.234306,-0.49559966,0.6477914,1.6455998,0.5621073,0.60482603,2.6203141,-0.5933168,1.9970049,-1.5151852,-0.26034185,0.49879882,-0.94821274,1.2993773,-0.39046338,1.7433032,-1.5989714,-1.9575286,1.5769504,-0.15040638,-0.31036797,-0.53740185,-0.31899333,-1.9542985,1.322123
palabra,6.80706,-5.0882545,-1.1638706,2.6244817,1.9196134,1.6197654,1.4527745,-2.7918248,-0.45927852,2.9352856,1.1038024,-5.0000725,0.1886943,-4.3269844,-1.5381792,-0.4884592,-1.125995,2.195326,-2.1943219,-1.2772717,-0.060751263,1.1995515,-0.7230036,-2.3629315,1.969691,-1.0284486,1.420559,-1.3116715,-0.46802753,2.92467,2.1353612,-3.4516075,-1.996348,-0.2601648,-0.955418,-0.21667433,-2.7796853,1.7545134,-1.9301285,0.45685914,0.2819926,2.2859392,1.5004826,-1.5149534,-2.2708435,0.5751727,-0.052798767,-1.028071,-2.2317162,-0.83491015
modelo,6.2855663,-1.0565376,1.0793294,-1.0724388,0.13703126,-1.5836923,-1.1681751,-1.6334531,-0.4627478,3.182324,6.3171988,-0.25242817,0.3748454,1.1632255,-1.7371764,-0.89071614,3.2817676,3.662909,0.5994364,0.96875924,-0.6862036,-2.0526378,-1.0036684,1.7050318,-2.321508,0.53461635,-0.32796392,3.5326383,-0.4117015,0.63753307,-1.3740338,-0.2613774,0.63212866,-0.6532411,-2.4292803,1.9310347,-0.15848263,1.3329499,-0.07768273,1.931129,0.12853414,-0.19062094,1.4873338,-1.3697798,0.4543467,0.21277246,0.41704455,1.8301953,-0.90672356,0.98663515
mineria,5.5182896,4.9910703,-1.3771794,-2.3795316,-0.8093157,2.1537354,-0.7691,1.3388714,-1.0146005,-5.287961,2.2903895,1.2006108,-0.29885548,-1.25296,5.4381795,-1.7550647,0.33260182,-1.580353,-5.1535835,-0.8695109,2.121067,-0.94989806,-1.5010581,-1.6057632,0.17146704,-1.8568949,2.0643172,0.3855165,-0.008604121,-0.82150155,1.3508214,-0.27622563,2.7286224,-0.3090097,1.496874,-0.8827542,-0.46865946,1.0103102,2.3666255,1.9031918,0.22541629,0.59020054,2.4530516,0.07029731,-1.1086727,1.1189963,-2.1470253,-0.1244943,-4.5089583,-0.19210285
semantica,5.2101226,-2.2930875,1.3252251,-3.676497,-0.3689591,-3.2375338,1.0826513,2.616743,-0.026191182,-1.8416888,1.345822,-1.4385589,-1.8945423,-0.4734062,2.5194073,-0.080512315,-4.3221235,0.94125193,0.40214983,-0.5493754,0.86908823,1.885764,1.2123481,1.7591846,1.271002,-0.26086083,0.7418883,-0.75560915,-1.4356478,-4.012885,-0.76582235,1.2411258,0.56690013,1.2485404,-0.66661566,2.240766,-2.2965415,1.8002756,0.1841282,0.81604904,-1.0269221,-1.786531,0.32357752,-0.57382536,0.22666752,-1.6722867,-1.1396762,-1.0746487,0.9737405,-0.3144138
contexto,5.8677745,-4.560678,-1.0814894,3.0533164,2.8550472,-1.8976222,1.0370303,3.033867,-1.2766461,-0.28417742,0.12760015,1.1380516,0.2439572,0.5038378,0.785241,3.2545347,-1.0565358,2.1429613,0.33581695,-3.070477,0.0525502,1.2961284,2.1859548,2.6754704,-1.993418,0.9675933,0.44405094,3.4953012,-0.04502792,0.7408688,0.36021852,0.54279196,1.405879,-0.73312813,0.77878743,-4.418456,2.1677296,0.48282093,1.4990312,-1.5230542,0.6938387,3.3223875,-1.3470548,2.5658731,0.8749844,1.0867145,-1.729027,-0.30245343,-2.6053417,-1.0817946
vectores,5.86642,-4.8734574,1.032475,-0.82531273,-5.130385,0.3711437,1.2254951,2.1356626,7.4999075,-2.736492,-2.9037845,-0.30585977,0.009503625,3.1834462,-3.066603,-2.1083407,0.98714256,-1.1049874,1.031728,0.9711302,1.5894637,-1.9061229,-1.3443247,-2.179355,-1.2930481,-1.4041526,0.53614926,2.4194953,-1.4594551,0.74214756,0.840585,-1.2222899,-1.9637747,-0.4335781,-0.34427917,-0.33649528,-0.27534798,0.30903274,1.1309665,1.3726839,0.072574176,-0.023371749,0.60009414,2.1054575,2.6967692,-0.9024824,1.485905,0.36393067,0.08171101,-0.9235085
parejas,5.4641647,-4.415929,-1.6059523,4.7737737,6.041228,1.1481526,1.2278546,3.3816113,-0.19989762,0.19150598,-1.9436142,-0.07144535,1.141761,0.58618695,0.70298964,-1.3388598,-1.4735019,2.2262394,-0.9438468,-4.6086736,-0.634476,0.8994985,2.9591854,1.8287959,-0.16637518,-1.0898104,0.3944324,2.0978546,0.672813,0.13549569,-1.5534611,-1.8272345,1.3577336,1.0204613,-0.038314704,-2.352938,-0.38226935,-1.5322647,0.2546985,1.191206,0.06294431,1.9903063,1.1284665,-1.0889819,2.608758,-1.2812415,-1.2065028,2.1485674,-1.5078168,-0.1480627
documentos,5.3960686,5.182591,-3.5489788,-2.0253196,-2.9143856,-0.02771981,5.3200235,3.4737353,-1.3157917,-0.8541154,0.70081335,-0.22776933,-3.7705214,-2.8635392,-0.46409884,-1.4059122,-0.99983245,-2.239915,-1.0921551,-2.0500531,-0.74098843,0.48967284,-0.6817739,-0.64579195,1.5393311,0.9625681,0.24186328,2.8438,2.1475427,4.5751405,0.39800173,2.6868317,2.8778613,-1.9572593,0.34195298,2.2005405,-1.2770748,1.1532011,-0.2462623,0.55756056,-0.93225175,-0.26259688,1.1005219,1.0492407,0.105747186,0.40368438,0.4090552,2.0949235,-1.4334362,-1.4920644
inteligencia,3.9115179,0.39949608,-1.9308348,-1.0649196,-1.1696134,2.9327548,-1.2461588,1.367829,-1.5466533,2.5135534,-1.7445219,-1.4733783,-6.5783267,-2.9459822,-2.9014103,2.882296,2.7502408,-0.48593372,-1.9388535,-0.26990777,1.7838511,-1.4592971,3.011731,-1.8940867,1.8774254,0.48275077,-3.9371839,-1.105373,-2.176445,1.4798548,-0.70093024,1.7125084,-0.34636062,3.1686037,0.6432494,-2.073263,0.8678661,1.9455382,1.825632,2.9738443,-1.5577967,-1.9792771,0.14820974,-0.46691066,0.10788618,0.3530924,-0.84266675,-2.3374908,-0.071612254,1.5104498
representar,4.969091,-0.5586232,-0.87323964,-1.7493922,-4.0529437,2.8439674,1.4273558,-1.5191,0.6145319,-2.0185013,-2.9031782,1.8607115,-3.7525194,-0.8720593,-0.28844583,-0.8678317,-1.176139,-1.9016124,-2.3984864,-1.2429904,-0.5884859,-2.2814379,-1.2031406,-0.5994731,-2.663292,0.1673414,-1.8763117,0.76238424,-2.7796104,2.9348125,0.701856,0.36638835,-0.16570602,-0.34235483,2.5847838,-3.2918582,0.42804366,-0.49121413,-2.4354067,3.2301517,-1.1689192,-0.70183897,3.614073,1.947677,1.6833844,-3.1817532,-0.7395467,-0.9897397,-1.1878072,2.0004184
token,5.271551,-3.2098484,-1.5229987,0.9190304,-0.21716774,0.525998,0.0067779156,1.0603471,-0.79077417,1.4552172,-1.9545476,4.312151,-1.3901647,-1.1671256,-0.39857012,0.77508974,-0.108527906,0.3501304,-2.5752645,-0.43419456,-0.8808811,-0.44792143,1.9998379,-0.13586493,-1.6898798,0.25989142,-1.0186065,-1.2197138,-1.2130268,-3.1518962,-4.7482996,-1.2014632,0.36277944,-2.580597,-3.2443798,1.0095899,-1.1021174,2.3262622,-1.8630108,-0.11032561,-0.022089565,-2.7810369,-0.6063845,2.473367,-1.3468322,1.3125988,-1.6993425,-1.2500818,-0.6068311,-0.8780841
encontrar,5.394542,0.104052395,3.0776646,-0.37878,-0.19992848,-0.9452329,0.6100122,1.722068,-1.4691336,-0.0856022,4.373073,-1.5742301,-2.6989827,0.14096859,1.2790954,3.378151,-1.0234585,1.1391002,0.58442265,-0.14638676,0.50411385,0.9188536,-1.5449872,-1.4573886,0.333054,-3.591118,1.5833696,-0.3645018,-2.2882147,-0.93731225,-1.1641859,-1.1291181,1.1450723,4.022667,1.2200292,1.7512615,-0.428168,1.4781977,0.35492644,-0.0927562,-0.07755116,-0.20306478,-0.6251659,-0.336429,0.80725175,-1.2767131,-2.1167994,-4.268616,-0.45471224,-1.2672764
aprendizaje,5.1984076,-0.59752345,2.1036563,-0.79278165,-0.89405185,0.08155459,-0.98813784,-0.40848696,-0.050512902,4.6667233,5.723138,-2.371723,0.73199934,-2.1160567,-2.6873422,-0.89866996,2.6799204,4.1537495,-1.3310785,-0.24586667,-2.7192154,-0.28775585,-0.55617464,0.7290947,-2.0857441,-1.3745699,0.2959078,1.7868265,-1.4613523,1.077493,-0.0969807,0.5196507,0.34603703,-0.8159344,-3.2479234,-1.7842903,0.26354456,1.1787031,-0.5524903,0.37750432,1.0331956,0.15273385,-1.2711226,-0.5714402,-1.1968595,0.7811307,-0.8938057,-1.7271535,0.39921212,-1.5915532
ventana,4.650358,-4.6252923,-3.8608553,5.5879917,1.9881102,-1.3853804,-0.47985327,-1.9825426,0.80968213,0.7529336,1.5994539,8.0893755,-1.617601,2.5540662,-0.92713743,-3.9286342,0.3306624,-3.0604208,-0.8577133,-1.7443694,-1.9437107,1.521414,4.5139527,-1.253798,2.6575868,-0.89107054,2.6063325,-1.0790855,2.4362,-0.62724227,0.03643476,0.5536559,-0.43118674,2.7758536,-1.9056339,-1.6157906,-2.0519087,0.762788,-1.4024227,0.38275772,-1.1514312,-0.8961206,1.0261523,-1.2579032,-0.16649078,0.21649705,0.57064486,-0.6461614,0.05855803,2.3091195
importante,4.98109,-0.3869059,-1.6130109,-3.269305,-1.6986638,-0.9134469,1.8540773,-5.1150618,-1.8531746,-0.5162733,-1.1110283,-1.0200468,2.1319818,-0.37173298,1.5550066,2.7086115,-0.108168945,2.1841156,2.0394359,-1.7285291,1.6479431,-0.21817425,3.4080498,-2.6839383,-2.1260393,1.8660213,-1.661797,-0.87620246,1.2621058,-1.60678,-1.5880889,2.8282142,-0.7458289,0.25595775,2.2365716,0.89270645,-2.2166147,-0.7074787,-2.424332,0.8741046,-0.2620235,-1.804698,-0.98494804,-1.5155323,1.656367,1.4727627,1.6141497,-0.12176963,1.0474474,-0.84379184
aparecen,5.359468,-1.2537005,1.6677064,1.5545515,-2.816825,-1.2034049,-0.024275444,0.40555692,3.805908,1.8162935,0.54728067,-0.54885197,-0.20658924,-2.6131606,0.1424049,-1.1129743,-0.45927322,-0.8600063,0.32117987,0.25462008,-1.0202551,0.56646436,-2.1733243,2.775435,-0.23487331,-0.30637607,1.9354262,-0.14475317,0.11799912,1.4567405,0.24165902,1.8180417,0.7033327,-0.39398864,-0.48597386,-0.7840555,-0.2755724,-0.15327364,3.8586187,-0.6428213,0.6394282,-0.7573616,-1.3329712,0.7149678,0.035188153,0.7180405,2.1739075,0.8689169,1.2148942,-2.1045532
aparece,4.5891895,-2.3912735,1.7004653,0.5597594,2.794985,2.077839,0.63254863,-0.6708973,-0.55954874,2.5355864,1.044637,-3.964615,-0.44134074,0.12528518,0.009362735,-1.2955137,-2.0490184,1.4498537,0.89835495,-0.51125604,-0.7795791,0.70701,-3.0269518,-3.7922356,3.2540002,0.06570875,-0.9377193,-0.77950644,-1.1713392,-0.46214956,0.67825484,-0.602065,-1.3185314,-1.6754563,4.101504,2.2245395,-0.43017304,0.56374717,-0.37960947,0.29969594,-2.4155533,0.60033673,0.20094465,0.8313326,-1.8073722,3.055427,1.9620426,-1.6283573,0.1594313,0.9887195
contextos,5.386846,-2.532599,0.06971612,-0.86630327,-1.2572126,-0.70213085,0.94312906,-2.3825216,1.9939398,0.49341217,1.9279952,2.5137582,-1.9607993,1.02367,-2.0903096,-2.1590114,-0.8684383,-0.78099453,1.9579253,0.3874374,-2.1233258,-0.924183,-1.6196774,-1.2693732,-0.53990835,1.3971642,0.7920789,0.3448829,-1.9610864,0.4827001,2.8477306,-1.9226903,-1.0510997,0.9371019,-0.39107946,1.3102884,-0.56429315,-2.6962492,3.7335284,-0.90209806,0.67294717,-0.88758916,-1.0090345,-0.273577,1.2444227,3.9114356,-0.11418214,-0.5324386,0.56807524,-1.7678505
matriz,3.2321324,-2.298717,-1.9142163,3.0213256,2.4244978,0.83472514,-1.0651374,0.45671403,-0.84057266,0.11744595,-0.28137124,-4.9634295,0.24072577,1.7071384,4.460088,-2.5758624,1.5241133,2.1272626,0.061573766,-5.1748943,-5.6110015,-0.09209789,-3.0059073,-2.018685,4.3469296,1.2086724,-0.046286106,-3.8732195,1.2467743,1.5923226,0.42175043,-4.8968883,-1.2052188,-0.8285874,0.44747797,1.4033335,0.5134374,-0.8685734,0.2795282,3.9427605,-1.0400897,-2.954438,-3.342434,3.2375796,1.0812864,-1.3422974,0.15961072,1.3678637,-0.3323366,1.0857702
similitud,4.169464,-3.3698263,1.7130286,-4.049851,-1.9032632,-4.5078535,0.34301627,4.087369,6.72367,-2.9557292,-1.509105,-4.0812087,1.4423233,1.3532608,-2.3254013,-2.6190686,2.0820906,-1.0868734,0.8032422,0.03641262,3.312006,0.6580888,1.2437432,-2.7119699,-0.20010646,-1.0127019,-0.36418444,-0.41177922,2.0158916,-0.56431395,-1.2185154,-0.5036581,1.4329059,0.66234547,-0.75046813,-0.045898292,-0.72807646,0.452263,-1.5779501,-0.629037,-1.0384427,0.7607496,-0.8336214,-0.24434365,-1.763024,-0.05836996,-0.7274862,-0.3963222,0.034427594,1.8040614
forma,3.640807,-1.8248079,-1.0866494,-0.34526056,-8.621985,7.0934625,-0.590842,-3.0025387,-0.8075575,-2.7835686,-2.6998906,-1.3330474,2.1774168,4.280628,1.1970176,0.1932228,-0.88103,2.5113425,0.6035587,-2.7870984,-1.6051245,-0.47007325,0.500138,-0.31906793,-0.91013455,0.18268707,0.44217858,1.8796841,-1.297056,-0.15108933,-0.37193802,2.7143767,-1.3526775,2.2398458,0.046315644,0.0058438345,-0.9592072,-0.009209926,-1.5774729,-0.16224739,1.0171815,0.6085672,0.40624955,-0.36387247,-0.55013514,-0.050292462,1.2125484,-1.02808,-0.13289177,-0.056839976
programa,4.7283163,-0.5368164,2.3124504,-7.853647,-0.6652435,-2.0762875,-1.0149021,-2.4072661,-2.8573318,1.5551448,-2.4328063,1.00073,-1.8146735,-1.2515585,-1.5842233,-1.8482268,-3.8420224,-1.8763245,-1.3318235,-4.6509714,1.4810325,-0.5938042,1.0606265,1.1336015,-1.5601289,4.599561,-0.104657724,-2.9897914,-0.47149694,-0.6759574,2.1059258,-0.021808274,-1.5282208,1.4351373,2.3548603,-2.238713,-0.0510187,-2.0265002,-1.8557898,3.7081258,0.6708031,1.5855017,-3.9219208,-1.1503739,1.1597079,-1.1124372,-1.3334004,0.06389484,-1.9171029,-1.331977
importantes,4.4989667,6.500477,-4.8089747,-0.24302748,2.3088737,0.9173015,-3.6586628,2.096375,3.0364761,-0.41704512,-0.68607163,0.6898923,4.0564523,-2.2280502,-3.2229946,2.5215695,-3.2124772,-0.14287947,1.43008,-1.2861495,-3.1463566,1.5656908,-2.9735193,-0.68269527,-0.91394454,-4.053867,-3.2103357,-1.8296164,0.8062756,-2.3176248,2.7709532,1.8707633,0.22430196,2.546613,-2.1855638,0.020394288,1.004831,1.791156,-1.5274314,0.5176985,-0.60025793,-0.06572303,-0.14512032,-0.7792263,1.9553394,-0.2096651,1.4481654,2.686618,-1.1460447,-0.6970649
tokenizacion,3.27028,1.0485549,-2.209514,0.6402909,2.6886816,4.537539,-0.5551425,2.759087,-0.52127993,-2.902915,1.2637767,-1.7530437,4.877466,-1.2982584,-1.2907187,-1.1067569,-1.8479759,-3.5080779,1.4677749,0.22415921,-0.8714591,1.1552968,2.573292,2.7018247,-2.8876216,-1.43846,-0.006315448,-0.6962103,-0.99042493,-0.5188132,-0.9554365,-1.0692581,-0.15401778,0.5126856,0.37124655,0.3869706,2.6497314,-0.6463953,0.8780935,0.8746584,0.069039,1.5739248,-1.2037188,-2.7467103,2.9864616,0.9882556,1.4352243,-1.4225833,0.26879862,1.9618239
practica,4.9022017,3.1593976,1.2101165,4.414386,-1.7217505,1.522185,-1.1390921,0.2997233,4.990173,4.4567776,-2.7279124,-0.039084446,0.5817709,-2.9263158,2.0839925,1.0804532,-1.001924,0.2528158,1.7720035,1.0761974,0.0511626,-2.5840733,0.8356166,2.380113,-2.2874744,-0.29074407,3.3003066,-2.6310022,0.926608,0.26642063,0.80287206,1.6712403,-1.7955675,-3.6762266,-2.221446,2.3479679,-0.15984166,0.23874037,0.050787397,3.0700305,0.12299391,1.4758655,-0.93332016,-0.51040447,-1.586532,-0.15696178,-2.2261536,-3.3373733,-1.131744,-0.27138627
artificial,3.6224341,1.1797658,-2.0905776,-0.64728254,-0.31763026,2.582158,-0.4632753,1.7822566,-0.9642765,2.3553522,-0.46651012,-1.6714234,-4.990749,-2.728323,-2.4369879,3.060054,2.7422013,0.6382322,-0.9480043,0.17711776,1.5553522,-0.92501223,2.125259,-1.9338506,2.086066,-0.15435371,-2.3825974,-1.108503,-0.6065882,0.9351628,-0.24894674,1.3041154,0.9947878,3.4141746,-0.9983838,-0.46819714,0.10780628,1.3380426,1.7821519,1.0544548,-1.3034301,-0.8427044,-0.4629165,-0.4643308,-0.7093832,0.6706054,-0.7353627,-1.785187,0.7071822,0.8721807
revisar,4.8875093,3.596358,5.858857,0.2437446,0.6310203,-2.6118684,3.0616195,-3.3098247,-2.8313856,-2.051562,-2.142119,0.1755796,2.183602,1.1657499,-0.20297128,1.9744811,1.8074509,-0.40341672,1.2228894,0.31052226,-1.1179104,0.539338,3.3620253,-1.5989385,0.440256,-2.7156584,-1.8094739,-1.3990107,2.6440299,-0.4538058,-0.023479016,0.08193237,-0.7965089,-0.40489936,0.27129227,-0.9935176,-1.1911303,-0.56706476,1.4121583,0.52921003,3.7267976,-3.3172889,1.3024994,0.33291766,-0.70787257,-0.4013465,2.2839417,1.2249157,-1.0995082,-0.008922642
identificar,4.741999,4.7002597,5.6801643,6.5401354,-2.73021,0.47630945,0.17410187,0.46056965,3.2462335,2.1944084,-1.1166861,1.3762118,0.36771405,-3.023564,4.090692,0.14269494,0.02776999,-1.8634957,2.2835662,-0.37379026,2.258674,-2.7381,-2.0268855,2.1432436,0.12536101,0.18585464,0.6434915,-1.7134619,0.3005657,1.2213625,-1.096909,0.0041465973,0.63674575,0.6647175,0.5309909,-2.431172,-2.3582778,1.2888293,0.6809291,-0.84032506,-1.2969402,-0.62688464,-2.9578183,-1.8962826,-0.7077633,0.2737331,0.56077385,1.1964401,0.37841502,-0.77327204
explicar,4.953848,3.3439069,3.8122246,-4.8724327,4.472705,0.14444485,0.044423304,-3.3512394,0.41583222,-0.27331996,-4.50825,1.7391994,1.7559757,0.705384,-0.33382532,1.9452171,1.3775783,-1.4541848,0.3695105,1.3789377,-5.057245,-1.2181829,-2.1135418,0.89024925,2.728934,-1.6296793,-1.4622247,0.81768346,2.351897,0.97107595,-1.4030069,0.5418222,-1.1936399,1.6122453,-2.2318277,-3.3162758,-0.44773066,2.0503774,0.29673055,-1.5430586,-0.99912715,1.9156907,-1.6153841,-1.4024767,0.4272991,-1.2213742,0.2803828,0.15096743,1.151823,0.71999437
significa,4.7988176,0.77726126,1.1661108,-6.20771,1.9176204,0.16586861,0.3438065,-3.349818,0.10185711,-0.063495114,-4.4796557,4.594186,-2.4047432,-0.36604008,-2.3534029,-1.1604683,-2.0801024,-2.846188,-0.609752,-3.3555307,-3.3087993,-3.5906549,-2.3853917,0.86771613,-1.9356223,1.4666412,-2.487187,-0.16219355,-2.3778899,-1.0879054,-1.1229038,-3.8787723,-0.49933198,-0.28949264,-0.47695985,1.3900032,0.21324326,-0.85291266,-0.9751079,-2.1680653,0.7510266,0.93964773,-1.8828012,0.006648332,-2.172276,-0.14032969,-0.8643,-0.008342749,-0.67660725,-0.37385046
embedding,4.6474385,-5.887694,-4.223057,3.9064097,-0.86008686,-3.0694382,1.6259342,-5.425315,2.2287896,-1.860272,1.1830921,2.888839,-0.21423407,-1.5309628,-1.7758139,-1.4943916,-0.056015987,-4.699505,0.7579026,1.7730696,-1.3886423,-0.47590765,-0.009694786,0.71987504,2.0165813,-1.0037072,1.9508721,1.0888304,-0.21531276,-0.05596785,2.073865,0.38126513,1.1446564,2.935603,-0.42841098,0.4905419,2.5178742,-2.11648,3.8802764,0.6431465,-2.0623558,0.73989666,-1.1905729,0.6329857,-1.6682699,0.5486067,0.008509916,-0.12515691,-3.3054147,-1.7363702
objetivo,4.259591,-3.0734692,-2.1044002,2.4253137,1.7240003,-1.263918,-0.5629174,2.1867695,-1.3688588,0.9186811,0.2100334,4.79909,1.5081748,0.60650194,1.3489281,-0.77037793,2.9840875,1.1922967,-1.7527541,0.5699988,-1.6737486,-0.1691219,2.1187868,1.2089055,-0.85087943,2.2119272,-0.69802606,0.03397923,-2.2554588,-0.92965305,-3.4407785,1.6616722,1.1718538,0.22189179,-1.4470862,-0.15435337,-1.790285,2.0813308,-2.4268162,0.65248275,1.3319923,2.405277,-0.95731604,3.7457297,1.260036,0.85696065,0.4087794,0.88186085,0.6176283,0.3832665
tamano,4.210024,-3.552993,-1.6656699,2.6801517,1.0598536,0.9885107,0.9158123,-1.9446939,1.1627885,0.06808209,-0.39981705,5.4626665,-2.076386,2.0310256,-2.3752105,-3.641225,0.3723981,-3.5161924,-1.3882203,1.5527394,-1.075367,-0.9980796,0.9966448,-2.2075396,0.9685456,-1.4103276,1.0065839,-1.3318236,-1.5579234,-1.6238424,0.9786813,3.1320171,-0.47578564,-0.8841868,0.75961983,0.1537467,0.90201795,1.4701663,-0.12870708,-2.3438323,-1.7393602,-0.8376357,-1.583182,1.2604584,-1.4702479,-1.7286569,-1.1760368,-0.07163282,0.49945036,-0.50765693
ayuda,3.90547,1.813278,-3.1940315,2.0731122,0.21049803,-0.66009784,-7.8805275,-0.7057752,-0.73086697,0.74511945,-1.8432558,-6.5304537,-4.4928756,3.9599445,3.584666,-0.031475767,2.275839,-4.9357214,1.7053094,1.1031133,-0.9608276,1.7179707,2.344431,1.6286083,-0.5012056,0.2713468,-0.8539279,1.4005806,-0.89460725,-0.5183496,0.8507814,-2.1990712,-0.9992919,-2.6591291,-0.66037667,0.64694047,0.20671289,-0.6868791,-1.051088,-1.547147,0.5771255,1.2323706,-0.8138585,-0.3365827,0.09487758,-1.8283947,-0.10727264,2.2661474,-1.7818984,-0.53674746
usuario,4.3674307,-1.5931109,1.7929592,-2.6414933,-0.7772612,-1.6993159,-0.10696461,1.1264664,-0.5650679,2.5440278,-0.104135856,-2.6935992,-1.3318123,-2.0099814,-0.9468568,-1.9521371,-1.8962405,-0.17560686,-0.7125396,-0.7729941,-0.6120288,4.198395,-0.36501998,-0.48483652,-1.6902915,0.40323746,2.6298578,-0.023193607,2.455619,2.1618173,0.056823086,1.9485168,0.8162833,-0.54580015,0.7470906,-2.2129025,0.94368756,1.9566476,0.20992267,-0.32379493,-0.7631616,2.7548006,-0.3743954,2.0084426,-2.8318653,3.0106816,3.2041342,0.6306477,0.51414216,-2.0741756
utiles,4.754845,-0.40511158,2.731223,-1.249544,1.2477746,-1.598605,0.7494187,0.4623928,-2.0023725,-1.1536974,3.3973672,1.2105813,-0.62178963,3.001842,1.5651878,4.5345407,-0.2699166,-0.3906517,3.0567293,-0.098143,2.51502,-0.42044142,-1.3149762,0.21353886,-0.1846151,0.07102693,0.3846674,2.0767484,-1.1470436,-0.15073942,2.083359,-1.4269365,0.54990345,2.094217,-0.668282,2.2880652,1.5575557,1.3503386,-0.26335186,1.9016937,-0.45071748,-0.37845224,-0.078679495,-0.24905473,-2.1139839,-1.2049817,-0.2297724,-0.19726606,0.14201197,0.26217887
consulta,5.062113,-1.4038665,2.3092575,-2.6375778,-0.59395903,-2.589546,-0.98322046,0.26713243,2.5443497,1.0736556,0.4998806,-3.3193216,-0.9107164,-0.3041708,-0.69000703,-1.107511,-1.4529878,-0.2891287,0.16224289,0.039091337,0.25523716,1.2423006,0.06185188,1.7599381,-0.35955566,-0.73548543,2.8871405,0.47020695,-1.2496649,-1.5193244,0.42360064,0.1625072,1.2038559,0.5487776,0.5237049,1.8871877,-2.097502,0.10300159,2.0239584,-2.6021652,0.28828973,0.24335603,1.6472669,1.1930404,1.3329749,-1.1876478,1.1003627,-0.09764629,-0.18979487,2.4254913
observar,4.9007983,0.9613929,4.88807,-6.055941,1.5600001,-1.652585,0.39190683,-3.613913,-0.1470781,0.8680188,-1.3016988,-0.44925106,2.4367445,0.53166103,-1.0023032,-1.6625502,1.263854,-0.24864168,-0.44778442,-1.1124165,-0.38542035,3.6613164,3.8938806,-0.82097065,0.25576967,-2.042197,1.1505995,-2.1511097,-0.3542342,2.502439,1.8574423,1.5978065,0.23078895,-1.0855514,0.44340378,-2.118648,0.23711401,-1.2516983,-0.62646747,0.6864633,2.3207767,0.104188144,-2.6250591,-0.0452277,0.10376632,0.18396969,0.69436944,1.1805738,-1.2181169,-1.7191222
analisis,3.580175,4.484446,-4.3914065,-2.1841528,1.6370054,2.1871724,1.4743181,0.8130735,0.17415832,-0.8545096,-3.6513102,1.3892066,-4.2553544,-4.3623276,-3.056649,0.101270184,4.183829,1.2464291,5.458424,-2.6498408,-0.4846029,1.5751942,-2.4945667,1.4692239,1.9411689,-2.1367893,-0.39270896,0.83165383,0.40797085,-0.8855305,-0.6717993,0.6285433,-0.034117833,0.78591925,-0.7717828,0.28736538,-0.5685781,0.52762854,-0.017002132,0.26673633,0.2036842,-0.3116858,0.5081415,-0.8336215,-0.43410984,0.86111706,0.87401605,-0.30304876,-0.24821089,-0.2825941
estudiantes,3.4326887,7.031633,5.5766478,7.623056,-3.7400968,-3.6636066,4.939797,1.0841858,-3.2085316,-2.3679476,-1.2324728,-0.7051787,-0.6729144,-1.082805,-1.0159748,-1.2216092,0.11060036,-1.0965945,-1.2128054,-1.2830099,-0.37598357,-1.2390333,1.9248959,-0.6849853,-0.46413994,0.8571397,-1.674316,-0.34553385,1.1133199,-1.4789017,0.99583215,-1.0794241,-1.3236015,0.5631789,0.09250861,2.5123272,-0.70679533,1.7499267,0.7784013,-0.02435988,-1.7594054,3.3273358,-0.77321523,-0.037990335,-0.41795588,0.41431934,-0.16614924,-0.12761505,-1.1831151,-1.5983866
contiene,3.8765445,0.23314607,-3.1203055,-1.4330962,-0.5771598,-0.43199405,1.1950482,-2.119935,-0.96405,2.2717724,3.0845578,0.6879078,1.9843204,0.1546696,0.1845714,-0.33266908,4.009472,4.6707187,-0.43231153,0.8151618,0.99616706,-2.0124714,2.086192,-0.35073557,-4.219136,2.0630825,-0.97132343,-0.43091634,-0.96021676,-1.0940206,-3.622782,-1.4246475,-0.011909772,-1.0799192,-0.56193393,0.32740933,-1.955724,2.7749481,0.2777109,0.36817312,-0.25875387,0.759255,-0.6793582,0.12827149,-0.36952817,0.04069359,1.9281031,1.7901857,-0.6123565,-0.8023512
normalizacion,3.055367,2.8992996,-1.877904,-1.0263398,0.8090793,5.895762,-0.967175,3.4699035,-1.2865329,-3.9175305,5.375061,-1.8344985,5.4881487,-2.0461469,-2.200052,-1.0645552,-2.6339278,-5.600822,2.5099494,1.1142381,-2.2110124,-0.31293684,2.219072,0.20825411,-0.07088726,1.1094261,0.70742905,-0.51672876,0.11288659,-0.5224537,-1.83683,-0.30039462,-1.4625609,0.52780557,0.40625387,-1.3083913,-0.09401909,0.08162251,0.34653503,0.34045652,-0.44200447,-0.7681843,0.34402308,0.5220596,0.5533118,0.29195252,-0.47196656,-0.1097877,0.06100637,-1.0291706
ruido,2.6756244,0.7234201,-0.62139136,-0.4412912,-1.2091745,7.303974,-0.52884024,1.4644939,-1.5569636,-2.8777466,3.206108,-1.9712878,5.1450915,0.63444084,-2.105612,-1.2714552,-2.437262,-3.4657342,3.3475852,1.2431316,-2.2102227,0.11305276,2.5284908,0.8209728,0.21600725,1.7530584,0.51420957,0.15586069,-1.5127801,-0.326893,-1.4957685,-0.3851543,-1.4375603,1.4620816,0.5134843,-0.87813795,-0.43497717,0.09550294,-0.98696935,0.004846722,1.2625269,0.8707537,-0.55885583,-0.60346687,-0.99994624,3.0564911,-0.70278883,-0.89273447,0.6458261,1.5320687
aparecer,3.9213202,-1.0406389,1.6464536,-0.44976237,-2.3785071,3.9722033,-0.2277805,-1.3832343,-0.632184,1.051866,2.97086,-1.4244778,2.0971158,1.2103137,-1.9948672,-1.701896,-0.2704646,1.5784764,1.0077558,0.2956969,-2.6736429,1.4953545,0.6189721,-0.11251864,0.892991,-0.884491,0.3354506,0.2718455,-2.465211,0.63536793,1.6274507,-0.38564464,0.24450475,0.3388964,-0.13253981,0.1731606,-0.83369166,-0.61597264,-1.9418962,-0.64461756,0.77417505,-0.0080861095,-0.5333086,-1.095792,-1.4404311,3.1382122,-1.1930399,-0.92016417,-0.6354461,1.0498757
comunes,2.6711526,-2.54103,-0.67406386,-1.081461,-4.6064396,-0.7277924,-3.3964825,2.1083093,-7.1918983,3.762408,-3.969781,1.5812997,1.8695507,-2.3824363,-0.8061097,-0.8867669,-0.5998877,-0.18791388,0.8969143,2.3124793,1.9231266,-0.041594133,-0.32108128,-1.7678366,0.35203955,-1.732419,-0.31488028,-0.011704238,3.3809016,-0.7442529,-0.54356813,-2.658251,-0.2297098,-1.1712656,-1.2130404,-0.52316713,2.1218002,2.4259899,0.8760026,-1.2077634,-0.23804589,-3.1087675,1.0060778,0.27937466,1.1077826,0.9168105,-1.7995849,-0.9228318,-0.20202509,0.72486776
posicion,3.4347837,-2.5410626,-1.4739422,0.2804118,-1.6763332,-1.0990393,1.9700131,-4.1745996,-2.2196927,-1.4560621,-1.5361172,-1.5042616,2.3092415,-4.4486117,0.22763273,3.0803444,-0.13966812,-0.80648136,-0.89752984,1.8535875,2.2328978,1.3605047,0.5584396,-1.1507299,-0.019379167,-1.4345514,-0.2606018,-1.121817,0.31506348,-1.1597309,-0.27722162,-2.7581336,-0.16942625,-3.0745623,-1.7363927,-0.37205806,-2.078796,2.5193,-0.82221466,-2.0980215,1.9290056,-3.532489,-0.5843384,1.6949868,1.3138834,0.21593018,-2.6617708,0.7083715,0.9062434,0.8868485
construir,3.5966465,-1.5136718,-1.3527963,1.428813,0.09527693,-2.5762768,-0.9173848,0.38222513,-0.9405279,-0.79453593,2.2079284,2.7737281,-0.65926605,2.767369,-0.31257305,2.3272326,0.119226865,0.31904987,1.4051795,-1.5919472,0.035732727,0.98174417,0.32509938,1.4030194,-1.7676531,0.31021407,-1.4419584,0.83949256,1.6207281,2.3724475,1.5727965,0.30437636,-1.3946408,-0.99385065,0.7243843,-1.3494937,-0.91953653,-0.71402216,1.2887448,-1.2364773,0.3419609,-0.4463201,0.17151937,-0.03591248,-0.7537133,1.7508799,0.34001628,-2.0780659,1.4424881,1.293252
conceptos,4.4254537,3.2069273,1.3352611,1.5021466,3.12467,1.83683,0.08614308,-0.12630442,2.9983835,1.6154405,-4.5611215,0.41684765,1.0323077,-1.7159959,0.83136564,1.2761157,-0.8982026,0.038527165,4.233567,-0.29452983,-0.8268753,-1.310416,-0.22504674,0.56059164,-0.21528687,-2.0973647,0.8464001,-2.1848168,2.2618499,1.1586462,-0.2880932,1.4604573,2.388513,0.16908988,-2.0364592,-0.6366308,-1.0356336,0.9341969,2.8124745,1.568906,2.8260162,-2.0703595,-0.7559019,0.37726843,-2.101328,-1.1749581,2.4964027,-0.30072165,0.7328293,1.8459411
guarda,4.0503144,-2.3506052,-0.202279,0.77362186,2.3650117,0.6623878,0.6875933,-1.0103607,-1.2135717,0.32480937,-1.3701661,-2.181596,0.64737874,-0.005702624,0.43735301,1.3804582,-0.9924385,0.9772928,-0.66123784,-0.03212992,1.1935809,-0.7299996,-0.38588437,-1.2451019,0.2964437,0.19491269,-1.5310308,1.455492,1.366446,-1.8355501,-1.9633971,2.4822607,-1.1579373,-1.5688972,3.6434073,0.942979,-0.8713128,-1.0849025,-1.0468122,0.4635378,-2.6708746,-1.8116636,-0.15868026,-2.016457,-0.3709885,2.8621771,2.045805,0.041914687,1.6447433,0.7856376
indica,3.5759668,-1.7181019,1.3128816,1.4254321,3.5883875,2.8659334,0.76364136,-0.54656357,-0.5728024,1.7469814,-0.33163416,-0.4565191,-0.50350624,1.6343532,-1.6530167,-1.4672097,-0.9729649,-0.07405739,-0.66104543,0.8841924,0.6140851,-1.5027485,-2.4136543,-2.8620179,2.159325,-1.7943594,-2.1130202,0.13057537,-1.1103774,-2.1683786,-0.42950794,3.3206038,-1.3761495,-3.7229512,5.118191,0.9910595,1.7150452,0.03509115,0.86019945,-3.0532038,-1.8369229,0.87740767,-0.25116578,-0.29086003,-0.40638956,0.09962348,0.440685,-0.26198763,0.6556024,0.004066487
estudiante,3.6007805,-0.11634409,2.1202583,-0.24398349,-0.8217363,0.6018872,-0.8204312,-0.060182013,-0.18732077,2.5047922,4.469441,-1.616098,0.17027727,-0.4125188,-1.765512,-0.69638705,1.5517228,2.148022,-0.40640485,0.61167794,-2.337587,0.12300654,-1.199094,0.40061742,-1.0201182,-0.9959495,-0.3068416,1.4720608,-1.4761595,-0.07225578,0.35939994,0.41563162,0.6450527,0.023895284,-1.4961407,-0.8170596,0.49711728,-0.7920271,-1.0047802,-0.13004106,0.7989315,-1.0965358,-0.037151072,-0.5489775,0.04643526,0.64744145,-1.1543812,-1.0662055,1.3593736,0.2900167
evaluacion,3.4757128,0.9835546,3.2270348,0.58065224,-1.907102,0.12818089,-0.68055874,-0.6257963,0.6471055,2.9422963,4.1742244,-0.9573022,0.7877966,-1.584117,-1.1435806,-1.7968045,2.082,1.7230402,-0.5925028,-0.35891163,-2.521054,0.08172354,-0.5372606,1.1173234,-1.3677018,-0.64419043,-1.0428032,1.7159474,-1.8402582,0.37154838,0.7752436,0.04499569,0.2236313,-0.15792839,-1.2560266,-1.2909817,0.38685283,-2.8257997,-1.1500353,-1.4636877,-0.5338119,-2.4993021,1.0089203,-0.80884814,0.5973638,1.2698795,-1.1871028,0.73002326,0.26368606,2.805972
plataforma,4.004954,0.50532144,2.5131814,-0.75444436,-2.327053,-0.67182404,-0.6147175,-0.41157016,1.505175,2.8210607,2.7903514,0.06373646,-0.59632826,-2.210954,-0.22998312,-2.0773997,0.06513627,-0.052252274,-0.09601722,-1.4328414,-0.45009902,-0.587895,-1.7018648,1.948463,-0.52770704,1.4515121,0.29585278,0.56029576,-1.7683954,0.9614369,0.9125637,0.26131514,0.7767979,0.23745489,-0.49507555,-0.606924,-1.1229107,-1.9510089,1.4821329,-2.772542,-0.68267757,-1.6069083,1.1483754,-0.9429863,1.2057893,1.5422113,0.077708125,2.8121858,0.20120868,3.2088802
docente,3.7417865,2.9284925,4.020699,2.819672,-3.3205905,0.9795166,-2.402722,-0.44104916,5.841802,4.5235143,0.80632764,3.3280966,1.6896067,-4.1374817,5.265259,-0.43442458,0.7561873,-1.0874437,1.0913548,-1.1232944,2.121417,1.2627679,0.105535045,0.6545261,1.1876463,2.8081987,-0.4675454,0.9653773,-1.6088517,1.3404977,-1.6562794,-0.7427109,-0.7272977,-1.3280593,-0.03558592,-0.14911261,0.82787716,-1.4024416,-1.1971518,-1.71363,-3.2279487,-1.2056265,0.18144442,-2.013766,0.4831715,0.92592186,-0.8863965,1.5686852,0.6735035,0.7335602
temas,3.8823779,4.5431476,5.07255,5.0310745,-1.3097258,-2.1386569,0.4068857,-0.72990006,-1.1395687,-0.34287494,0.72817016,-0.08117651,0.38928095,-0.108586155,1.0321945,0.120734885,0.2529549,-1.6443838,2.0541534,-0.91533154,1.675115,-3.9565878,-2.1109607,1.1725656,1.3141266,-2.3063283,-0.7532791,-1.9029865,0.34571227,0.448561,-2.318819,-0.83461386,2.549491,3.5724812,2.5898159,-3.3122842,-2.9454637,0.80945116,-2.1421573,-2.4394643,0.0547843,-0.6475794,-1.1426208,0.11414612,1.1715425,1.1173803,0.9300421,-0.17891276,1.1630479,-1.0318122
numero,3.298314,-1.36052,-0.9061634,-0.9529025,0.21742469,1.197581,1.2052262,-0.6862415,1.0107044,-0.7857174,-2.538864,3.5270746,-2.3315077,0.081732705,-1.616278,-0.84859836,-1.1515656,-1.7027186,-0.5563425,-1.373792,-1.3937367,-2.2446244,-0.9368036,-1.1365147,-2.5643446,-0.7962755,-1.1969345,0.38045532,-2.4052846,-1.0204762,-1.5492296,-2.9188683,0.12191161,-2.135798,-0.52819973,1.6698236,0.15808244,0.20084295,-0.76390225,-1.6404771,0.12641694,-1.361659,0.2555244,1.3546457,-1.3794106,0.02463792,-0.09354908,-0.6600076,1.3961017,-1.7180226
one,3.3527265,-4.593648,-3.615262,2.2764719,-1.779971,-1.1901226,2.454814,-6.913977,-0.24765441,-2.5161254,-0.7892445,-2.908821,1.9171207,-5.4716988,0.10750983,3.2451644,-0.6899152,-2.1194773,-1.1806175,1.4490365,1.0763546,0.4116976,-1.0161716,0.85140145,0.118486725,-0.25104514,-0.6408498,1.2331227,-0.91769344,0.110828325,0.32138526,-0.07058387,0.3126687,-0.38022336,-0.21869597,-1.2846296,0.7802962,-0.66068435,-1.0521612,0.4747792,-0.29066622,1.0738119,-0.56512254,0.45238718,0.057500444,-0.8919758,-0.09820016,0.40329328,1.1226441,0.7612145
hot,3.2444448,-4.7819653,-3.867955,2.499628,-1.776506,-1.6054817,2.3515563,-7.8833203,-0.3855203,-2.4913735,-0.37786412,-3.3393512,2.4108126,-5.6147833,0.015595771,3.3196018,-0.52098346,-2.4030657,-0.79836524,1.7600807,1.3872969,0.2865907,-1.2812022,0.9344806,0.60569566,-0.34792638,-0.77256435,1.1705041,-0.4281087,-0.24809879,-0.066243306,0.34649986,0.38502926,0.1663376,-0.2487965,-0.21762615,1.0884801,-1.244907,-1.1410326,1.1288434,-0.68671316,1.096156,-0.7290709,-0.37655374,-0.68808436,-0.5897601,0.8955181,0.58005315,0.17514442,0.42507398
representacion,3.8014796,-4.1626463,-1.7560527,1.0207311,-1.2292335,-2.027863,1.7851063,-2.124929,1.0564833,-2.315239,-0.7928449,-1.8735195,1.611239,-3.5314462,0.4929644,1.621888,0.8241832,-1.1891896,-1.8867552,2.1659055,-1.5727061,0.7242989,-2.5322282,3.178518,2.6947267,1.8189093,-0.32014433,-3.2214508,-0.70086366,1.372202,0.9776573,-0.004656893,-0.66213644,0.058828384,-0.057746165,0.24026173,1.358403,1.0732846,1.7537135,-1.0763121,1.3271058,0.8935099,2.1622393,-0.4166394,0.66327,-0.11581111,0.5052838,-0.7373698,1.2275006,-0.6807096
vector,4.3473105,-4.4490542,-2.0002372,0.5944458,-1.1410209,-2.867741,2.1352625,-2.1824017,2.2993093,-2.1179965,-0.80019724,-2.6544702,1.211876,-3.9429588,-0.16447197,0.93996733,-0.7910245,-0.89271134,-0.3306744,1.6829079,0.66230327,1.1315087,-0.35474923,0.64424527,0.79122126,-0.7844077,1.2558419,0.088619806,-0.5521299,-0.37981075,1.1588125,-1.8003824,0.86166847,-0.686443,-0.44796377,0.06411577,-1.4383522,1.3187737,2.2900245,-2.6906903,0.6631557,-0.4933752,-0.4923787,1.4108186,0.5133231,-0.4330259,-2.3234086,0.24333091,-0.117294,0.025653135
relacionadas,3.4533505,-1.6386869,1.8086747,-1.8941504,-0.7095671,-1.395419,-0.118566796,0.49049768,-0.36618572,1.0709804,0.8554103,-0.972646,-0.91448724,-0.06487875,-0.62685055,0.06985773,-1.0116955,0.7509417,-0.38674438,-0.06048181,-0.0316027,1.7919723,-0.05126728,1.1319052,-0.54531467,-0.096934386,1.4071412,0.09414713,-0.051157203,-0.47579858,-0.08076743,1.4086474,0.0770164,-0.033653848,-0.13651362,-0.6246901,0.24031353,1.3380864,1.9173441,0.27675268,0.42709136,0.6357201,0.68136334,0.5762534,1.501008,0.8063996,1.078113,-0.63171315,0.20963152,-1.4263198
actividad,3.947165,0.8287759,3.8542624,-1.128008,-0.8256232,-0.057252992,-0.15034099,-1.5826553,-0.11855808,2.4005518,3.54927,-1.3522029,1.027496,-0.50917274,-1.8430496,-2.3164144,2.403879,1.7195508,-0.87113786,0.27722213,-3.720589,1.8457875,0.17724285,0.9630247,-1.8969336,-1.7357807,-0.7516953,1.3798386,-2.1200745,0.83172154,1.8126017,0.5175732,0.34464964,-0.36845842,-1.5105243,-1.859841,1.0679761,-3.6154292,-0.7414912,-1.004325,0.74063325,-2.3265226,0.008097727,-0.41204518,0.7351131,1.5847448,-1.5815287,0.53523946,0.8102135,1.5674537
cercanas,3.7256675,-2.4006176,-1.5469867,2.6852665,-0.09245797,-0.738449,-0.94799984,-0.9200127,0.30707735,0.67990565,1.9717757,5.835324,-1.6324438,2.1367087,0.08322299,-0.7819837,0.08259988,-2.3449945,0.60141486,0.09072364,-0.7195147,0.96563643,1.887938,-1.5240698,1.595141,1.2605293,0.9664135,-0.36996973,0.9140428,-1.515004,-1.0035219,-0.06849702,-0.8148358,0.5924756,-2.2647889,-0.32818684,-1.6781838,0.7867741,-1.9845306,1.5488545,0.77953994,-0.7242375,1.6600789,-0.21704529,0.75828004,2.152266,1.4874108,-0.91765195,-0.35005876,2.009129
limpieza,3.4668841,-1.0643954,0.20071329,1.2458504,1.746043,0.8679897,-0.4700232,-0.8475501,-1.1377466,1.1277261,2.3001924,0.49493116,0.54939795,2.2771547,-1.8126752,-2.6782897,1.4531456,0.28100228,-0.17846091,0.37956303,2.4940643,-0.737265,-0.6210424,0.0797125,0.20232047,-2.521783,-0.8633851,-1.4435608,-0.719413,0.21378392,-0.06322039,3.1996162,0.5996821,-2.995648,2.7624445,1.9220611,2.0144577,1.604138,-0.86962044,-1.7677352,0.916057,0.8987588,-0.15286385,-0.55151707,2.1119444,-3.1028733,-0.2899228,1.1928711,-1.0276179,-0.8300078
necesario,4.296945,3.7184672,1.418688,-5.4667654,2.633011,-1.4886681,-3.324161,-2.7063253,-0.2733527,-1.0413356,-2.343437,1.1643136,1.6391242,1.0508661,-1.2299136,1.2350128,0.16277482,-0.5268664,-6.2925463,-0.38778916,-0.032800525,-4.4270573,0.2830255,1.1276307,3.3684435,-0.681789,4.2638936,2.4084516,1.3270882,-0.7864937,-0.30510625,-0.72402596,-2.770541,-1.8524297,0.38508943,-0.6873137,-0.84985805,-2.1160133,0.48611858,1.4667333,0.022439718,1.4303324,-1.2932293,-0.23707873,-0.19456984,1.7969478,-0.79851604,0.26755148,0.6984303,0.14206481
tipo,3.8687754,4.756423,-2.6464028,0.28234506,0.5224038,-2.8932593,-5.7733865,-1.1143947,2.4349563,1.5630784,-2.6368587,-3.3336284,-1.157529,1.6064533,-0.57927454,2.0275092,-0.9943895,-0.41835654,-0.2768664,1.6037023,-0.7011788,-3.9530253,3.101729,1.9236387,1.253018,-1.3155178,5.8426356,-0.020779528,-0.53770196,-0.54005647,0.5406266,-0.05397208,0.68874544,-2.1728806,1.2947918,1.7154133,-1.1174769,-2.63207,-1.9961882,-1.1268393,2.2296102,1.557181,1.7004405,3.1766655,0.070664346,0.93837637,-0.62452173,-1.840615,0.15234274,0.23349845
archivos,4.4229465,0.93650246,2.6868868,-2.6481318,4.192786,0.13730928,0.14523101,-1.4991959,-1.0181503,-1.0281587,-2.2121994,0.2195272,1.3515695,2.0650976,0.3950758,1.7288003,1.227304,0.22502415,-3.5650923,1.9219065,-0.80317646,-2.0971534,-0.56537277,1.286658,1.3903323,-1.7212086,1.3856193,3.9132633,2.9353201,-1.3210468,-1.585209,0.8229756,-2.6623874,-1.3589793,-0.39024365,-0.30650502,-1.1772308,-0.19844338,2.0804799,1.6324714,-2.5967958,-1.8080227,-0.24888536,-2.699056,0.67027944,1.7017809,-0.0771777,1.9753629,0.3030465,0.70840293
digitales,2.5260174,0.5846078,-0.59215367,-2.4756088,-0.45856944,-0.7166414,1.4376364,2.0131228,-0.43031844,-2.877488,1.9753853,-0.26687622,-2.1949008,-1.059705,3.558458,-2.482893,-4.292796,1.5358112,-0.020004714,1.7383515,1.2265877,-0.37217313,1.4219035,1.8526868,2.6449938,-1.349392,-1.0567573,-0.5074248,-0.5870466,-0.82787555,-0.20443304,1.2401592,-1.0235695,-0.4115165,-2.1885135,0.58514965,-0.14660044,0.42286018,-0.04920043,0.2793795,0.054823216,-0.32798848,0.32092342,0.15931101,-0.69100565,0.060049452,0.34362662,0.7232013,1.7629384,-0.45595565
proceso,2.9373043,2.1310282,-0.86890846,-1.3194079,0.11007984,3.0529585,0.9335278,2.127225,-1.5798483,-3.2414796,3.2020433,-0.25527856,0.6619747,-0.43577075,0.9305884,-0.71605814,-1.6323572,-2.9808834,0.75684905,1.8015591,0.36143026,0.020331899,0.07244757,-0.8953724,0.9896909,1.1604413,0.85402316,-0.28810602,-0.12657444,0.031229313,-0.064363636,0.24074753,0.26914066,-1.0683144,0.15691708,-0.702985,-1.3660345,0.9648565,-0.13935418,1.5065386,0.94720864,0.006614276,1.7590479,0.8923595,-0.6164532,2.343843,-1.6634893,1.9926776,0.732698,-1.1174489
escritos,2.63983,2.309944,-2.67475,-1.9628024,-1.0486894,1.2322716,1.5261644,1.6417444,-1.0143671,-1.6074436,2.143775,0.80151135,-1.2602773,-2.3829727,-1.6402941,0.262844,1.1760725,-0.13575655,1.8859911,-1.4522556,0.115876675,-0.5747545,0.36265132,-1.040916,1.4949927,2.0044835,1.508897,1.296847,2.5774345,2.188361,-0.4621502,0.022011243,-0.5915105,-1.9092792,0.6348321,1.0431844,-1.8119887,-1.0730863,0.9577358,-1.2664963,-1.3508781,-1.199455,0.30295968,0.90433896,0.45377728,-2.9190676,0.46826103,0.4976333,-0.6920042,-2.230033
generar,3.0307863,2.2277052,1.288716,3.7760565,1.5766188,-0.39949852,1.779166,1.0291843,-2.047037,-1.9881022,-1.8163031,-0.6405281,-0.27606422,0.46595648,-1.6873788,-1.243507,0.75758797,1.7553264,0.16113113,0.44731823,1.7669632,1.7261906,0.15007971,0.30701712,-0.102796875,2.5930288,0.8622833,0.93535775,-0.9294881,-1.7210293,0.21710311,-0.030294633,-0.21053134,1.0171039,-0.44346952,-2.0060995,1.5745044,-0.2927313,-0.57885355,-0.2325367,0.52113503,0.32409835,-0.81808084,0.99916,-0.3381037,-0.28303602,-0.73696965,1.3568965,2.5180306,0.88459164
tareas,2.9247417,5.227678,4.5247283,5.5186334,-1.2533264,-2.685806,2.8231573,-0.29529366,-2.666075,-2.3757474,-1.3978841,-0.6667984,0.4615418,-0.17988683,-1.500521,-1.4207451,0.9675303,0.64950615,0.18104106,-0.23930047,0.6004749,-0.05685745,1.0246094,-0.2245614,0.118720785,0.5395178,-0.65121925,-0.6299785,-0.40159208,-1.62589,-0.2259304,-0.97134763,-0.2623581,1.6096932,0.53693134,-1.4391184,0.08276918,0.32032818,-0.2102802,-0.76983476,0.037436914,-0.32477844,-0.57499886,0.46052396,0.014228383,0.04969984,0.6609829,0.9993869,0.4740912,0.07111452
reportes,2.3335881,6.3488164,0.54588634,5.419833,-0.5795342,-4.4782376,0.49345285,-0.33504573,-2.0437763,-3.747468,-3.0106723,-1.0646863,0.665482,1.3323219,-4.973724,-1.5597692,-2.9613674,3.8952274,-0.7095419,0.71134114,0.22533329,0.99029803,0.3820574,-2.524668,0.77663094,4.555803,2.4359198,0.39795938,-4.0722795,0.3982769,-1.1458378,-0.6448854,0.7769121,-0.13891296,-1.162738,-1.1663398,3.0661476,1.5856512,0.556796,0.09939188,-1.6348886,-0.99702245,-0.31213894,-1.7139837,-0.5066279,-0.58418643,0.10383172,0.97741586,-1.303643,0.5294079
comentarios,2.5440915,5.7879457,4.710712,6.068935,-2.1264167,-3.8214622,4.6156845,0.095316194,-3.714402,-2.6393263,-1.7331018,-1.3904445,0.066039056,-0.03870783,-2.7360106,-1.8600079,0.43631005,0.25036275,-1.2522479,-0.7303017,-1.318732,0.37083587,2.7967472,-1.4358145,-0.076857716,1.2363614,-2.2571185,0.8449898,0.66956973,-2.052654,0.76401407,-0.7461821,-1.2570097,0.8254864,-0.41336605,1.2500777,0.551989,0.21159379,0.402904,-0.19060558,0.3075687,0.91544235,0.37854004,1.0365859,0.112615265,-0.027385255,0.6664337,0.97317034,-0.36272684,0.14173941
soporte,1.9300214,4.5141077,-7.42927,-1.8357368,-1.4031289,-1.6976756,6.83646,0.76275456,1.6144258,7.507005,-0.55257416,-1.1720511,2.6422818,4.1553116,1.1228051,1.4715204,-0.8437695,-0.74310726,0.5506998,0.66479886,-0.1855149,-0.31120166,-0.54407656,0.3942266,-0.37832436,-1.4258261,0.4827628,-2.0241816,-0.031862307,-2.3448305,1.0842559,-0.20390397,-1.2868481,1.5220029,0.595625,-1.3706553,0.55422914,-1.1203116,-0.54331887,-0.22852823,-1.278401,-0.024327911,1.3209981,0.7400584,0.3740635,0.52352184,-1.3356085,0.21774909,0.76038957,-0.12965277
facil,2.7079806,-1.9670514,-3.597822,0.09320635,-3.096834,0.43520197,1.5186355,-6.5884166,-1.22998,-2.218248,-0.8122954,-2.6189961,2.4213545,-1.7010258,1.9856399,2.2673435,0.40065274,1.3663917,0.49001676,-0.85825104,1.0008981,-0.93137854,0.5770734,-1.747101,-2.2097106,1.3333899,-1.0580033,1.2599499,-0.04382768,-1.6587378,-1.8574003,2.8986945,-0.41884822,0.40337783,0.1263583,-0.06197177,-1.4129943,-0.54405725,-2.0683115,-0.40597522,-0.25883228,0.13398394,-1.41301,-1.6469821,0.43525934,0.96787316,2.2431526,-0.16057943,0.59914845,0.24449828
tecnicas,1.9739625,0.06423373,-2.3291464,0.94175005,-2.486039,2.434948,-3.482323,-2.2224422,-2.265794,-2.3672178,-1.1900076,-4.9132304,-0.069251664,4.3651986,6.8038282,-2.5212069,2.536043,-0.7663412,0.08373332,-6.4064784,-1.6638902,-0.87594897,-1.7572985,-2.6176698,-0.31074223,0.5307466,0.95609283,-0.6555262,-0.15162475,-1.163985,0.14540413,1.6438962,-0.15609887,0.0677605,-4.5363727,0.008542294,1.6900439,-0.3199915,1.532474,-1.881828,-0.2162083,-0.05634493,-0.34923956,0.6541853,-0.38867375,-0.8789347,-0.4270898,-0.17779864,-0.7409647,-0.22133802
ayudan,3.2056377,3.137491,2.1058605,1.2440665,-2.1973186,1.0964605,-0.09592383,-0.4880624,1.0242555,-0.5337268,0.66808254,1.3550067,-0.43890694,-1.8948393,4.107698,-1.925983,0.5738946,-1.540239,-0.60898644,-1.2529904,1.9819499,-2.5428789,-2.4706995,0.7984838,-0.14755286,-0.6139142,-0.3154181,-0.74002814,-1.5549345,2.3697345,-0.18758842,0.0034051493,2.5532935,0.7141402,1.4052397,-3.9924324,-1.4443945,0.12440887,-0.22222236,-1.2538286,-2.1127837,-1.038496,1.6108088,-0.7299505,1.0563209,0.8406016,-1.1319872,2.0575266,-0.28183213,1.991013
ordenar,2.9004276,2.6547997,-1.7585027,-1.3356807,-1.3833991,0.88525563,1.4985031,0.03313671,-0.21150538,-2.8666782,0.9636356,1.3725333,-2.5540962,-1.5094197,3.507483,-3.1759343,-1.0519109,0.8151817,-1.3086307,0.88727224,1.2343572,-2.2446663,-0.62938106,-0.07457654,-0.26905164,-1.8591388,-1.3472956,0.15806434,-0.4884484,3.4772544,0.7940858,-0.42146713,1.7401291,-0.6297128,1.8674707,-2.3986397,0.4584075,-0.23533253,-0.52255803,0.7456803,-0.6644107,0.21037269,2.2889264,0.9055485,0.8237794,-0.10481878,-0.88284796,0.82409286,2.030191,1.2933005
paso,3.1795714,3.2100377,-2.2899776,-2.4430623,1.0655209,1.8214556,0.787931,0.8210236,0.21646845,-2.0336134,-2.3521929,2.1132097,-2.0778787,-2.4953609,-0.9226877,-1.2495551,-0.34482202,-1.9112501,-0.25542423,-2.7353208,-1.7088417,-0.42458054,-2.8344264,0.9790383,-2.2670007,-2.5003047,-1.8749018,0.5903718,-1.0408252,0.066402376,-0.28057855,-1.7618492,3.1235502,-0.9711543,-0.27149886,1.5632474,0.4599241,1.1199994,-1.4439131,0.2663562,0.26111594,-0.29832163,1.796049,-0.2040662,-1.9851671,0.6420192,0.91474766,1.1670429,2.5279398,-0.4060465
signos,2.261518,-1.0371819,0.22878154,-0.5164688,-6.5520797,5.9923973,-0.89201295,-0.37643123,-1.8871577,-0.4000995,-1.6407707,0.91422904,1.7370003,3.4746222,-2.0102043,0.6548917,-0.6212498,3.6685276,-0.6455341,0.88588166,-0.21892062,1.8523105,1.4102812,2.633832,2.9804437,-0.7140029,-0.3917515,-0.7476493,1.3320973,-0.3500151,1.6300578,-2.2851949,4.669279,0.48241532,0.14621377,1.5123991,-0.9348978,-1.5242678,-0.09638109,-1.1690763,-1.7676308,1.7587035,-2.1095328,-0.6317173,-1.4752121,0.9239371,-0.2231427,0.23800792,0.87005794,1.0561438
numeros,2.2235637,-1.9261881,0.6887634,0.3052906,-9.097902,6.2192693,-1.2391545,-0.28839815,0.66638273,-0.2959732,-3.9622757,1.1249013,2.0903525,4.142564,-1.5794042,0.20158817,-1.680778,3.6994846,0.56409615,0.629051,-0.70378053,0.94305074,0.56374866,3.4171236,2.1233246,-1.7090752,0.42944637,2.757162,0.8815895,0.83808815,0.65269935,-1.920849,-0.43369424,2.2490084,2.813703,1.628406,-0.26292312,2.1565008,-0.14553937,0.14566383,0.5302431,-0.14331946,-0.78756976,0.91086316,-1.3749698,-0.57087815,-0.43951502,2.3031201,-0.3306153,0.05716211
significado,2.2872355,-1.1947376,-0.25033072,-0.44014013,-1.4381744,-0.053121697,-0.81935096,-0.17011286,-2.0942523,1.291874,-0.94177526,-0.059745174,-0.72016054,-0.33973432,-0.82030207,0.99595636,-0.06723717,0.35267714,-0.03259201,0.10791518,1.1568625,-0.092880964,0.65479046,-0.43813315,0.15560707,-0.025089514,-1.3095945,-0.3799058,1.2019728,-0.48744312,-1.3616757,1.1252211,-0.45767096,-0.019998275,0.934947,-0.36036748,0.64634365,0.69722265,0.57222646,0.66531724,-0.5578914,-1.8563498,0.77871436,-0.5428251,1.170781,1.2390054,0.17478308,-1.0376658,0.24704403,0.28188542
convertir,2.9136865,1.3034781,-0.5238195,-2.4457355,-1.6391786,1.3919433,0.45327592,0.7061562,-1.8783525,-1.0060303,0.81093925,1.2067513,-0.79557776,-0.5399783,-0.6491393,0.2830956,0.2347777,-0.13775542,-1.665065,-1.2007223,1.6986511,0.0943671,0.50653964,0.099348366,0.80045855,1.3442619,0.4233534,-1.6326565,1.0591857,0.8889767,1.4996746,-0.5290577,2.1741726,-1.583475,0.4075897,0.20759283,-0.70316684,-1.7887994,0.50895417,1.1002115,-1.4760399,0.83798605,-0.9231033,-0.3039066,0.8655642,-1.5170486,-0.2073475,0.18339624,2.640831,-1.0973659
quitar,2.3976116,-0.791263,-0.3594152,-0.51312894,-3.0890255,2.8611116,-1.0945201,1.3369985,-2.3802948,1.5085838,-0.6906636,1.2078683,-0.8963193,-0.0062276768,-2.358724,2.1777036,0.5588065,1.69967,-1.577252,1.3750162,1.1482431,0.19430514,1.0471579,-0.32678264,2.5113633,0.7840517,-1.7202351,-2.765572,2.280547,-1.5790626,0.10297648,-1.4461665,5.1806536,-1.637104,-3.2459435,-0.33676887,-0.365919,-2.6661787,0.79870164,-1.0072453,-2.580402,0.75975454,-0.8901676,-0.3461436,0.24554613,-0.36540842,0.69528,-1.5442519,0.31369486,0.15782239
version,2.197909,-0.022061601,0.6622852,0.14942817,-0.36128005,1.9250627,-0.14910802,1.2644756,-1.0116274,-0.34053352,1.0728256,0.33158484,-1.3277551,1.2368805,-0.53320104,2.5877671,-0.78695655,-0.9047119,0.39468068,2.753662,-0.448725,0.79490525,-1.8719034,-1.9241724,1.0474854,1.6490163,-0.6125507,-1.7980096,1.60083,-2.614112,0.5590934,-0.63902956,3.6535187,-2.8557963,-2.77152,-1.9131377,-1.3100502,-3.6294763,-1.3594068,-0.1671796,-0.33320746,1.0855004,1.0842614,-0.6936803,1.8280287,-1.0316824,2.8347743,0.19866812,0.69903237,-1.7458208
unidades,2.5277412,0.6072205,-0.9209877,1.0526185,3.124889,3.9076922,0.55625,1.6416172,-0.02719256,-0.99382883,-1.4567343,-0.4279203,2.358044,-0.88854825,-0.52119756,-1.1643138,-0.6932189,-1.108094,0.34359783,-0.28529444,2.081044,0.026472863,1.372031,2.590293,-3.5336294,-1.8492876,0.008878343,-1.1353693,-0.9403029,0.20343336,-0.44561473,-0.75248295,0.60940343,-0.56267726,-0.66182286,1.9723238,2.6736033,-0.300694,1.6293038,1.4482546,1.1508306,1.5077174,-1.1262738,-2.3869019,2.2374372,1.1308106,1.5055135,-2.364754,0.0478766,2.8196824
sencilla,3.2458105,-1.6411519,-0.3712125,1.2669077,-2.426959,2.9801073,0.47760046,-0.37745243,1.3989549,0.30862483,-2.543898,-0.18728037,-0.7324002,-0.5555654,-0.5276738,0.5601646,-0.64686733,0.43575186,-1.3210187,0.117529735,0.49945217,-1.0635444,-0.0570179,0.005791888,-1.929464,-0.3172702,0.58649147,-0.52574515,-0.8714024,1.3933421,-0.7667701,0.9284045,-1.8233247,-0.2306263,-0.91538435,0.04679457,0.169261,0.31179866,-0.8244177,2.246906,0.5479059,0.4301231,0.6033219,1.3974676,-0.31044537,-0.8936787,-0.40130308,-1.8724511,0.8893469,0.9490405
frase,2.7223463,-0.8565376,-0.5176936,0.2466266,-1.100368,1.6023282,-0.13214773,1.3058928,-0.6143822,1.2595587,-0.5025588,-0.6955934,-3.9116464,-1.6638674,-1.3604105,2.603564,0.37278324,0.15119648,-2.945719,0.901551,-0.40315095,1.7524536,0.28318784,-2.1011803,-1.5951463,-1.045667,1.162382,-2.5456367,0.57720107,2.3649616,-4.213185,1.3987788,-1.3867134,2.1319637,-1.0820568,0.2933317,1.1472039,-0.7156764,-0.20512097,0.2973005,-0.60126597,0.80385107,-0.6035948,1.2047293,-2.3700964,0.85833585,-0.21720392,0.649509,0.5443801,1.5772629
analiza,2.249057,-0.07848707,-0.74468035,-0.05936419,-0.38859802,2.1335614,-0.61095905,1.4510256,-0.6888087,1.8738714,-0.41256204,-0.527819,-2.4461257,-1.6734258,-2.1461833,2.112805,1.4105024,0.9357285,-1.8937514,0.13592228,1.7308571,-1.2552199,1.5031972,-1.297879,0.91473967,0.703632,-1.5910751,-1.284031,0.62612927,0.8058166,-0.7972897,1.232978,0.6079764,1.798815,-1.5264874,-0.5370196,0.66577667,-0.22896896,1.3589326,0.2766426,-1.0663207,-0.74433345,-0.79601085,0.42315188,-1.0080155,-0.3129494,-0.3781917,-1.3116829,0.48612505,1.7048371
aparicion,2.997338,-1.198684,0.34352374,0.2974052,-0.62863916,-2.1677144,0.23370035,1.5107203,-0.7194907,-1.8894663,0.061400376,0.76037806,0.29980844,1.393202,0.38149112,2.3936098,1.1775964,-0.18506363,0.0038587211,-0.13352112,-1.3412492,0.5645129,0.20557821,1.1508713,0.08882892,0.54394114,-1.3540922,-1.9458913,1.5932353,0.64564615,-0.26141894,0.97227997,-0.6808598,-1.2321931,1.5479751,-0.4672104,0.77417344,-1.4384372,0.1837821,-0.6326371,2.5398965,-2.426321,2.6288722,-2.3636029,-1.0291245,0.93479,0.43581682,-0.63788325,1.4347693,-1.1309755
construye,2.871359,-1.8534161,-0.60781294,3.4430397,3.859367,1.4605461,0.47302902,1.511295,0.85673946,0.9018517,-2.347181,-0.40995196,0.2666786,0.3161481,1.433566,-1.1463611,-0.7444619,1.0348436,0.0066025336,-2.8869276,-1.1780816,-0.46428147,0.6260815,0.017963173,1.1086967,-0.5080356,0.70611155,-0.7929998,2.1166837,0.685637,-0.6741154,-0.9566243,0.6917408,0.62607265,-0.36519873,-0.7774195,-1.0986859,-1.261192,1.6325144,2.2018254,-0.02749803,-3.1913738,-1.7263181,0.6012471,0.23666261,-1.5792147,0.79646975,1.8708111,0.15575062,1.7532572
unicos,3.1358483,-1.9440446,0.64006543,2.4118454,3.2826521,2.560449,0.7948952,0.72235423,-0.048154216,1.7156924,-0.59861755,-1.6304616,-0.09120148,0.081743844,-0.7673813,-0.6204887,-1.3519304,1.1187897,-0.501326,-0.32727712,0.8611206,-0.70276,-1.0301632,-1.2569323,0.6675689,-0.6849978,-0.81737715,0.68715435,-0.045053456,-0.36649168,-0.082877375,0.50771767,-0.29778433,-0.70087045,1.4288232,-0.2980465,0.20438932,-0.8547665,0.47690356,-0.75906074,0.20726874,0.694196,0.4302205,-0.052539006,0.33908424,-0.3291159,-0.059221487,-0.1736984,1.2771996,-0.061748616
frecuencia,2.0817955,-1.5196794,0.6300065,0.89792794,2.8277822,1.9545969,0.7347803,-0.20181713,-0.42824504,1.271625,-0.75475925,-1.8641019,-0.13994892,0.50120467,-0.49935848,-0.5442278,-1.4302856,0.70673025,-0.23237684,-0.02384913,1.0107087,-0.57761437,-1.6350322,-2.747898,1.5858017,-0.8754744,-1.8324234,0.67300826,-0.55781794,-1.4967238,-0.6501138,1.8297684,-1.2975544,-2.8613675,5.4154153,1.8423615,0.46684477,-0.33011597,0.29915306,-1.6574765,-3.191626,0.18840873,0.56323904,-0.7832164,-1.0103498,2.6591039,2.3318696,-1.0895964,-0.52737004,0.96060133
educativa,3.1841073,1.4822227,-1.245223,-0.37520564,-0.14457397,1.0801072,-0.8698563,0.80909,-0.00035748517,-0.101846404,1.0628167,-0.044985358,-2.5523431,-0.9472571,0.7102426,0.87286335,0.85922116,0.5547036,-1.2972332,1.6617782,0.04062043,0.9929971,-0.30953395,-2.1017973,-0.27082062,0.15118346,-1.0936687,0.149134,0.37198254,-1.0202363,0.15848579,-0.011222642,1.2105222,2.449637,1.8254637,-0.7029614,0.040283617,1.2539486,1.2648481,0.9272868,0.9355762,-0.326147,-0.54055256,-1.2687554,-0.09474258,-0.6423752,-1.2816085,-2.3806822,2.7237158,0.2053396
indexacion,3.0563865,1.8526671,-1.9717364,-0.31828332,3.4805765,3.103551,0.61070657,1.3852426,0.6450197,-1.1562179,-3.206361,1.2463108,0.48412138,-2.1261604,-1.5502876,-0.83518213,-0.71202374,-0.9757012,1.7072289,-2.9744134,-0.5876545,-0.026076853,-0.9385434,2.1336963,-2.791593,-3.4811137,-1.5980967,-0.29607308,-1.0320873,-0.6397548,-1.1158468,-2.1745765,2.4114153,-0.4969234,-1.3188262,2.0080414,1.4391903,0.6135613,0.25409186,0.27844775,1.3992224,0.44155124,0.45740688,-1.8902819,-0.39380607,1.0048566,2.3768804,0.06391982,0.24676438,0.7560075
necesitan,3.0267727,0.3383556,2.3208196,2.6855297,-5.5471416,2.658936,-1.3844608,0.21931146,4.622031,2.1155233,-2.0721579,1.6195551,0.81627804,-0.34796596,1.844565,0.13244693,-0.6844639,0.31263357,1.1408049,0.35507262,0.48171243,-0.0013097037,-0.8104591,2.5673232,0.31931117,0.40229228,1.1456529,1.2864304,-0.31183103,1.0935583,-0.5448108,0.25211978,-2.4746947,-0.7876821,1.0602881,0.20854428,-0.21424255,0.8297675,0.25724027,1.156657,0.014284752,-0.17896332,-0.5811005,-0.5976109,0.076440625,-1.7384613,0.79666305,1.266632,-0.309618,-2.5362947
quedar,2.807685,-1.9596499,1.1686729,-0.5770151,-1.6301917,-0.059326217,0.2456831,0.76212025,1.614657,0.24452084,0.8696485,-0.3085289,-0.857445,0.71787685,-1.6185707,-0.6577689,-0.34523693,-0.047831114,0.3896892,1.105657,-0.010735767,-0.34082314,-1.9071134,0.11126174,0.30795503,0.75431305,0.06803992,-0.43998292,-1.2770741,-0.9571603,0.7379669,0.95042396,-0.7979219,-0.48992953,-1.1730078,-0.25593337,-0.15441446,0.3357772,2.9910355,0.008302327,1.8012769,0.5020798,1.0600243,0.91379815,2.8868554,0.29851225,1.3063961,0.25512177,0.66356415,-1.4789616
mejorar,3.0466726,-2.2288086,0.7523305,-1.8693844,-1.1988052,-2.2843559,0.44484955,1.5195282,0.70087105,-0.57618016,0.77241683,-1.0118915,-1.1013772,-1.4716288,0.7821469,-0.76238537,-3.1075969,0.12090002,-0.29561138,-0.3466218,-0.05359736,0.597697,-1.0116341,3.6925175,1.7342885,1.6747735,0.5395224,-2.135626,-1.7354951,-2.62666,0.46221882,1.8954995,-0.44636378,0.6443179,-0.75176525,1.5875634,-1.6153669,1.1610764,3.5863094,-1.3620837,1.0184841,0.0067842854,1.9682066,-0.27686733,1.2320374,-1.2307398,1.72913,1.3875933,-1.0237321,1.3981987
diferencia,3.4816954,-2.2052834,-2.8366036,2.2704484,1.3957611,0.0715747,0.119741425,-1.7332689,0.09546815,-1.0720141,-0.47819006,-2.2333248,0.35961637,-1.4635211,0.35877186,0.27988893,-0.59263,-1.4842719,-0.02937155,0.53841245,-0.3964754,1.1141835,1.054319,1.1675261,-1.1510407,-0.55327594,0.2533098,1.6765231,-0.047916666,0.21498221,0.38033515,-1.2903163,0.491052,-0.117972754,0.5996509,-0.6622123,1.212854,-1.2355654,0.35398185,-0.2877887,-0.42524287,2.1168473,-0.554625,-0.8565251,0.5497019,-0.4876309,0.18402855,0.29844227,2.4305415,0.0687149
capturar,2.8574123,-1.4273157,0.2205171,1.1452584,0.04102239,-1.9373952,-0.6675808,-2.6119828,-1.2764978,0.27158406,3.54005,-0.01812158,0.2935269,1.2771243,-0.78676474,1.0237405,0.6302345,-1.4336703,2.4012525,0.7430136,1.3826925,-1.286446,-2.1938124,1.9472085,0.5772136,-0.9302986,-1.0716934,2.4338408,0.47276667,-0.1321136,-0.72734815,0.34930676,2.0458117,2.1224055,-0.87305725,2.5862303,3.663372,-1.3389069,-0.2678866,5.1849008,-0.6161628,0.5929391,1.3999585,-0.10518661,-2.941603,-1.9019202,0.9786891,1.2777425,-0.2762745,-0.22955853
parecidos,2.3982496,-2.35061,0.89796007,-0.75373024,-2.5224175,-0.94518685,0.48569348,1.9222814,4.556924,-1.2238419,-0.47621694,-0.82223594,0.096154906,1.4830906,-2.392739,-1.9098881,1.4137993,-0.7815572,0.79639304,0.87755257,1.1791235,-1.1768109,-1.5719031,-1.7981896,-0.5697243,-0.68861824,-0.07055687,0.4583271,-0.54842716,0.001878299,0.43857443,-0.4828902,-0.7756305,-0.3375212,-1.2641472,-0.6067635,-0.3451983,-0.19293728,1.8784835,0.83949363,0.45108545,0.419555,-0.9106944,1.1951746,2.9342127,0.8622642,1.2924559,0.29758495,-0.59420335,-1.5130796
cercanos,3.1780488,-0.9354269,0.8805123,-0.17846279,-0.77237695,0.70216763,-0.381796,0.6173422,1.0734235,0.9120254,2.4357274,-0.77373224,0.4104827,0.72331864,-2.320826,-1.1338938,1.6189352,0.7341177,-0.042915203,0.68611056,0.9925268,-1.48305,-1.6109909,-0.67372555,0.10920849,-0.6273634,-0.636125,-0.050296683,-0.9813391,-0.14447674,0.44956848,0.8367599,-0.26178557,-1.2779218,-0.7593305,0.1306309,0.66955763,0.6931047,0.82745874,0.0413217,1.3928915,0.5284875,0.06677612,0.8935655,2.1906006,-1.3971565,0.6576552,0.19056402,1.1546009,-1.4593716
clase,2.9167774,3.4585123,4.9104548,3.6288733,-1.9545883,-2.2108305,2.4972594,-0.52718276,-2.175089,-0.843425,0.4498735,-1.6427548,0.079553835,-0.5487965,-2.1357677,-1.9965899,1.9687344,0.51226735,-1.6747673,0.22854988,-3.9286973,1.0812885,2.3905244,-0.26241696,-2.5309093,-1.0249764,-3.070253,0.8646386,0.7114045,-2.793884,1.9547085,-0.4620521,-2.0987942,0.21392938,-0.3337682,-0.20015278,0.834748,-3.3628225,-0.44370335,-0.17012744,0.07482809,-1.1506125,2.6155732,1.7717042,0.24602033,-0.27246797,-0.10409768,0.26631355,0.41072503,2.4868913
relacion,3.126718,-1.1733991,0.78648555,0.6474862,-1.5748271,0.9372089,0.11867986,0.67152494,0.8769044,-0.4049941,0.7246861,1.9756866,-1.8875364,1.8245337,0.5222645,1.9972168,-0.4890175,-1.6785356,1.3888102,0.598484,0.32515734,-0.09078766,-0.6214209,-1.5334853,-0.2541275,1.0794203,0.9042536,0.6036612,-1.116503,0.256902,1.6749526,-0.89953226,-2.006484,-2.7774417,-1.0135559,-1.1646645,-0.6685322,0.72829276,-2.3244145,1.6366342,0.5022526,-0.24244066,1.4321785,-0.35055286,0.7677141,-0.4868073,1.9055012,-0.25142306,0.5381221,1.4679903
coincidencia,2.977378,-1.2617953,0.37109354,0.76999384,0.11015504,-2.0801609,0.87344766,3.4357877,-1.4701906,-2.0944717,2.6747084,2.488845,-0.26378646,1.889775,1.4546762,6.8988905,0.009480844,0.31618145,1.8539046,-2.9957325,0.83194196,-0.6523726,0.0019203824,0.24871923,-1.3669192,-0.26949635,1.1559371,1.964758,-0.99944186,1.6088433,5.046154,-1.5617963,-1.2818533,-1.1228349,0.720235,-1.503543,1.7588564,1.6075448,-0.7944609,-1.8936206,-0.8213311,0.1599532,-2.208437,0.07274941,-1.3691983,0.31967852,2.3002949,-1.3045461,0.10461023,1.7933103
exacta,2.8906713,-1.5965972,-0.24906509,0.5794339,0.27021912,-2.1309662,0.2902625,3.358931,-1.1014167,-1.4157197,2.7218795,2.5184097,0.11573381,1.5739102,0.7995543,6.3265543,0.29782212,0.74149007,1.4848741,-3.3160381,0.6048982,-0.7994511,0.6757514,0.610652,-1.0806581,0.25524944,0.7001267,2.3008986,-0.5440229,1.6012764,5.1056094,-0.962551,-1.3325812,-1.1680723,0.41537565,-1.9962548,2.0932434,1.4357542,-0.6808446,-2.1264591,-0.7435764,0.15054488,-1.9776037,0.47177464,-1.6880804,0.24686867,2.2936914,-1.5273569,0.24072947,2.508471
tomar,2.9620802,0.6131573,-0.9534838,2.4091535,-0.8042824,-0.0077445856,-3.169458,0.23074685,3.4036186,1.9555277,1.2463155,5.9934254,1.1497394,-1.9319216,2.4878588,-0.31153497,0.21185236,-0.7536325,-2.6511226,-0.97027296,0.44578543,3.472207,1.0527803,-2.0805705,1.93185,1.3837274,-1.5309474,1.1280681,0.31148583,-2.8648186,-1.8384482,-0.6275269,-1.0112929,1.1452041,-0.62739265,0.09139879,0.27519155,0.6950342,-1.2173562,0.17932346,1.5528692,-0.42498022,0.11302901,0.37387207,0.9208632,1.0577344,1.6227664,-0.4028651,-0.37334308,0.38389805
automatico,2.9685209,-0.5689511,0.0973275,-0.47728825,-0.26578644,0.10916866,-0.5938879,-0.502921,-0.019956268,2.8326936,4.2262907,-1.6054875,1.0363795,-1.4928287,-2.2184277,-0.45348507,2.4451058,3.2704449,-1.1067712,-0.5567125,-0.36106643,-1.7856636,-0.22851187,-0.32679448,-0.8122574,-0.30359438,-0.29030654,1.0064806,-0.6541781,0.86105555,-0.27906585,-0.6770901,-0.29810387,-0.8408502,-2.2671626,0.13965575,-0.4804824,1.5875794,-0.49355912,0.26163772,0.5367373,0.5716571,-0.14857018,-0.45685598,-0.9604833,-0.89361537,0.37710568,-0.3059681,0.665436,-0.8723437
crear,2.6334884,-1.2437413,-1.249212,0.4896925,1.1172674,-0.2707322,0.5580882,0.216803,0.05612336,-1.4321954,-0.56224424,-1.3877054,1.052479,0.23641106,2.058386,-0.2802985,2.640222,0.90426296,-0.6822575,1.4596107,-3.4411507,-0.1706887,-3.0446427,0.8168591,3.324213,3.693852,-1.1877322,-4.6836133,0.53412014,2.4561853,0.46529758,-1.8953382,-1.0909635,0.15623003,1.1902586,1.1550988,1.3094709,1.6009867,-0.20791334,0.65593314,1.2358742,0.7558395,0.8259892,0.89304644,1.1793352,0.698908,0.53773415,-0.96780574,1.6397619,0.17946641
coocurrencia,1.7961489,-1.4616376,-0.60185933,1.2820896,1.5393338,0.7589363,0.16134575,-0.33228803,-0.33487824,0.6299746,0.3237609,-3.057284,0.1537933,0.0023680537,1.5120618,-1.2126583,0.5337892,1.6890734,-0.0518899,-1.3002582,-3.0297098,0.08954518,-2.8770385,-1.9459841,3.5449073,1.5709163,-0.43649015,-3.260268,0.33124197,1.8089697,0.9497724,-3.545284,-1.5253586,-0.70438004,1.6758313,1.4750621,-0.07794899,0.7606766,-0.48102054,2.4386024,-0.34131813,-0.25263482,-1.1692351,2.2422798,0.10379412,0.8601424,0.713874,-0.56203437,-0.40021077,0.8675276
coincidencias,2.476236,-2.1340425,0.537864,-3.0648305,-2.372488,-3.1030598,-3.7120266,1.6796528,-6.728374,4.3784986,-2.8200934,-0.7544686,0.341805,-2.5271041,-0.017065939,-3.76509,-2.8827825,-1.9965608,1.6745236,-0.38067362,2.0032923,1.3090143,-1.3407185,-1.0326595,-1.581318,0.4195789,1.7053314,-0.37012404,3.7753465,-0.31631842,0.9312725,-1.4647492,-1.410485,-0.31871754,-0.117381625,-2.5323074,3.032885,3.0045187,-0.08941976,0.2596374,-0.2934222,0.7295648,0.31532714,-0.31241438,0.9348495,1.6694605,0.38285506,-0.525245,-0.71155775,-1.3305497
completo,2.857081,-0.03775743,0.32376832,-1.7167797,2.1933475,-0.5505386,0.31276545,-0.46645412,-0.19016136,-1.9891566,-2.103725,0.33003488,1.8134435,0.3688184,1.8709898,0.53211033,3.5558724,-0.37462923,-2.8363578,3.903428,-3.8805661,0.51020586,-2.5565093,3.7756543,1.837796,2.8132718,-0.52888185,-2.3242953,0.8865244,2.6767797,-0.3113866,-0.119003944,-1.2315693,2.153367,-0.7945203,1.0212848,0.95805705,3.198601,-1.5603108,-1.529053,-1.7775383,1.7460524,1.1481704,0.5542311,2.3833864,-0.24300972,2.155798,-2.696306,-0.75495327,0.47176647
comparar,2.3375456,-2.9212704,-0.47421092,-0.37853926,-1.1361517,-2.807352,0.6525221,3.3286715,2.3116395,-2.9827282,-1.1895386,-1.1260847,2.0651515,0.2471088,0.0031710153,1.1318877,3.3647292,-0.07749278,-0.91461223,0.31456834,-1.5540447,-0.8312428,-1.2448801,1.4724499,2.618997,2.5769088,-2.3704433,-4.6416116,1.0108132,1.774786,-0.19674352,0.34385198,-0.78321636,-0.47126907,1.6763014,0.10618343,3.0206573,-0.5108096,-0.13875608,-1.3790332,3.2080922,-0.71242666,3.595245,-4.2471614,-2.2746096,1.4221928,-1.2772998,-0.7430762,-0.87091625,-1.4764018
busca,3.077252,-1.4973778,1.3549737,-2.6753356,-0.46480036,-1.9481189,-1.0642878,0.9166079,-2.0613635,2.270324,0.35240495,-1.4999318,-1.0246799,-1.4719304,-0.47394106,-1.7076005,-2.2410624,0.3536358,-0.5100343,-1.1615723,-0.22766721,2.257803,-0.12733611,0.9849288,-2.0867383,1.0415865,1.6903508,0.26035523,1.251609,-0.40711412,0.72987676,0.6616333,-0.13055529,0.0660728,0.14883666,-2.7738614,1.2311685,1.9036511,-0.5817658,1.2878786,-0.21397398,1.6565785,-1.3058834,0.18839067,-0.37430787,1.4681882,0.39212453,-1.0628314,0.8530561,-2.5809996
escribe,3.2895734,-1.8470695,1.7428526,-2.184827,-0.5809795,-1.3587023,-0.8929059,0.3476912,-1.0585324,2.788542,0.5242511,-2.379055,-1.2856705,-1.929095,-0.6856444,-2.2447827,-3.435077,-0.43488088,0.23541841,-1.4104875,0.62747985,1.3773651,-1.8425585,0.9496812,0.38426208,2.135646,1.7064201,-1.4445201,-0.10755083,-1.4699394,1.2857697,0.2766239,-0.5078876,0.49008068,0.6281514,0.1212004,-1.6237885,1.8045174,1.678913,-1.8519176,0.045531638,1.8096914,1.7479194,0.0487816,-0.27869877,0.755087,2.4155357,1.6257358,0.63704497,3.074052
cambio,3.244051,-0.19628786,2.6865263,-1.9825633,1.4671816,-0.30081758,1.0099447,0.09303341,-0.55543625,-0.43438247,1.0332412,0.13815776,-0.5529709,1.7010974,1.6160822,2.9013758,-1.3666309,-0.035841975,2.6573987,0.79468876,0.37067035,0.9517908,-0.13027196,-1.7261257,1.391336,-0.17058203,-0.107221544,1.4685916,-0.75997245,-0.8853601,-0.46826303,-0.3225757,0.7430122,1.223751,-1.0163409,0.7157029,-0.090278916,1.3185296,0.7845353,0.64987564,-0.2591481,0.5677938,1.4666653,0.16612156,-0.4011808,-1.736797,-2.4892037,-0.5743997,0.54273045,-0.6802246
entrenamiento,3.460935,-0.17008512,1.9297369,-3.0779862,1.2342906,0.22992511,0.28723922,-1.5968521,-0.7672698,0.531266,-0.37444288,1.6529639,-1.2369101,1.1210488,-0.71245354,-0.5397407,-1.4001725,-1.5326912,0.9456245,-0.578905,1.2036027,-1.0087507,-1.5644629,0.42486313,-1.5293372,4.039545,-0.7809715,-0.6090121,-1.7981153,-0.28862727,2.872902,-1.7734647,-0.41961646,2.6209226,-0.48039535,1.4060575,0.53502065,-2.598192,-0.47283864,-0.15891835,1.6205019,-0.6286125,-2.1585248,0.35645428,-0.88965976,0.81526965,-1.657986,0.96457475,0.80803144,-0.98195827
persona,3.3875504,-1.0014255,1.4389948,-3.9631662,-0.75796574,-2.5278444,-1.3536308,-0.4213906,-0.33221573,1.6620702,0.691044,-0.40615365,-1.4651761,-1.368489,-1.4923811,-1.934015,-3.2212934,-1.1096001,-0.22654812,-3.554906,1.0716549,-1.1740395,-1.1114784,3.4232504,0.081159964,3.5125422,0.21699515,-2.0857327,-1.1013329,-2.3876798,0.674483,0.3065913,-0.34826517,1.688956,0.4950766,1.7018725,-2.0913007,-0.3643485,1.8908172,-2.4281027,1.0051959,1.0612993,0.67495626,-0.6084695,0.16418706,-1.9884384,1.333066,2.6423628,1.1485727,4.8141036
metrica,2.1546376,-2.9878895,0.046184704,-1.3964415,-1.7375432,-3.1670117,0.36197802,4.44608,4.4033475,-3.0236263,-1.3889568,-1.6922832,2.1295433,1.0817664,-1.4341726,-0.4628529,3.305731,-0.44971237,0.044452578,-0.59852296,1.0144799,-1.6938859,-0.0974459,-0.6997091,1.2381634,0.9278987,-1.9608564,-2.2201476,1.0248373,0.82137924,-0.5424221,-0.019867424,-0.0942337,-0.0058365692,0.75795853,-0.1587872,1.8271587,-0.7819344,-0.8898083,-0.8867643,1.6634872,-0.14018619,1.4099663,-3.4140394,-2.7212198,0.8455876,-1.7569934,0.36520484,-0.20834588,-0.2584537
direccion,2.1815805,-3.2880816,0.6829473,-1.70915,-2.671697,-2.7636838,0.7298582,4.5361776,6.6291995,-3.4236557,-2.0325508,-2.1905825,1.4954906,2.2290149,-2.5230818,-2.1929872,3.1000326,-1.1604735,0.8720628,0.47322887,2.4438548,-1.4951476,-0.5702419,-3.1015399,-0.42641896,-1.0780506,-0.9861452,0.11522609,0.49558803,-0.07559373,-0.47279325,-1.1168504,-0.2472682,0.06834812,-1.0168103,-0.962076,-0.27177447,-0.12769032,-0.45872596,1.1595658,-0.44781658,0.7398589,-1.4256082,0.079819314,1.257728,1.078813,0.08653436,0.39054462,0.27139837,-0.18416107
apuntan,1.8686656,-2.6105156,1.0013471,-2.0851216,-2.4623647,-2.4909837,0.5579276,3.757522,6.5277805,-3.0520976,-1.7308241,-2.657795,0.80662477,2.2251494,-2.5854099,-2.8020175,2.4443452,-1.3563734,0.88901913,0.9691142,2.9966366,-0.6146546,-0.31416342,-3.6270473,-1.0418351,-1.635251,-0.4585703,0.72275764,1.09352,-0.8141609,-0.8389274,-1.342287,0.23897332,0.41803336,-1.6644789,-0.92539185,-1.2798587,0.39495283,-1.1191254,1.4332802,-1.6424901,0.93360037,-2.337123,1.0717208,1.5071769,0.5840529,0.42270064,-0.20508862,-0.2398184,1.009512
entrenado,3.4279,-0.37740505,2.0013673,-2.6533122,1.0701578,-0.93496984,0.014172314,-0.3558907,0.3964701,-0.47582692,0.36782083,-0.27834827,0.40058327,1.650232,0.42819294,0.4866435,0.5953145,0.5553914,-0.92233986,1.3315305,0.6150353,-0.26402202,-0.28759632,1.4633682,0.108632274,-0.39359245,1.8228048,2.5330107,0.26170155,-0.5130236,-0.13668966,-0.06213426,-0.8861951,0.09348513,-0.94877213,1.7675774,-0.56730264,1.0987909,1.3497671,1.5033128,-2.0597835,-0.7811098,1.1099031,-0.5261138,1.2811766,0.6446258,0.60666794,0.34501684,1.009567,0.43576512
contenido,2.8318195,0.13505548,0.85756004,0.48730618,3.4216635,2.6952338,0.6635327,0.6038439,-0.78603446,-0.054303434,-1.3191768,-0.4820316,-0.4024915,1.3200532,0.33843064,-0.6667809,0.30847397,-0.18007807,-1.6040832,3.1572824,4.2722144,-0.29547495,-1.5737165,1.019528,-2.5164282,3.7704852,0.29702073,0.4388933,0.7300475,0.5985946,3.6719947,-0.0006113796,-0.5345075,4.283342,-1.9944654,2.1088245,0.4231258,-1.8042328,-2.1387258,-1.7393125,1.1271547,-3.721965,-0.82402915,1.4739082,-0.8484499,0.28312677,-0.3245051,0.68986255,1.7376204,-2.3613274
claros,2.8076653,0.5763118,3.240895,-2.4429016,2.895567,0.45165133,0.75386167,-1.560971,-0.10705608,0.41908932,-0.91769993,0.41018605,0.9341957,1.7640929,0.7188928,2.301331,-0.07171551,-0.26039502,2.3470428,1.3431597,-1.6376729,0.48802772,-0.2841112,-1.6114429,2.106043,-0.56138456,-1.1855584,2.592673,0.45037538,0.19038653,-0.9871978,0.41734853,0.31274214,0.64758015,-1.8676205,-2.0074618,0.49840313,1.1579889,1.8063803,-0.50274,-0.27508503,2.279864,0.981526,-0.13022998,-0.20159519,-1.744874,-3.374874,0.6653831,-0.10707886,-0.5218756
amplio,3.427518,0.6545391,2.8093452,-1.5056291,1.7034363,0.022866746,1.0613312,-1.1809338,-1.6205118,-0.9760352,0.3669449,1.078087,0.17736556,2.4764645,0.50111496,2.965386,0.41113,-0.5767096,1.2511836,1.5056742,-0.06125863,-0.44163352,-0.71961296,-1.1448439,1.2294079,-0.9612626,-0.30742028,1.622123,0.88471127,-0.6824949,-0.23094739,-0.22048569,-0.7577853,-0.40586302,-0.9887514,-0.1696619,0.009077666,0.41015226,1.7870007,1.2437525,0.5968272,-0.51975274,1.0875348,-1.0996041,-0.40712005,-0.7769528,-0.9994595,1.5899912,0.57597435,-0.36224875
textos,2.347897,4.2527266,-3.700079,1.6963297,1.2263685,-2.366557,-6.754293,-0.32341456,0.75930667,-1.8480827,-0.4419287,0.12315657,2.2431917,2.6570594,-2.5505478,1.0494745,-3.2242517,0.21905576,-0.9848743,-0.28462356,1.6294525,5.3749537,-3.049833,0.11689889,-0.82365346,-1.2629682,-5.531937,-0.7439823,-1.7617658,2.312082,0.7019705,1.0525209,-2.35615,-0.6359477,-1.8398645,0.08504037,-3.5377858,-0.052957274,1.3737093,0.4027091,-1.0699154,0.13711724,-0.49975425,0.62662,-0.4866547,-0.33292678,-0.5671565,0.3183453,0.83565307,-0.9252693
salida,3.239948,1.2493612,3.1417706,-2.9399688,2.9101028,0.20597577,0.32803813,-2.66913,-0.83545625,-0.113910474,-2.3169076,1.5209451,0.73927456,1.6584482,-1.1227236,1.1838874,0.62880754,-0.93234926,-1.4756764,0.8533984,-2.6631699,-2.134444,-1.2520967,-0.31314063,2.1518798,-2.186215,-0.81205326,1.7818232,1.2236974,-1.0619379,-1.2076441,0.83295834,-2.3570747,-1.636073,-0.19662866,-1.7669035,0.14314032,-0.13066436,1.9258969,-1.0970163,-0.3314605,0.31604415,-1.2786913,-1.7796645,-0.5027362,-0.22745718,-1.0197484,1.4015378,-0.3603516,-0.19297029
representan,2.8682783,-2.7564106,-0.6274168,0.8499597,1.0739402,-1.7310714,0.21425685,2.8735027,-0.74744433,-0.70366186,-0.52869,0.97959036,0.2467355,0.40973708,1.137836,1.5361733,-0.7743462,1.1817217,-0.5063111,-1.9850043,-0.7471482,0.31851813,1.6013497,2.4366393,-0.3557637,0.2800887,-0.46976465,0.8635169,-0.42935303,-1.601477,-2.056043,0.75764865,1.0758402,-1.2082367,0.33908597,-0.7702562,0.47222665,-0.0968595,0.10442979,0.40322188,-0.586016,-1.0985669,-0.5288837,0.5728246,0.05727879,0.8712455,-2.2549496,0.46843162,0.90407455,-1.797086
finalmente,3.3800447,-2.147374,-0.09305172,-0.15817986,1.5929008,-1.2468694,0.49211162,2.6773138,-0.66192675,-1.3082355,-0.8160283,0.030608265,-0.15181713,0.502448,2.0387526,1.6126087,-0.8631431,1.0619594,-1.3717623,-1.1036487,-1.6586806,0.36826587,0.87167966,1.2918984,0.36780262,-0.0057999436,0.20665015,0.6953788,0.3328998,-2.6026013,-2.2822075,0.44925672,0.1388853,-1.5918084,0.54683906,0.4487204,-1.1404386,-0.3635046,-0.2991705,1.8691343,-2.1039279,-4.1433415,-1.2637905,-0.3741598,-0.38236603,0.6847307,-1.3208157,1.2818788,-0.24897137,-0.8056988
comprobar,3.3653204,-1.4943004,0.53466,-0.41124552,-0.3690175,0.55274636,0.6257826,-0.61116034,-0.3613111,-0.19534998,1.798593,1.0413266,-0.593215,1.0051638,-0.22159536,-0.58226824,-0.5601511,-0.24429317,0.2003474,0.21755178,0.05607976,1.643301,0.82027817,-0.9976401,0.88063335,-0.7268937,1.4969598,-1.4992465,-1.6390464,0.16902216,1.8729416,-0.38022983,-0.9244662,-1.288532,-0.7892612,0.70364136,-1.5993514,1.0241675,-1.6310863,0.72180194,0.8686194,-0.6871532,0.4410925,-1.3991838,0.04371616,0.7360659,0.35498983,-0.3654819,0.51464295,-0.16311125
tema,3.165486,-0.48915812,1.1022699,0.40917766,0.23473494,0.287328,-1.2339557,-0.251267,0.5832809,1.2415264,1.0514311,-0.025371592,-1.4991908,1.8758475,1.4954103,0.7247077,-0.26240513,-1.3228382,2.6194708,1.6592866,0.08332834,0.4394868,-0.072208315,-0.58414954,0.7257807,2.1690342,-0.37298474,1.1698154,-0.6327786,-1.0582712,-0.2081776,-0.20964278,-0.40225732,-1.4554045,-1.699408,0.7611292,-0.45571837,0.87904155,-2.1223607,2.3123658,0.08812816,0.6722102,1.7733041,-0.45158342,-1.0485562,-0.47731504,0.14962229,0.8217291,0.92496073,1.1440718
explicacion,3.306744,1.7552245,2.0733328,3.340484,-2.0222616,1.3152277,-2.314358,0.3480625,3.4763048,2.7158864,-0.79952794,0.08251507,-1.2263559,-0.5775653,3.7455666,0.70601064,0.05461584,-2.2681813,2.341416,1.8955464,0.39173156,-0.078350395,-0.45850104,1.4295412,-0.74374795,2.4567182,0.97342676,0.24301428,-0.077708215,-0.06937994,-0.0035556327,-0.18466435,-1.9198214,-3.6208627,-0.79975414,-0.054443907,-0.8483665,0.20920071,-2.1723738,1.2415878,-1.1127224,0.9516695,-1.0123638,-2.7240496,-1.5789618,-1.4433224,-1.229695,0.50145096,0.96192795,-0.060931444
area,3.0512698,3.5226061,-2.8230178,0.50718015,-0.13748808,0.1276255,-3.7731276,0.69852465,3.313487,-0.23762186,1.2070084,2.7247355,0.6810556,-2.2545607,2.0976737,0.17667148,-0.6543792,0.5008561,-2.9485009,0.8044101,-0.64887977,3.9867907,-1.4530213,-3.2167494,-0.25255042,0.082598194,-2.5088127,1.758953,1.9150631,-3.473823,0.6939529,-0.8049047,0.15332739,2.5960257,2.2741613,-0.17202333,0.40552858,1.0118693,0.47025922,0.3693649,3.034768,0.16495273,-1.3112873,-1.5226784,0.44596064,-1.2958964,0.98376673,-0.7334044,1.5216545,-0.5681651
respuestas,3.2630882,2.3182995,3.2286723,2.4968038,-1.1638544,-1.2532282,1.733401,1.7480055,-1.8379934,-1.9843885,2.1224391,1.1167679,-0.9694161,0.53893805,2.1387846,3.7457297,0.18783443,-1.0142914,0.8508503,-1.1365924,2.0667455,-0.9736134,-1.2216849,-0.471625,-0.8464936,-1.7905912,1.5118328,-0.9019905,-0.91499543,0.6766078,1.06882,-2.2250385,-0.06426859,1.9080007,1.280189,0.79276395,-0.49854547,1.9809561,-0.05501165,-0.945718,-1.2917668,1.1043487,-2.42395,-1.1542474,-0.52429456,-0.018306559,0.12872215,-0.66773707,-0.41876945,-0.69736767
frecuentes,3.1359336,4.126057,4.599886,4.538952,-1.4273118,-2.5163586,1.6841257,-0.35847592,-1.9650736,-1.0918658,0.8009208,-0.8313848,0.039529487,-0.23702124,0.093831845,-0.43149084,0.36308026,-0.30753687,0.7313874,-0.70881104,0.6394989,-2.1114843,-0.23891358,0.16068712,0.7459638,-2.4970598,-0.89106554,-1.1955394,0.36058196,-0.73357195,-1.5305516,-1.229429,1.3430393,3.1370313,2.381004,-0.99128544,-1.6137205,0.55569714,-1.0069597,-1.3038062,0.6588416,-0.40048224,-0.9476751,0.7401376,1.0106498,0.2902681,0.70280004,-1.6910211,-0.53507566,-1.9851906
apoyo,3.11503,2.4047296,1.7739573,2.654159,-2.3581855,0.7650411,-2.8358176,0.07387584,5.426685,3.2077057,0.7254681,3.2823694,1.8858407,-3.662538,3.9284065,-0.1661271,0.03419483,-0.42692545,-0.82571495,-0.7201793,1.3785206,2.405837,-0.4019777,-0.49568078,1.5470414,1.1289511,-0.53385705,1.3097429,-0.2611344,-0.8330934,-1.1986034,-0.6637054,-0.9636551,0.095775336,0.76453006,0.711472,1.41413,-0.36282253,0.15094557,-0.20200244,0.1981941,-0.53736156,-0.8424298,-0.45999178,0.58351755,0.30751312,1.0230621,-0.1142238,-0.2959738,-1.35738
ejemplos,3.1181674,1.0847864,3.4238117,-2.6602998,1.841253,0.115219,0.08010579,-2.2110007,-0.29141316,1.2652078,0.54557,-0.30120483,1.619897,0.5100481,-1.0289317,-0.14262004,1.8154424,0.5734717,-0.39136747,0.71430993,-3.243683,0.5014361,-0.5678761,0.2177181,0.87688285,-2.8364959,-0.5663807,1.4574869,-0.15179598,0.84833497,-0.033851102,1.0380192,-0.46481383,-0.48148504,-1.840912,-2.9821236,0.68294656,-0.3117074,1.0106002,-0.6069197,0.35879007,0.36256027,-1.7825129,-1.3325047,0.29301023,-0.34187958,-1.8792671,0.54226416,0.94625175,-0.9426999
decisiones,2.728244,3.660228,-1.4718874,-0.19765179,-0.6122077,0.24576078,-4.85271,0.6176657,3.5686698,0.43164927,2.1362932,3.799216,2.744442,-3.330845,2.2920449,0.49647388,0.2556926,0.23587497,-5.8873086,-1.6528481,2.5430028,2.175941,-0.30534846,-3.2596314,3.1978247,0.09626567,-1.5018864,2.4590764,1.0789459,-3.5457172,0.36773974,-1.4718589,-1.0636482,1.3131922,1.3526318,0.76792186,1.4282097,-0.16316806,1.0687474,0.51354027,3.9381142,1.3524243,-0.051765278,1.5906968,-0.6913637,-0.2771885,1.5481207,-0.5595982,0.39768964,-0.13108651
seguimiento,2.485063,5.1954503,-2.132962,2.0859637,0.8579769,-4.734261,-5.803103,-1.5885468,0.067643434,-2.0085068,-2.176029,-0.8715286,1.826647,2.9764915,-4.945603,0.8518414,-4.380882,2.5210004,-1.7669927,0.2589459,1.2337605,-1.3499523,-0.8176544,-0.45191815,2.2638795,1.3093451,3.2016313,0.02169467,-3.7069087,1.7106271,-2.340636,0.06300742,0.50222546,-0.99420226,-0.47728586,-1.0779426,0.4983571,-0.99920785,-1.5145116,-0.22685692,-0.44014215,-0.59592235,0.807373,0.3833105,0.044635773,0.48470336,0.27243873,-0.7742615,-0.17820244,-0.5780581
valiosa,3.2254748,3.9003735,-1.5127486,0.80924726,0.6296746,-0.71621466,-1.0115782,-0.70478433,2.1631591,0.22703844,-2.4690292,-0.523471,0.104242004,-0.14747201,0.74447596,0.45013946,-1.2466074,1.7469565,1.7261082,1.9662133,-1.1055237,-1.4664469,1.4155111,-0.534266,-1.4008458,0.028832274,4.230528,-1.8226067,0.7082646,0.79227316,0.7631181,0.6987924,2.2819388,-1.675977,0.014332623,0.81840956,0.38382643,0.166169,1.681365,1.6157545,1.6556408,-1.0679615,1.2024108,0.4853503,-1.8035474,-0.40637967,-0.69336,-2.19032,2.0721483,1.7381649
ayudar,2.9722376,2.3416524,-0.33366847,-0.27359223,-0.3343648,0.039206166,0.34366837,0.1639316,-0.5395482,-1.9952891,2.090864,0.20740019,-1.0479288,-0.69240844,2.4832647,-1.716896,-0.04149827,1.152326,-1.3621608,1.0595025,0.85676324,-0.8486702,-0.5016243,-0.4675233,0.04092772,-2.3599381,-0.16059862,-0.11015414,0.010574373,0.41189706,0.3160197,-1.123621,1.3074514,0.8936607,2.0489466,-0.6765276,0.3679949,-0.08304719,0.33600202,0.18746437,0.6970165,0.38338536,0.27269223,0.6656694,0.36566055,-0.026009372,-0.7031464,-1.4318882,3.0762143,-0.33209038
sistemas,2.8413043,4.502469,-5.2705245,-0.5639712,-0.4064127,-0.92159945,0.6092082,1.1756619,2.8152943,3.1912363,-0.98473436,-0.5331505,1.271375,-0.5890438,-0.56359744,2.6572654,-1.4857299,1.0334092,2.0616639,-0.28047058,-2.2419572,-2.3862877,0.14970313,-0.07313518,-1.0146296,-2.2323465,1.1561689,-2.4058118,2.2919323,-1.5300063,4.385015,2.727691,-0.15528627,0.7103689,-0.21518447,1.7771522,0.64863896,0.11332786,-2.4374273,-0.0017585264,-1.8386123,0.95196706,1.5058448,1.5969108,1.9406724,1.4206871,-2.396364,2.1859891,0.78681713,-0.5420093
recomendacion,2.6157799,4.236837,-4.773301,-0.21328168,-0.1849584,-0.8725517,0.3958102,0.16316712,2.847941,3.035442,-1.4802457,-0.5902407,0.9060692,-0.033613935,-0.044076808,1.9516877,-1.4356909,1.2973555,2.3423667,0.76606953,-1.9557059,-2.1523435,0.4346236,-0.16623387,-1.3585817,-1.773775,1.9698138,-2.526851,1.8728939,-1.440627,3.1429703,1.8430883,0.020341434,0.33635724,0.16289994,1.4841492,0.27499953,-0.23301367,-1.3512315,0.53601193,-0.7973556,0.7682617,1.5574648,1.2442648,1.5057515,1.3689408,-2.3703134,0.47369224,0.5781906,-0.23553143
recuperacion,2.702185,3.5261219,-5.2439194,-1.6406801,-0.60987717,-0.4289193,2.48165,-0.019978222,1.2686032,2.668485,-1.0986822,-0.36511606,-0.39683253,-0.5810407,-0.28198197,1.8576525,-0.021158444,1.5401531,2.7281835,-0.28197956,-1.1350119,-1.2399502,0.5683829,-1.1403482,-0.70525914,-0.96141255,0.07180729,-1.675319,2.0480967,-1.0355482,2.1902766,2.1686518,0.0985055,1.515241,0.8155575,1.2316124,-0.28598508,0.07448153,-1.2630651,0.29643875,-1.7304293,0.079375215,1.3738275,0.630754,1.9658202,1.9136333,-1.8196455,1.0721643,0.5752587,-0.6938037
etapa,2.9719045,-0.9958622,0.35259292,-0.051815473,1.0345244,1.063975,0.39257094,-2.2185242,-0.9488046,0.39791498,1.8322912,1.4048642,0.89135957,1.63794,-1.4505718,-3.3692954,1.6063731,-0.57390654,-0.9276636,0.39081,1.1091375,2.0656,2.162009,-0.8917671,1.1660335,-3.073145,1.7742295,-3.538571,-1.9374206,1.4777138,2.866831,2.2255387,-0.004684159,-2.3510215,0.99434686,1.0484952,-0.15251864,2.8584294,-2.8095155,-1.0068355,0.7573198,0.0841157,-1.3454586,-1.9063623,-0.5268378,-2.0522306,-0.68470544,1.207409,0.89664835,-0.5308485
carga,3.1596372,0.8856287,1.3627986,-2.8940852,2.692899,-0.32611614,-0.49183512,-0.6989699,-0.4860052,-1.4278147,-0.9765656,0.064617656,0.9605726,1.6158798,1.0532411,0.27810892,2.1138694,0.18173295,-4.1574836,3.431493,-0.6144546,-0.6988924,-1.3100742,3.41286,0.39559913,0.82511026,2.1367507,2.0551674,1.9596047,0.3429894,0.046452172,-0.02327782,-2.0883107,1.1972778,-1.5020679,1.8875324,-0.3385688,1.2571833,-0.5623486,0.47276065,-3.4772544,-1.4014988,0.4484233,-0.81760925,1.7858465,1.1150441,1.2441798,-0.7403969,0.8660394,0.11423437
transformar,2.265799,1.6439618,-1.6302435,-1.0791482,-0.49471602,0.81451845,1.4892745,0.822251,-0.91790074,-1.6668634,1.4609053,0.68317586,-0.9176256,-0.46591973,0.26324174,0.016651765,0.06280131,-0.46746573,0.7114862,0.2753328,0.26232925,0.0033705144,-0.057055388,-1.0866274,0.17655364,0.8741908,0.9734969,0.29510024,0.93935025,1.5055686,0.2562426,-0.22647616,0.33720464,-1.4734355,0.62655306,0.7627664,-1.1740445,0.10537995,0.47165418,0.1304849,-0.04065187,-0.42627397,0.7321413,0.30445194,0.6337435,0.03233653,-0.1539693,1.1494064,2.306943,-1.321062
organizada,1.7907459,2.413722,-3.1063862,-1.2975259,-0.102665395,0.665863,1.7854072,0.6231166,-0.34026796,-1.196249,-0.5359885,0.9726721,-2.7433693,-2.5909123,-1.48938,-0.78979486,2.6487994,1.4245939,3.6911476,-1.4045722,0.04260663,1.2246454,-1.530492,0.35604414,1.7289554,0.46974942,1.3154658,1.6265435,1.665048,0.52695227,-0.5036815,0.58117354,-0.63433003,-0.8302972,0.6265731,0.59928465,-1.3661846,-0.7357091,0.28612173,-0.537587,-0.20545404,-0.22427511,0.39973179,0.12152149,0.3502159,-0.58349603,0.12071628,-0.17516816,1.5036205,-1.2517495
util,1.5550473,2.3016927,-3.1060965,-1.2191261,0.30362532,0.8428235,1.518794,0.35925543,-0.36512363,-1.4231648,-0.92084295,1.1848806,-2.7979016,-2.774185,-1.8461877,-0.88398665,3.7017186,2.1057034,4.738729,-1.5238671,0.5259142,1.9215717,-2.0312097,0.92021936,2.136049,0.29423043,1.8123686,1.5471528,1.3693992,-0.5297954,-0.70874065,0.42242056,-1.5304643,-0.6796494,0.5551037,0.115635544,-1.2613764,-1.2498417,0.038829923,-0.62349105,0.02100579,-0.08947924,0.26367176,0.060264304,0.28451476,-0.6461059,-0.043255955,-0.71447,1.3571495,-0.940454
computacional,1.1753173,2.4206908,-2.5448923,-1.0000122,0.75600356,1.1543621,1.5975558,0.49518496,-0.768751,-1.7869824,-1.823326,1.2317985,-2.9332178,-3.1051388,-2.3984601,-1.2661543,5.2473793,2.4294696,5.513116,-2.0575242,1.73966,3.695845,-3.1032035,2.3354702,3.1101353,-0.3731706,2.5586321,1.5466383,0.34497586,-2.0179112,-0.8530456,0.891897,-2.4248958,-0.5747664,0.0261303,-0.5884915,-0.7439128,-1.6525503,-0.9877408,-0.19937263,0.35080424,0.28380138,0.23361056,0.23587935,-0.10263368,-0.14535248,-0.270959,-1.1084006,-1.3322393,-0.112395614
actualidad,1.1268008,2.381277,-2.183734,-0.7228251,0.91719365,1.1497526,1.5403216,0.44875583,-0.9681853,-1.9514832,-1.9772111,1.1736147,-2.6560442,-2.8764184,-2.4478717,-1.4232078,5.50999,2.5676503,5.381849,-1.9408202,2.2644675,4.169122,-3.1780527,2.6809423,3.1544213,-0.3476118,2.7996283,1.3344861,-0.21813086,-2.6109219,-0.8036167,0.8526219,-2.7065349,-0.4532353,-0.14329274,-1.0214322,-0.27927274,-1.7609746,-1.324638,-0.06211122,0.48256856,0.46265164,0.05000069,0.3661672,-0.23320186,-0.03370377,-0.481309,-1.109839,-0.5354298,0.43711224
instituciones,1.3171113,2.2868571,-1.7726296,-0.66052884,1.0076412,1.2230388,1.3840196,0.3454258,-1.1260517,-1.9576347,-1.7554678,1.0751208,-2.0102265,-2.3120635,-2.0133808,-1.456528,5.178073,2.1925113,4.4011073,-1.5253296,2.565266,4.016526,-2.7675858,2.6805518,2.6475909,-0.4885669,2.5290282,0.7629465,-0.6336231,-2.4180052,-0.5132147,0.7016307,-2.3060153,-0.43288186,-0.2009531,-0.92633206,0.047713075,-1.4090693,-1.2696077,0.16195007,0.4403307,0.52092814,-0.023318937,0.36723965,-0.22397424,0.13697062,-0.4830638,-0.8936624,1.2688717,0.65832317
producen,1.1840154,2.1973732,-1.1830573,-0.07976066,0.8826957,0.86283726,1.422209,0.26427087,-1.4494398,-2.240912,-1.539991,0.9006741,-1.4864173,-1.7797152,-1.9442394,-1.75169,4.9661813,2.3831496,3.8623393,-1.170846,3.0351517,4.248555,-2.5296645,2.620681,2.5591898,0.119309224,2.9411533,0.65318745,-1.0493639,-2.623032,-0.4543254,0.5644292,-2.4907858,-0.51444346,-0.12976727,-1.2955883,0.44799954,-1.5480982,-1.414775,0.11061766,0.38816768,0.60503703,-0.24376367,0.58005,-0.20098396,-0.05810341,-0.738242,-0.6938153,1.0920305,0.9408667
cantidades,1.3386208,2.1285675,-0.64617133,0.5569032,0.9733125,0.635469,1.4127134,0.32563555,-1.6066395,-2.2296238,-1.4991624,0.61242723,-1.0462751,-1.2020993,-1.7887846,-1.7191075,4.1766405,2.2253761,2.932492,-0.7410472,2.9970546,3.8510647,-1.9427916,2.2412624,1.9689789,0.60669285,2.6010327,0.51241654,-1.2695134,-2.5193994,-0.25088745,0.38273156,-2.0419762,-0.22349493,-0.21234988,-1.5282094,0.88252723,-1.2568544,-1.3118731,0.1103325,0.40938908,0.6041628,-0.4474392,0.7171134,-0.24265328,-0.08004866,-0.8199048,-0.18156923,-0.3861426,1.141953
escuela,1.5634217,2.8644907,0.57713336,2.1749647,0.44794992,-0.6622213,1.4032624,0.11676574,-1.917068,-2.448707,-1.5107704,0.007840818,-0.12528598,-0.18379706,-1.9747962,-1.667217,2.0437186,2.0808966,1.1608546,-0.059739236,2.2657535,2.5212119,-0.6429961,0.8238824,1.0410652,1.5836095,1.8908937,0.07488763,-1.8470877,-1.7467275,-0.22492844,-0.20099434,-0.9502106,0.20824136,-0.25191888,-1.5895009,1.4919904,-0.25504583,-0.7018834,-0.033416927,-0.083893634,0.14550352,-0.6191854,0.31999797,-0.23557249,-0.20526342,-0.45661125,0.6520473,0.2250262,1.0094756
evaluaciones,1.526601,4.2255034,0.9023318,3.065908,-2.008943,-2.4546187,4.0526357,1.1525388,-2.153982,-1.0912657,-1.0952306,-0.9612935,-0.6642465,-0.005933119,-1.8597827,-1.4676828,-1.0182704,-0.7746702,-1.5466883,-1.1374549,-0.5736902,0.5295527,0.8873652,-1.2396759,1.360882,2.1310186,-0.69561064,2.2999804,0.18243712,1.3194638,0.06450174,0.6423295,0.80714184,-0.6443019,-0.9115227,2.4799752,0.34128335,1.5695317,0.079150945,0.12429712,0.09195649,0.96039987,-0.8791736,-0.49937305,0.5692236,0.2412274,0.25512326,0.82517904,0.9327306,-0.38227206
correos,1.414817,3.8963535,0.43627885,2.3449283,-2.2419674,-2.0876145,4.952396,1.5097765,-2.0125391,-0.04729922,-0.7230885,-1.0124208,-0.7639101,0.13636623,-1.162846,-1.3769332,-0.8189639,-1.9623178,-1.8384768,-1.4948293,-0.6331106,0.63035417,0.6654938,-0.83282024,1.8221895,1.5867654,-1.2217537,3.0202549,0.9304765,1.8809851,0.109983385,1.1070933,1.0203059,-0.9019308,-1.0146554,3.2019265,-0.2526157,1.380819,-0.2111017,0.112244904,1.0025121,1.0746976,-1.2763183,-0.49245867,1.0106341,0.4154329,0.1875071,0.4121934,0.3226172,-0.27078867
administrativos,1.0631905,3.2747724,-1.9107832,0.4613474,-2.0996459,-1.5925803,5.8297367,1.940737,-1.2175376,2.1766822,-0.4085169,-1.1664239,-0.42122713,1.328475,-0.51029634,-1.0655316,-1.3782347,-3.092437,-2.2381217,-1.5510615,-0.32825032,1.2726698,-0.4962783,-0.33960527,3.0041628,1.4364958,-0.7853778,4.204537,0.58047193,3.3462505,-0.54000795,1.8873332,1.8852559,-1.4990085,-1.5099587,3.1098285,-0.22000644,0.96168995,-0.77892256,0.104606904,2.4323125,0.039901208,-2.030557,-1.3227146,1.6070951,0.38589212,-0.088475496,-0.43905142,-0.21976738,0.5791981
empresa,0.9725696,3.0987353,-2.7035651,-0.14523926,-2.055722,-1.4455667,6.2849526,1.9996938,-0.8659901,3.323375,-0.26946855,-1.2355604,-0.0358019,2.0140758,-0.070138216,-0.80936426,-1.3966223,-3.520379,-2.2988398,-1.417857,-0.14001091,1.4141867,-0.89238274,0.040965784,3.1705902,1.0163307,-0.7040383,4.1260633,0.38324553,3.228369,-0.75644594,1.7916224,1.736011,-1.4062417,-1.5143174,2.5409584,-0.22767812,0.4616322,-0.8961379,0.028901655,2.8376775,-0.3311705,-2.101844,-1.4478513,1.5670004,0.281277,-0.21273431,-0.9942214,0.32171753,0.94260013
almacenar,0.89263076,2.9540858,-3.4671538,-0.67135626,-1.9509324,-1.3419461,6.581298,1.961864,-0.50890875,4.361477,-0.17353415,-1.282603,0.43823358,2.7380402,0.29483697,-0.5402763,-1.3856003,-3.6596327,-2.269528,-1.1389213,0.11544165,1.5085032,-1.2344984,0.39020702,3.1057441,0.63682014,-0.49093917,3.6721478,-0.057554957,2.7698686,-1.0099895,1.4075848,1.3891771,-1.1660804,-1.3991119,1.5552416,-0.09029728,-0.05627382,-0.83453417,-0.05256041,2.8364303,-0.7138304,-1.9295264,-1.4643887,1.2107348,0.06127138,-0.23741537,-1.400258,0.34785163,1.1939782
opiniones,0.71478564,3.0514803,-4.0876775,-0.7217616,-1.863483,-1.5615969,6.9843507,1.7307208,-0.16183117,5.4767227,-0.3186961,-1.4233446,1.1899886,3.6191702,0.50195193,-0.17928784,-1.4049459,-3.5322735,-2.070899,-0.8159262,0.16806036,1.405755,-1.2435296,0.5254494,2.870575,0.2964784,-0.44074595,3.00594,-0.3166245,1.827375,-0.87492114,1.0452485,0.8123207,-0.66153926,-1.3378136,1.0386918,0.17106381,-0.40522394,-0.90143126,-0.16709542,2.7229915,-0.6834492,-1.8292943,-1.4660074,1.2675003,0.10635055,-0.5515652,-1.6479386,-0.3011257,1.3792374
clientes,0.6821047,2.9518886,-4.498108,-0.9922615,-1.715741,-1.4852546,7.016887,1.5302864,0.078281604,6.1121244,-0.22492075,-1.3893527,1.6956568,4.1570997,0.8073192,0.04810342,-1.1252468,-3.254668,-1.8976073,-0.38011658,0.48601905,1.3148917,-1.2945479,0.83707446,2.262897,-0.12022018,-0.26171422,1.8878736,-0.84538406,0.7138952,-1.0424272,0.15874028,0.06120797,-0.18111885,-0.9331055,-0.3154841,0.30415478,-0.8340135,-0.4768339,-0.23305684,1.9834844,-0.75841147,-1.2080898,-1.0714176,0.38716608,-0.23050404,-0.3005242,-1.6454773,-0.3514888,1.2007376
solicitudes,0.6698677,2.849827,-4.765295,-1.1748852,-1.5424743,-1.4043732,6.882122,1.2673928,0.25486326,6.473937,-0.122630976,-1.3036853,2.138541,4.532349,1.0486912,0.21530698,-0.75483996,-2.7693155,-1.6690695,0.09107061,0.8049807,1.1537578,-1.2190264,1.0729655,1.4707316,-0.44664717,-0.08500038,0.6364941,-1.3667009,-0.47437367,-1.186714,-0.8332971,-0.71318626,0.2971895,-0.4441981,-1.6419394,0.41226444,-1.1085145,0.08110187,-0.2722831,0.99669206,-0.6977905,-0.48124915,-0.568057,-0.60705596,-0.5766185,0.07714093,-1.3947788,0.26063588,0.824235
contratos,0.7586373,2.5542333,-4.706641,-1.3483437,-1.1134388,-1.0892013,6.041606,0.6565137,0.30713525,6.1682053,0.17842725,-0.9559622,2.6749055,4.5948334,1.3400519,0.27998185,0.2490212,-1.4836643,-1.2365863,0.9267497,1.4617244,0.7684295,-0.7773094,1.3609116,-0.2893729,-0.7961697,0.16964668,-1.6670439,-2.1750937,-2.3738,-1.3966838,-2.5918431,-1.8688414,0.89972067,0.49401218,-3.5446656,0.42411193,-1.0993022,1.2350588,-0.2067529,-1.018399,-0.30732545,0.83566386,0.48109543,-2.3902264,-1.1330557,1.034103,-0.42809853,-0.100323126,-0.19836202
manuales,0.85853267,2.3603275,-4.523647,-1.367023,-0.89912885,-0.91225946,5.4073925,0.31528014,0.2552717,5.5962386,0.3707676,-0.7051504,2.6759143,4.2926245,1.3924356,0.18000811,0.7583602,-0.7076794,-0.97801036,1.2610945,1.65561,0.5199854,-0.47637823,1.3282073,-1.1228434,-0.7326609,0.23862171,-2.4456184,-2.3335328,-2.8758798,-1.4943718,-3.2207508,-2.1344485,0.9819422,0.9065794,-3.977316,0.29553857,-0.857767,1.7503037,-0.15625936,-1.7669251,-0.05037287,1.2517792,0.8531885,-2.94745,-1.2794256,1.4760687,0.12145466,-1.1300358,-0.69747645
mensajes,1.1438296,2.1901453,-3.8689728,-1.3113396,-0.53212076,-0.49816352,4.4274526,0.07021319,-0.00023313916,4.332964,0.46498156,-0.40171224,2.5155,3.6536827,1.3491776,-0.039092347,1.1924535,-0.24159746,-0.85003656,1.3925419,1.9068369,0.50574857,-0.21335526,1.2998255,-1.5069184,-0.7353406,0.3237079,-2.8437505,-2.2240007,-2.6937516,-1.1105115,-3.123213,-1.8974484,0.80665314,1.0507312,-3.524553,0.2767084,-0.5352647,1.7964221,-0.0066012987,-2.018258,0.13923107,1.3399085,0.99170846,-2.7418709,-1.1241614,1.4473897,0.49050042,0.21192609,-0.88137454
internos,1.2908304,1.6768217,-3.286308,-1.2422453,-0.41839436,-0.32723135,3.664962,-0.2916561,-0.3385892,3.5846646,0.9271247,-0.15130469,2.396804,3.0829384,1.2130872,-0.2977793,1.8573437,0.5002624,-0.990863,1.4038941,2.073858,0.27015585,0.16849391,1.187133,-2.056299,-0.20409796,0.10299306,-2.5753062,-2.363018,-2.466536,-1.8482479,-3.3091924,-1.6770741,0.3741531,0.858029,-3.2316153,-0.13860354,0.11804658,1.941145,0.09626984,-1.8252031,0.27213082,0.9774721,0.87394404,-2.8767114,-1.2173084,2.0428715,0.76329124,0.6908728,-0.99992883
casos,1.6130292,1.5489945,-3.2515473,-1.1172297,-0.2851769,-0.31855252,2.8870463,-0.65606624,-0.25104246,2.5190935,0.9789459,0.16354984,1.7018353,2.3220613,1.1247337,-0.5434586,1.8380264,1.2422984,-0.40317225,1.5208127,1.5775139,-0.06383296,0.36311045,0.6586092,-2.2544036,0.22005914,0.10622524,-2.2008486,-1.6710706,-1.8653352,-1.5420327,-3.0188818,-1.2663087,0.22941147,1.1097813,-2.441551,-0.31809992,0.32693395,1.9671134,0.0052894377,-1.5093125,0.43179795,0.71185493,0.629552,-2.1430116,-0.89051664,1.6758115,0.8001826,2.090642,-0.9734469
